
\data\
ngram 1=26754

\1-grams:
-3.902529	$1
-5.28274	$1,
-4.437642	$1,000
-5.28274	$1,000.
-5.28274	$1,100
-5.28274	$1,200,
-4.98171	$1,200.
-5.28274	$1,235.50
-5.28274	$1,600
-5.28274	$1,700
-5.28274	$1,800
-5.28274	$1.01
-5.28274	$1.04
-4.58377	$1.1
-5.28274	$1.11
-5.28274	$1.13
-5.28274	$1.15
-5.28274	$1.17,
-4.805619	$1.2
-5.28274	$1.21
-5.28274	$1.23
-4.805619	$1.25
-4.98171	$1.3
-5.28274	$1.32
-5.28274	$1.33
-4.98171	$1.4
-5.28274	$1.41
-5.28274	$1.45
-5.28274	$1.46
-4.68068	$1.5
-4.98171	$1.50
-5.28274	$1.59,
-4.98171	$1.6
-5.28274	$1.62
-5.28274	$1.65
-5.28274	$1.67
-4.504589	$1.7
-5.28274	$1.75
-5.28274	$1.78
-4.98171	$1.8
-5.28274	$1.86
-5.28274	$1.90
-4.98171	$1.99
-4.027467	$10
-4.68068	$10,000
-5.28274	$10,000.
-5.28274	$10.2
-5.28274	$10.3
-5.28274	$10.4
-5.28274	$10.5
-5.28274	$10.50.
-5.28274	$10.7
-5.28274	$10.8
-5.28274	$10.9
-4.003986	$100
-5.28274	$100,
-4.58377	$100,000
-5.28274	$100?
-5.28274	$102.6
-4.98171	$105
-5.28274	$106.01
-5.28274	$108
-5.28274	$108,000
-5.28274	$109,900
-4.28274	$11
-4.98171	$11,000
-5.28274	$11-an-hour
-4.805619	$11.1
-5.28274	$11.25
-5.28274	$11.3
-4.98171	$11.5
-4.98171	$115
-5.28274	$119,995
-4.504589	$12
-5.28274	$12,000-a-year
-5.28274	$120
-5.28274	$122
-5.28274	$125
-5.28274	$125,000
-5.28274	$128
-4.98171	$13
-5.28274	$13.09
-5.28274	$13.25
-5.28274	$13.5
-5.28274	$13.50
-5.28274	$130
-5.28274	$130,
-5.28274	$134
-5.28274	$135,000
-4.98171	$139.5
-4.504589	$14
-5.28274	$14.3
-5.28274	$14.4
-5.28274	$140
-5.28274	$148
-4.68068	$15
-5.28274	$15,000
-5.28274	$15,696
-5.28274	$15.
-5.28274	$15.09,
-4.58377	$150
-5.28274	$150,000)
-5.28274	$150-billion-a-year
-5.28274	$153
-5.28274	$158.
-4.805619	$16
-4.98171	$16.4
-4.68068	$160
-5.28274	$17.50
-5.28274	$17.53
-5.28274	$17.6
-5.28274	$170
-5.28274	$170,000
-5.28274	$175,000
-5.28274	$177.3
-4.98171	$18
-5.28274	$18-a-share
-5.28274	$18.04
-4.98171	$18.5
-5.28274	$180
-5.28274	$180,''
-4.98171	$185
-5.28274	$19
-5.28274	$19.32
-5.28274	$19.95
-4.98171	$190
-4.805619	$195
-4.052291	$2
-4.805619	$2,000
-5.28274	$2,500
-5.28274	$2,700
-5.28274	$2.1
-5.28274	$2.18
-5.28274	$2.18,
-4.98171	$2.2
-5.28274	$2.26
-4.98171	$2.3
-4.805619	$2.4
-5.28274	$2.49
-4.437642	$2.5
-5.28274	$2.50
-5.28274	$2.51,
-5.28274	$2.53
-5.28274	$2.6
-4.98171	$2.66
-4.437642	$2.7
-4.98171	$2.8
-5.28274	$2.85
-4.98171	$2.9
-4.241347	$20
-5.28274	$20's
-5.28274	$20,000
-4.98171	$20.1
-4.504589	$200
-5.28274	$200,
-5.28274	$200.
-5.28274	$205.96
-5.28274	$21
-4.98171	$21.1
-4.98171	$21.5
-4.98171	$215
-5.28274	$219,000.
-5.28274	$222,061.25
-5.28274	$225
-5.28274	$228,
-4.805619	$23
-5.28274	$23,000
-5.28274	$23.01,
-5.28274	$23.51
-5.28274	$24.25
-5.28274	$24.95
-5.28274	$240,000
-5.28274	$245
-5.28274	$246
-4.58377	$25
-5.28274	$25,
-4.98171	$25,000
-4.805619	$25.4
-5.28274	$25.72
-4.805619	$250
-4.98171	$250,000
-5.28274	$250,000,
-5.28274	$259
-5.28274	$26
-5.28274	$26,
-5.28274	$260
-5.28274	$265
-4.98171	$27
-5.28274	$27.50
-5.28274	$27.8
-5.28274	$275
-5.28274	$275.12.
-5.28274	$279
-5.28274	$279,000,
-4.98171	$28
-5.28274	$28.5
-5.28274	$28.50),
-5.28274	$285.10.
-4.805619	$29
-5.28274	$290
-4.168797	$3
-5.28274	$3,000
-5.28274	$3,300
-5.28274	$3,632
-5.28274	$3.12,
-5.28274	$3.14
-5.28274	$3.2
-5.28274	$3.21
-4.98171	$3.3
-4.805619	$3.4
-4.98171	$3.5
-5.28274	$3.56
-4.98171	$3.6
-5.28274	$3.7
-5.28274	$3.9
-4.437642	$30
-5.28274	$30,000
-5.28274	$30,000.
-4.37965	$300
-4.98171	$300,000
-4.805619	$31.5
-5.28274	$31.88,
-5.28274	$315
-4.98171	$32
-5.28274	$325
-5.28274	$325,000,
-5.28274	$339
-5.28274	$339,900
-5.28274	$340
-5.28274	$35
-4.98171	$350
-5.28274	$353
-5.28274	$358
-5.28274	$36.13
-4.98171	$360
-5.28274	$366,
-4.98171	$37
-5.28274	$370
-5.28274	$375
-5.28274	$375,000
-5.28274	$38,270,
-5.28274	$382
-5.28274	$382.5
-5.28274	$386
-5.28274	$39
-5.28274	$39.99=500g
-5.28274	$390,000.
-4.241347	$4
-5.28274	$4,000
-5.28274	$4.04
-5.28274	$4.18
-5.28274	$4.2
-5.28274	$4.3
-4.68068	$4.5
-5.28274	$4.58
-5.28274	$4.6
-4.98171	$4.7
-4.805619	$4.8
-4.805619	$4.95
-4.437642	$40
-5.28274	$40,000-a-month
-5.28274	$40.1
-4.37965	$400
-5.28274	$400,000
-5.28274	$403.45,
-5.28274	$405,000.
-5.28274	$41
-5.28274	$42.01,
-5.28274	$428
-4.98171	$43
-5.28274	$43.01
-5.28274	$430
-5.28274	$44.7
-5.28274	$440
-5.28274	$445
-5.28274	$45
-4.58377	$450
-5.28274	$453
-5.28274	$47.8
-5.28274	$48.53
-5.28274	$482
-5.28274	$49.95
-5.28274	$496
-5.28274	$499
-4.58377	$5
-4.98171	$5,000
-4.98171	$5.1
-5.28274	$5.27
-5.28274	$5.3
-5.28274	$5.30.
-5.28274	$5.35
-5.28274	$5.36.
-4.68068	$5.4
-5.28274	$5.44
-5.28274	$5.7
-5.28274	$5.8
-5.28274	$5.85
-4.168797	$50
-4.805619	$50,000
-5.28274	$50,000,
-5.28274	$50,000.
-4.203558	$500
-5.28274	$500''
-4.68068	$500,000
-5.28274	$500,000,
-4.98171	$51
-5.28274	$525
-4.98171	$53
-5.28274	$53.32
-5.28274	$54
-5.28274	$54.1
-5.28274	$540,000
-5.28274	$55
-5.28274	$55,000
-5.28274	$55.39
-5.28274	$55.65
-5.28274	$56.2
-5.28274	$56.4
-5.28274	$56.46
-5.28274	$56.72
-5.28274	$57.16
-5.28274	$58
-5.28274	$59.80.
-4.98171	$599
-4.437642	$6
-5.28274	$6,000
-5.28274	$6,600,
-5.28274	$6,800
-5.28274	$6.2
-5.28274	$6.4
-5.28274	$6.40
-5.28274	$6.5
-5.28274	$6.56
-5.28274	$6.75
-4.37965	$60
-5.28274	$60,
-4.98171	$60,000
-4.58377	$600
-5.28274	$611.4
-4.98171	$612.5
-5.28274	$615
-5.28274	$617
-5.28274	$618.
-5.28274	$631
-5.28274	$639
-5.28274	$65
-5.28274	$65,000
-5.28274	$650
-5.28274	$650,
-4.98171	$652
-5.28274	$658
-5.28274	$66.66,
-4.98171	$67
-5.28274	$670
-5.28274	$680
-5.28274	$682
-5.28274	$69.95
-5.28274	$690
-5.28274	$695,
-4.98171	$7
-5.28274	$7.26
-4.98171	$7.4
-4.98171	$7.5
-4.805619	$7.6
-4.98171	$7.7
-5.28274	$7.75
-5.28274	$7.8
-4.98171	$7.9
-5.28274	$70
-4.98171	$70,000
-5.28274	$70,000),
-4.805619	$700
-5.28274	$701.50
-5.28274	$71.5
-5.28274	$71.97
-5.28274	$72.13
-4.805619	$75
-5.28274	$75,995
-5.28274	$75.
-4.98171	$750
-5.28274	$750,000
-5.28274	$754
-5.28274	$76
-5.28274	$76.99=1000g.''
-5.28274	$760
-5.28274	$768
-5.28274	$770
-5.28274	$779
-5.28274	$78
-5.28274	$78,
-5.28274	$780,000
-5.28274	$785
-5.28274	$79.95
-5.28274	$79.99-a-year
-4.504589	$8
-5.28274	$8,000
-5.28274	$8.4
-4.58377	$8.5
-4.805619	$8.9
-4.68068	$80
-4.805619	$800
-5.28274	$800,
-5.28274	$815
-5.28274	$828
-5.28274	$83
-5.28274	$84
-5.28274	$85
-4.805619	$850
-5.28274	$857.9
-5.28274	$892
-4.58377	$9
-5.28274	$9.1
-5.28274	$9.19
-5.28274	$9.5
-5.28274	$9.6
-5.28274	$9.73
-5.28274	$9.74
-5.28274	$9.8
-5.28274	$9.9
-4.98171	$9.95
-5.28274	$9.98,
-5.28274	$9.99
-5.28274	$90
-5.28274	$90,
-5.28274	$900
-4.98171	$900,
-5.28274	$900,000
-5.28274	$92.96,
-5.28274	$93
-5.28274	$943
-5.28274	$95
-5.28274	$952
-5.28274	$96
-5.28274	$98,000
-3.142861	&
-4.37965	''
-5.28274	'''i
-5.28274	''1,623.''
-5.28274	''20
-5.28274	''24''
-4.98171	''24,''
-5.28274	''24:
-5.28274	''40
-5.28274	''52
-4.805619	''60
-4.052291	''a
-5.28274	''a.d.i.d.a.s.''
-5.28274	''about
-5.28274	''abrasive.''
-5.28274	''absent
-5.28274	''adult
-5.28274	''advanced
-5.28274	''adverse
-5.28274	''advertisement''
-5.28274	''aesthetics
-5.28274	''after
-5.28274	''age
-5.28274	''alien,''
-4.98171	''all
-5.28274	''almost
-5.28274	''am
-4.68068	''american
-5.28274	''an
-4.437642	''and
-5.28274	''annual
-5.28274	''anthems
-5.28274	''anti-civil
-5.28274	''apple
-5.28274	''aquaman''
-5.28274	''are
-5.28274	''areas
-5.28274	''art
-4.98171	''as
-4.68068	''at
-4.98171	''automotive
-5.28274	''b.o.b''
-5.28274	''ball.''
-5.28274	''bangkok
-5.28274	''banking
-5.28274	''basically,
-5.28274	''battle
-5.28274	''baywatch,''
-5.28274	''bear
-5.28274	''bed
-4.98171	''being
-4.805619	''best
-4.98171	''big
-5.28274	''billie
-5.28274	''black
-5.28274	''blood
-4.98171	''both
-5.28274	''brother
-5.28274	''bubble''
-5.28274	''buffy
-5.28274	''bust''
-4.168797	''but
-5.28274	''buying
-5.28274	''buzz''
-5.28274	''by
-5.28274	''california
-5.28274	''campaign
-5.28274	''camping
-4.98171	''can
-5.28274	''can't
-5.28274	''cars,''
-5.28274	''catdog''
-4.98171	''cbs
-5.28274	''certify
-5.28274	''challenging''
-5.28274	''cheerfully
-4.98171	''chess
-5.28274	''chicken
-5.28274	''chief
-5.28274	''clean
-5.28274	''clear
-5.28274	''clearly
-5.28274	''closer,''
-5.28274	''closing
-5.28274	''coley's
-5.28274	''commoditization''
-5.28274	''computer''
-5.28274	''confessions
-5.28274	''confusion
-4.98171	''conspiracy
-5.28274	''constantine,''
-5.28274	''constantly''
-5.28274	''contest
-5.28274	''continues
-5.28274	''convenience
-5.28274	''conventional
-5.28274	''corporate
-5.28274	''corporate-owned
-5.28274	''cracking
-5.28274	''crossfire''
-5.28274	''crossfire,''
-5.28274	''currencies
-5.28274	''dad,
-4.98171	''david
-4.98171	''deeply
-4.68068	''desperate
-5.28274	''despite
-5.28274	''detention''
-5.28274	''deteriorating
-5.28274	''determined
-5.28274	''devastated''
-4.98171	''did
-5.28274	''died
-5.28274	''dillard's
-5.28274	''diminishing
-5.28274	''ding''
-4.805619	''dirty
-5.28274	''disgusting''
-5.28274	''dismal
-5.28274	''dissociative
-5.28274	''distort''
-5.28274	''distract
-4.98171	''do
-4.98171	''don't
-4.98171	''dr.
-5.28274	''drivers
-5.28274	''dump,''
-5.28274	''e-jets,''
-5.28274	''each
-5.28274	''egregiously
-5.28274	''employee
-5.28274	''enough
-5.28274	''enough!''
-5.28274	''entourage''
-4.98171	''entourage,''
-5.28274	''entrepreneurial
-5.28274	''environmentally
-5.28274	''er''
-5.28274	''erasable
-5.28274	''erdemir
-5.28274	''err
-5.28274	''erupting
-5.28274	''escapologists''
-5.28274	''eternal
-5.28274	''evening
-5.28274	''ever.
-5.28274	''everyone
-5.28274	''everything
-5.28274	''exciting''
-5.28274	''experience
-5.28274	''experiences''
-5.28274	''explore
-5.28274	''expose
-5.28274	''extra''
-5.28274	''face
-5.28274	''fahrenheit
-5.28274	''fair,
-5.28274	''famous
-5.28274	''feels
-5.28274	''financial
-5.28274	''fingerball''
-4.805619	''for
-5.28274	''forrest
-4.98171	''frankly,
-5.28274	''fraud''
-5.28274	''freakonomics.''
-5.28274	''fresh
-5.28274	''fully
-5.28274	''g.m.
-5.28274	''garbage
-5.28274	''garbologist''
-5.28274	''gate''
-4.98171	''get
-5.28274	''ghost
-5.28274	''going
-5.28274	''gold
-4.98171	''golden
-5.28274	''goldilocks
-5.28274	''gone
-4.805619	''good
-5.28274	''google's
-5.28274	''googled,''
-5.28274	''googles''
-5.28274	''googling.''
-5.28274	''got
-5.28274	''gotcha!''
-5.28274	''gran
-4.98171	''great
-5.28274	''greater
-5.28274	''guilty.''
-5.28274	''hactivists,''
-4.805619	''hard
-5.28274	''hardware
-4.98171	''harvey
-4.98171	''has
-4.805619	''he
-4.98171	''he's
-5.28274	''hell
-5.28274	''hello.
-5.28274	''help
-5.28274	''here
-5.28274	''hi,plz
-5.28274	''hideous
-5.28274	''high
-5.28274	''hips
-5.28274	''holes
-4.805619	''how
-5.28274	''huff.''
-5.28274	''hulk''
-5.28274	''humane
-5.28274	''hypothetical
-3.550346	''i
-5.28274	''i'll
-4.805619	''i'm
-4.58377	''i've
-5.28274	''idol''
-4.805619	''if
-5.28274	''ill-conceived.''
-5.28274	''ill-received.''
-5.28274	''imagine''
-5.28274	''imbalances''
-5.28274	''imperative
-5.28274	''imus
-4.504589	''in
-5.28274	''inappropriate''
-5.28274	''incredibly,''
-5.28274	''industrial
-5.28274	''inflation
-5.28274	''intense
-5.28274	''interested
-5.28274	''internet''
-5.28274	''intimate
-4.98171	''ipod
-4.68068	''is
-5.28274	''isn't
-3.921012	''it
-5.28274	''it''
-3.940317	''it's
-5.28274	''j.f.k.,''
-5.28274	''jesus
-5.28274	''johnny
-4.58377	''just
-5.28274	''kaesong
-5.28274	''katrina
-5.28274	''keystone
-5.28274	''kiev''
-5.28274	''ladies'
-5.28274	''lapse
-5.28274	''lara
-5.28274	''lasco.a,''
-4.98171	''last
-5.28274	''law
-5.28274	''lazy
-5.28274	''leak''
-5.28274	''let's
-5.28274	''liar's
-5.28274	''lightly
-5.28274	''like
-5.28274	''like''
-5.28274	''long
-5.28274	''looking
-5.28274	''loose
-4.98171	''lord
-4.98171	''lost''
-5.28274	''lost.''
-5.28274	''love
-5.28274	''lovespring
-4.98171	''made
-5.28274	''management
-5.28274	''mark
-5.28274	''mary,
-5.28274	''mastering
-5.28274	''may
-5.28274	''medical
-5.28274	''meditation
-5.28274	''meeting
-5.28274	''microsoft
-5.28274	''mileage-run-induced
-5.28274	''miracle
-5.28274	''mississippi
-5.28274	''mmmbop,''
-5.28274	''mobbed
-5.28274	''modern
-5.28274	''modigliani'';
-5.28274	''money,
-5.28274	''monsoon
-5.28274	''monty
-4.805619	''more
-4.98171	''mr.
-5.28274	''msm''
-5.28274	''murder
-5.28274	''music
-4.37965	''my
-5.28274	''national
-5.28274	''nbc
-5.28274	''necessary
-5.28274	''negligible''
-5.28274	''net
-5.28274	''net-net,
-5.28274	''network
-5.28274	''neutralize''
-5.28274	''new
-5.28274	''newsweek
-5.28274	''next-generation
-4.805619	''no
-5.28274	''no!
-5.28274	''no,
-5.28274	''no.
-5.28274	''norma
-4.68068	''not
-4.98171	''nothing
-4.98171	''now
-5.28274	''o.k.''
-5.28274	''obscene''
-5.28274	''off
-4.98171	''official
-4.98171	''oh,
-5.28274	''old
-4.98171	''on
-5.28274	''on''
-4.68068	''one
-5.28274	''online
-5.28274	''open
-5.28274	''organic''
-4.98171	''other
-5.28274	''other''
-4.805619	''our
-5.28274	''outplacement
-5.28274	''overconfidence
-5.28274	''overwhelming
-5.28274	''ownership
-5.28274	''parallel
-5.28274	''pedigree''
-4.805619	''people
-5.28274	''people''
-5.28274	''perfect
-5.28274	''performed
-5.28274	''personal
-5.28274	''phishing''
-5.28274	''photo''
-5.28274	''pied
-5.28274	''places
-5.28274	''pledge
-5.28274	''point
-5.28274	''polish,
-5.28274	''political
-5.28274	''prequel,''
-5.28274	''princess
-5.28274	''priority
-5.28274	''private
-5.28274	''probably
-5.28274	''promote
-5.28274	''punto
-5.28274	''put
-5.28274	''quite
-4.58377	''r''
-5.28274	''ragtime,''
-5.28274	''re4
-4.98171	''reasonable
-5.28274	''reasonably
-5.28274	''reduces
-5.28274	''reinventing
-5.28274	''relief
-5.28274	''renee,
-5.28274	''ring''
-5.28274	''safety
-5.28274	''sahara''
-5.28274	''sales
-5.28274	''satisfaction''
-5.28274	''saturday
-5.28274	''school
-5.28274	''screaming
-5.28274	''scrushy
-5.28274	''security
-5.28274	''sense
-5.28274	''serious
-5.28274	''seriously
-5.28274	''sesame
-5.28274	''severely
-5.28274	''sex
-5.28274	''she
-5.28274	''short
-5.28274	''should
-5.28274	''sideways,''
-5.28274	''six-figure
-5.28274	''slurper''
-5.28274	''small
-5.28274	''snowbird
-4.58377	''so
-5.28274	''so,
-5.28274	''social
-5.28274	''solidarity
-4.98171	''some
-5.28274	''sometimes,
-5.28274	''sordid
-5.28274	''spider-man,''
-5.28274	''spirit-lowering
-4.98171	''star
-5.28274	''start
-5.28274	''state
-5.28274	''stifle''
-5.28274	''sublime
-4.98171	''substantial
-5.28274	''sudden
-5.28274	''superior,''
-4.98171	''sweet
-5.28274	''sweetheart,''
-5.28274	''sy-fon''),
-5.28274	''symbos--vlasco.a''
-5.28274	''takes
-5.28274	''targeting''
-4.68068	''tell
-4.805619	''that
-5.28274	''that's
-3.338257	''the
-5.28274	''then
-4.37965	''there
-5.28274	''there's
-4.98171	''these
-4.168797	''they
-4.805619	''they're
-5.28274	''think
-4.07862	''this
-5.28274	''thumper,''
-5.28274	''thumper.''
-5.28274	''timing
-4.68068	''to
-4.98171	''today''
-4.68068	''today,''
-4.98171	''total
-5.28274	''tough
-5.28274	''treasure''
-5.28274	''treated
-5.28274	''trial
-5.28274	''triple
-5.28274	''truly
-5.28274	''trumpnation:
-5.28274	''trust
-5.28274	''turn
-4.805619	''two
-5.28274	''unacceptable
-5.28274	''unacceptable''
-5.28274	''uncertain
-5.28274	''underworld:
-5.28274	''united
-5.28274	''unlawful
-5.28274	''until
-5.28274	''upfront''
-5.28274	''value
-5.28274	''valued
-5.28274	''vanity
-5.28274	''very
-5.28274	''view
-5.28274	''viewpoint,''
-5.28274	''viral,''
-5.28274	''virtual
-5.28274	''virtually
-5.28274	''vultures
-5.28274	''wall
-4.98171	''want
-5.28274	''wanted
-5.28274	''was
-5.28274	''water
-3.851376	''we
-5.28274	''we'll
-4.58377	''we're
-4.805619	''we've
-5.28274	''weak''
-4.98171	''welcome
-5.28274	''well,
-5.28274	''went
-5.28274	''were
-5.28274	''what
-5.28274	''what'd
-4.98171	''what's
-4.504589	''when
-5.28274	''while
-5.28274	''who's
-5.28274	''whole
-5.28274	''why
-5.28274	''wild
-5.28274	''will
-5.28274	''williams
-5.28274	''witch
-4.98171	''with
-5.28274	''within
-5.28274	''without
-5.28274	''world
-5.28274	''worldcom
-5.28274	''worldwide
-5.28274	''would
-5.28274	''x-factor.''
-5.28274	''x-men''
-5.28274	''yeah,
-5.28274	''yes!
-5.28274	''yes,
-4.07862	''you
-4.68068	''you're
-5.28274	''z''
-5.28274	''¡ay,
-5.28274	'ali
-5.28274	'arrested
-5.28274	'but
-5.28274	'dukes
-5.28274	'em
-5.28274	'family
-5.28274	'g.m.
-4.805619	'how
-5.28274	'i
-5.28274	'i'm
-5.28274	'if
-5.28274	'it's
-5.28274	'n'
-5.28274	'pow!'
-5.28274	'scrubs,'
-5.28274	'silverman
-5.28274	'so
-5.28274	'soul'
-5.28274	'south
-5.28274	'thanks,
-4.98171	'the
-5.28274	'well,
-5.28274	'why
-5.28274	'you
-5.28274	($1,000
-5.28274	($1.02
-4.98171	($1.07
-5.28274	($1.5
-5.28274	($1.65
-5.28274	($1.7
-4.98171	($1.88
-5.28274	($1.98
-5.28274	($118)
-5.28274	($136
-5.28274	($139
-5.28274	($144.5
-5.28274	($150)
-5.28274	($16.5
-5.28274	($16.7
-5.28274	($171
-5.28274	($199
-5.28274	($2.15
-5.28274	($2.17
-5.28274	($2.4
-5.28274	($2.47
-5.28274	($2.7
-5.28274	($2.75
-5.28274	($209,000)
-5.28274	($21.79)
-5.28274	($215
-5.28274	($22
-5.28274	($23
-5.28274	($24.49)
-5.28274	($25.80)
-5.28274	($250).
-5.28274	($27.3
-5.28274	($3.5
-5.28274	($30
-5.28274	($32.8
-5.28274	($32.9
-4.98171	($33
-5.28274	($342
-5.28274	($4.5
-5.28274	($4.78
-5.28274	($405
-5.28274	($429
-5.28274	($443
-5.28274	($46.2
-5.28274	($486
-5.28274	($5.1
-5.28274	($5.2
-5.28274	($58.8
-5.28274	($59
-5.28274	($6.7
-5.28274	($6.73
-4.98171	($6.8
-5.28274	($660
-5.28274	($68)
-5.28274	($69.6
-5.28274	($809
-5.28274	($861.3
-5.28274	($99
-5.28274	(''for
-5.28274	(23.4
-4.98171	(24
-5.28274	(27.6
-5.28274	(30.7
-5.28274	(32
-5.28274	(32.7
-5.28274	(34
-5.28274	(39
-5.28274	(72
-5.28274	(73.5
-5.28274	(75,000)
-5.28274	(88
-5.28274	(91
-5.28274	(92.3
-4.98171	(a
-5.28274	(about
-5.28274	(according
-5.28274	(after
-5.28274	(all
-5.28274	(although
-4.805619	(and
-5.28274	(anyone
-5.28274	(ap)
-5.28274	(barry
-5.28274	(bloomberg
-5.28274	(cars),
-5.28274	(chris
-5.28274	(cited
-5.28274	(dell
-5.28274	(false,
-5.28274	(formerly
-5.28274	(get
-5.28274	(grainpower.org)
-5.28274	(india),
-5.28274	(international
-5.28274	(jan.
-5.28274	(john
-5.28274	(just
-4.805619	(like
-5.28274	(lycos.com/katrina),
-4.98171	(mr.
-4.98171	(nearly
-5.28274	(newnetworks.com).
-5.28274	(news.yahoo.com/katrinahelp).
-4.805619	(now
-5.28274	(on
-5.28274	(one
-4.805619	(or
-5.28274	(otherwise
-5.28274	(phillip
-4.98171	(pronounced
-5.28274	(publicaffairs,
-5.28274	(thanks
-5.28274	(that
-4.437642	(the
-4.98171	(though
-5.28274	(to
-4.98171	(which
-5.28274	(who,
-4.98171	(with
-5.28274	(www.neopets.com),
-5.28274	(www.radarmagazine.com)
-5.28274	(www.radioopensource.org)
-5.28274	(www.theonion.com/content/node/40121),
-5.28274	)
-4.68068	+
-2.500984	--
-5.28274	--probably
-5.28274	0,
-5.28274	0.2
-4.805619	0.3
-5.28274	0.4
-4.68068	0.5
-5.28274	0.54
-4.805619	0.6
-4.98171	0.8
-3.960521	1
-4.58377	1,
-5.28274	1,''
-4.28274	1,000
-4.98171	1,100
-5.28274	1,125
-5.28274	1,164,600,000,000
-5.28274	1,250
-5.28274	1,260
-5.28274	1,300
-5.28274	1,366
-5.28274	1,400
-5.28274	1,400-mile-range
-4.805619	1,500
-5.28274	1,500-square-foot
-5.28274	1,600
-5.28274	1,700,
-5.28274	1,759,
-5.28274	1,800-square-foot
-4.805619	1.
-5.28274	1.02
-5.28274	1.1
-5.28274	1.2-pound
-4.98171	1.3
-5.28274	1.3-megapixel
-4.98171	1.4
-5.28274	1.48
-4.98171	1.5
-5.28274	1.6
-5.28274	1.62
-5.28274	1.7
-4.805619	1.8
-4.805619	1.9
-5.28274	1.93
-5.28274	1.95
-5.28274	1/2
-5.28274	1/8-inch
-3.450231	10
-4.98171	10,
-4.58377	10,000
-5.28274	10-car
-5.28274	10-k
-5.28274	10-minute
-5.28274	10-page
-5.28274	10-second
-5.28274	10-week
-4.58377	10-year
-4.98171	10-year-old
-4.805619	10.
-4.98171	10.2
-5.28274	10.5
-5.28274	10.6-inch
-3.921012	100
-4.805619	100,000
-5.28274	100-foot
-5.28274	100.
-5.28274	100.25
-5.28274	100th
-4.98171	101
-5.28274	103
-5.28274	108
-5.28274	109
-5.28274	1099
-5.28274	10th-most-popular
-4.106648	11
-4.98171	11,
-5.28274	11,000
-5.28274	11,700
-5.28274	11-inches
-5.28274	11-week
-4.98171	11.
-5.28274	11.3
-5.28274	11.9
-5.28274	110
-5.28274	110,000
-4.98171	111
-4.98171	113
-5.28274	114,254-square-foot
-5.28274	114-year-old
-5.28274	119
-4.98171	11th
-3.867767	12
-4.98171	12,
-5.28274	12,000
-5.28274	12-
-5.28274	12-inch
-5.28274	12-part
-5.28274	12-year
-5.28274	12-year-old
-5.28274	12-year-olds
-4.98171	12.
-5.28274	12.1-inch
-5.28274	12.4
-5.28274	12.5
-5.28274	12.7
-4.98171	12.8
-5.28274	12.9
-4.68068	120
-5.28274	120,000
-4.98171	125
-5.28274	125-channel
-5.28274	129
-4.106648	13
-4.98171	13,000
-5.28274	13-passenger
-5.28274	13-year
-4.98171	13.
-5.28274	13.0
-5.28274	13.2
-5.28274	13.8-acre
-4.58377	130
-5.28274	132
-5.28274	132-mile
-3.940317	14
-5.28274	14,
-5.28274	14,000
-5.28274	14,159,265
-5.28274	14,500
-5.28274	14-hour
-5.28274	14-passenger
-5.28274	14-year
-5.28274	14.
-5.28274	14.2
-5.28274	14.6
-4.98171	14.67
-5.28274	14.7
-5.28274	140
-5.28274	142
-5.28274	1440.
-3.851376	15
-4.805619	15,
-5.28274	15,000
-4.98171	15-minute
-5.28274	15-year
-5.28274	15-year-old
-5.28274	15.
-5.28274	15.1
-5.28274	15.4-inch
-4.805619	150
-5.28274	156.
-5.28274	1580
-5.28274	15th
-5.28274	15th-century
-4.203558	16
-4.805619	16,
-5.28274	16-unit
-4.98171	16-year-old
-5.28274	16.
-5.28274	16.1
-5.28274	16.8
-5.28274	16.9
-5.28274	160
-5.28274	160,000
-5.28274	16th
-5.28274	16th.
-4.203558	17
-5.28274	17-year-old
-4.98171	17.
-5.28274	17.26
-5.28274	17.3
-5.28274	17.4
-5.28274	17.5
-4.98171	17.6
-5.28274	1712,
-5.28274	1720,
-5.28274	17th
-4.07862	18
-4.98171	18,
-5.28274	18-to-34-year-old
-5.28274	18.
-5.28274	18.5
-4.98171	18.6
-4.98171	180
-4.98171	180,000
-5.28274	1800's
-5.28274	1836
-5.28274	1839,
-5.28274	184
-5.28274	1840,
-5.28274	1861,
-5.28274	1897,
-5.28274	18th
-4.504589	19
-5.28274	19,000
-5.28274	19-year
-5.28274	19-year-old
-5.28274	19.4
-4.98171	19.8
-5.28274	190
-4.98171	190's
-5.28274	1908.
-5.28274	1914.
-5.28274	1919
-5.28274	1920's,
-5.28274	1920's-vintage
-5.28274	1920's.
-5.28274	1925.
-5.28274	1929
-5.28274	1929,
-5.28274	1930's
-5.28274	1930s
-5.28274	1932
-5.28274	1935
-5.28274	1935,
-5.28274	1936
-5.28274	1940.
-5.28274	1944
-5.28274	1944,
-5.28274	1945
-5.28274	1946
-5.28274	1947
-5.28274	1949,
-5.28274	1953.
-5.28274	1955,
-5.28274	1957
-5.28274	1960
-4.68068	1960's
-4.98171	1960's,
-5.28274	1960,
-5.28274	1961
-5.28274	1963,
-5.28274	1964.
-5.28274	1965,
-5.28274	1966
-5.28274	1966,
-5.28274	1966-2005,''
-5.28274	1967
-4.98171	1968
-5.28274	1969
-5.28274	1969,
-5.28274	1970's
-4.805619	1970's,
-5.28274	1970's.
-5.28274	1970,
-5.28274	1970s,
-5.28274	1971
-5.28274	1972
-5.28274	1973,
-5.28274	1973.
-5.28274	1974.
-5.28274	1975.
-4.805619	1977,
-5.28274	1977.
-5.28274	1978
-5.28274	1979
-5.28274	1979,
-5.28274	1979.
-5.28274	1980
-4.98171	1980's
-4.504589	1980's,
-4.68068	1980's.
-4.98171	1980,
-5.28274	1980.
-5.28274	1981
-5.28274	1981,
-5.28274	1982
-5.28274	1982,
-4.98171	1983
-5.28274	1983,
-5.28274	1984,
-5.28274	1985
-4.98171	1986
-4.98171	1986,
-4.98171	1987,
-5.28274	1987.
-4.98171	1988
-4.98171	1988.
-5.28274	1989
-5.28274	1989,
-5.28274	1989.
-4.68068	1990
-4.328497	1990's
-4.328497	1990's,
-4.504589	1990's.
-4.98171	1990,
-5.28274	1990-2005,''
-4.98171	1990.
-5.28274	1990s
-5.28274	1990s.
-4.98171	1991
-5.28274	1991,
-5.28274	1991.
-5.28274	1991?
-4.98171	1992
-5.28274	1992.
-5.28274	1993
-4.98171	1993,
-5.28274	1994
-5.28274	1994,
-5.28274	1994.
-4.68068	1995
-4.98171	1995,
-5.28274	1995.
-4.805619	1996
-4.98171	1996,
-4.68068	1997
-4.68068	1997,
-5.28274	1997-2001.
-4.58377	1997.
-4.805619	1998
-4.805619	1998,
-4.68068	1998.
-4.37965	1999
-4.37965	1999,
-5.28274	1999,''
-4.58377	1999.
-4.003986	2
-5.28274	2),
-5.28274	2,
-4.805619	2,000
-5.28274	2,000-mile-range
-5.28274	2,100-mile-range
-5.28274	2,200
-5.28274	2,200-square-foot
-5.28274	2,220.46,
-4.98171	2,500
-5.28274	2,750
-5.28274	2-megapixel
-4.98171	2.
-5.28274	2.0
-5.28274	2.02
-5.28274	2.07
-5.28274	2.18
-4.805619	2.2
-4.98171	2.3
-4.58377	2.5
-5.28274	2.50
-5.28274	2.55
-5.28274	2.6
-4.805619	2.7
-5.28274	2.77
-5.28274	2.8
-5.28274	2.9
-5.28274	2.91
-3.592544	20
-5.28274	20's
-4.98171	20,
-4.98171	20,000
-5.28274	20-city
-5.28274	20-hour
-5.28274	20-something
-5.28274	20.1
-5.28274	20.48
-4.37965	200
-5.28274	200,''
-4.58377	200,000
-5.28274	200,000-square-foot
-5.28274	200-foot
-5.28274	200-shot
-5.28274	200-year
-4.203558	2000
-4.203558	2000,
-4.28274	2000.
-5.28274	20002.
-4.136612	2001
-3.851376	2001,
-4.437642	2001.
-5.28274	2001;
-4.106648	2002
-5.28274	2002).
-4.241347	2002,
-4.203558	2002.
-5.28274	2002;
-4.203558	2003
-4.003986	2003,
-4.241347	2003.
-3.851376	2004
-3.851376	2004,
-4.28274	2004.
-5.28274	2004;
-4.241347	2005
-4.328497	2005,
-5.28274	2005,''
-5.28274	2005-6
-4.37965	2005.
-5.28274	2005;
-4.241347	2006
-4.28274	2006,
-5.28274	2006,''
-4.68068	2006.
-4.58377	2007
-4.805619	2007.
-5.28274	2008
-5.28274	2008,
-5.28274	2008,''
-4.98171	2008.
-5.28274	2009
-5.28274	2009,
-4.805619	2009.
-4.68068	2010,
-4.98171	2010.
-5.28274	2011.
-5.28274	2014.
-4.98171	202
-5.28274	2040
-5.28274	209
-4.504589	20th
-5.28274	20th-century
-4.37965	21
-4.98171	21,
-5.28274	21-room
-5.28274	21-year-old
-5.28274	21.
-5.28274	21.4
-5.28274	2105
-5.28274	211,000
-5.28274	213-year-old
-5.28274	215,000
-4.98171	21st
-5.28274	21st-century
-4.58377	22
-5.28274	22,
-5.28274	22.
-5.28274	22.20
-5.28274	22.4
-5.28274	220
-5.28274	224-page
-4.68068	23
-5.28274	23,
-5.28274	23-59
-5.28274	23-acre
-5.28274	23-year-old
-4.98171	23.
-5.28274	230
-5.28274	23c
-4.07862	24
-4.98171	24,
-5.28274	24,000
-4.98171	24-7
-5.28274	24-foot-high
-5.28274	24-hour
-5.28274	24-karat
-5.28274	24.
-4.98171	24/7
-5.28274	24/7,
-5.28274	240,000.
-5.28274	24th
-3.77759	25
-4.98171	25,
-4.98171	25,000
-5.28274	25-foot
-5.28274	25-hour
-4.68068	25-year
-5.28274	25-year-old
-5.28274	25.7
-5.28274	25.8
-5.28274	250-gigabyte
-4.241347	26
-4.58377	26,
-5.28274	26-year-old
-5.28274	26.
-5.28274	26.18
-5.28274	26.9
-5.28274	266
-4.437642	27
-5.28274	27-inch
-4.98171	27-year-old
-5.28274	27.5
-5.28274	270,000
-5.28274	273,305,
-5.28274	27b
-5.28274	27th
-4.68068	28
-4.98171	28,
-5.28274	28,000
-5.28274	28-minute
-5.28274	28-year-old
-5.28274	28.
-5.28274	28.75
-5.28274	280
-5.28274	280-member
-5.28274	284
-5.28274	287,341
-5.28274	28th,
-4.437642	29
-4.68068	29,
-4.98171	29-year-old
-5.28274	29.
-5.28274	290.7
-5.28274	296.5
-4.28274	3
-4.98171	3,
-4.805619	3,000
-5.28274	3,100
-5.28274	3,200-square-foot
-5.28274	3,300
-5.28274	3,600
-5.28274	3,600-pound
-5.28274	3-d
-5.28274	3-d?
-4.68068	3.1
-5.28274	3.14159265.
-4.805619	3.2
-5.28274	3.21
-5.28274	3.25
-4.98171	3.3
-5.28274	3.4
-4.504589	3.5
-5.28274	3.59
-4.98171	3.7
-5.28274	3.73
-5.28274	3.8
-3.68068	30
-5.28274	30's
-4.58377	30,
-5.28274	30,000
-5.28274	30,000-square-foot
-4.98171	30-day
-5.28274	30-second
-4.805619	30-year
-4.98171	30-year-old
-5.28274	30.
-4.37965	300
-5.28274	300,
-4.98171	300,000
-5.28274	300,000.
-5.28274	300-inch
-5.28274	300-millimeter
-5.28274	300-thread-count
-5.28274	3000
-5.28274	307
-5.28274	309
-5.28274	30th
-4.58377	31
-4.437642	31,
-4.68068	31.
-5.28274	31.1
-5.28274	31.4
-4.98171	31.5
-5.28274	31/4
-5.28274	310
-4.37965	32
-4.98171	32,
-5.28274	32-year-old
-5.28274	324
-4.504589	33
-5.28274	33,
-5.28274	33,000
-5.28274	33-year-old
-5.28274	330
-5.28274	331
-5.28274	33rd
-4.805619	34
-5.28274	34,
-5.28274	344.5
-5.28274	345
-5.28274	34th
-4.37965	35
-5.28274	35,
-5.28274	35,000
-5.28274	35-millimeter
-5.28274	35-year-old
-5.28274	35.57
-5.28274	350
-5.28274	352
-4.68068	36
-5.28274	360
-4.98171	360,
-4.68068	37
-4.98171	37,
-5.28274	37,000
-4.98171	38
-4.98171	38,
-5.28274	38-
-5.28274	38-month
-4.58377	39,
-5.28274	39-year-old
-5.28274	3:30
-5.28274	3m
-5.28274	3m's
-4.98171	3m,
-4.328497	4
-4.805619	4,
-5.28274	4,000
-5.28274	4,400
-5.28274	4,700
-5.28274	4-year-old
-4.98171	4.0
-5.28274	4.0,
-5.28274	4.0.
-5.28274	4.10
-4.98171	4.2
-5.28274	4.31
-5.28274	4.4
-4.98171	4.5
-5.28274	4.54
-4.98171	4.64
-4.805619	4.7
-5.28274	4.88
-4.98171	4.9
-3.835582	40
-5.28274	40's.
-4.98171	40,
-5.28274	40,000
-5.28274	40,000.
-5.28274	40-second
-5.28274	40-something
-5.28274	40-year-old
-5.28274	40.''
-5.28274	40.5
-4.805619	400
-4.98171	400,000
-4.68068	401(k)
-5.28274	401(k),
-5.28274	405,
-4.98171	40th
-4.98171	41
-5.28274	41,
-5.28274	41.44
-4.98171	411
-4.98171	42
-4.58377	42,
-5.28274	42,000
-5.28274	42-year-old
-5.28274	420
-5.28274	425
-5.28274	42nd
-5.28274	43
-5.28274	43-year-old
-5.28274	43.5
-5.28274	43rd
-4.98171	44
-4.68068	44,
-5.28274	44-year-old
-5.28274	44th
-4.58377	45
-5.28274	45-minute
-5.28274	45.
-4.68068	46
-5.28274	46-inch
-5.28274	460
-4.805619	47
-4.68068	47,
-5.28274	47-year-old
-5.28274	475
-4.805619	48
-4.805619	48,
-4.98171	48-year-old
-5.28274	480
-4.805619	49
-5.28274	49,
-5.28274	49.8
-5.28274	4:30
-5.28274	4runner,
-4.37965	5
-4.805619	5,
-4.437642	5,000
-5.28274	5,200
-5.28274	5,800
-5.28274	5-foot-10
-5.28274	5-foot-10,
-5.28274	5-year-old
-4.805619	5.2
-4.98171	5.3
-5.28274	5.31
-5.28274	5.4
-5.28274	5.44
-4.68068	5.5
-5.28274	5.51
-5.28274	5.6
-5.28274	5.7
-5.28274	5.8
-3.921012	50
-4.805619	50,
-4.58377	50,000
-4.98171	50-inch
-5.28274	50-year-old
-5.28274	50.06
-4.168797	500
-5.28274	500,000-barrel-a-day
-4.98171	500-foot
-5.28274	500-page
-4.37965	500-stock
-4.98171	50th
-4.805619	51
-4.504589	51,
-5.28274	51,000
-5.28274	51.17
-5.28274	512
-5.28274	512-megabit
-5.28274	517,000-square-foot
-4.98171	52
-4.437642	52,
-4.98171	52-week
-5.28274	52.50
-5.28274	53
-4.98171	53,
-5.28274	53rd
-4.68068	54,
-5.28274	54-year-old
-5.28274	54.
-5.28274	540
-4.98171	55
-4.504589	55,
-5.28274	55-year
-5.28274	55.
-5.28274	55.60
-5.28274	550
-5.28274	550,000
-5.28274	56
-4.68068	56,
-4.58377	57
-5.28274	57,
-5.28274	57,000
-5.28274	57-year-old,
-5.28274	57th
-4.805619	58
-4.805619	58,
-5.28274	585
-5.28274	587
-4.98171	59
-4.805619	59,
-5.28274	59th
-4.98171	5:30
-4.28274	6
-4.504589	6,
-4.58377	6,000
-5.28274	6-foot,
-5.28274	6-year-old,
-4.98171	6.
-5.28274	6.16
-4.98171	6.5
-4.98171	6.7
-4.98171	6.8
-5.28274	6.9
-4.28274	60
-5.28274	60's,
-5.28274	60,
-5.28274	60,000
-5.28274	60-page
-5.28274	60-second
-5.28274	60-year-old
-5.28274	60.
-5.28274	60.1
-5.28274	600
-5.28274	600,000
-5.28274	600th
-5.28274	61
-4.98171	61,
-5.28274	61,000
-5.28274	61.
-4.98171	62
-5.28274	62,
-5.28274	62.
-4.98171	63
-5.28274	63,
-5.28274	63,000
-5.28274	630,000,
-4.805619	64
-5.28274	64,
-4.68068	64-year-old
-4.98171	640
-4.805619	65
-4.98171	65,
-5.28274	65-foot
-5.28274	65-inch
-5.28274	66
-5.28274	66.
-5.28274	66.8
-5.28274	660
-4.805619	67
-4.805619	67,
-5.28274	672
-4.98171	68
-4.805619	68,
-5.28274	68,089.
-5.28274	68-year-old
-4.98171	68th
-5.28274	69,
-5.28274	69.
-5.28274	690,000
-5.28274	691
-5.28274	69th
-4.203558	7
-5.28274	7'').
-4.98171	7,
-4.98171	7,000
-5.28274	7,200
-5.28274	7,500
-5.28274	7,800
-4.98171	7-eleven
-5.28274	7-to-2
-5.28274	7-year-old,
-5.28274	7.
-5.28274	7.1
-5.28274	7.15
-5.28274	7.33
-5.28274	7.35
-4.98171	7.6
-5.28274	7.62-millimeter
-5.28274	7.9
-4.58377	70
-5.28274	70's
-4.98171	70.
-4.805619	700
-4.98171	700,000
-4.805619	71
-5.28274	71,
-5.28274	71,600
-5.28274	71-year-old
-5.28274	717
-5.28274	717,
-5.28274	72.3
-5.28274	72.6
-5.28274	73
-5.28274	74,
-5.28274	747
-4.98171	747's
-4.504589	75
-5.28274	75,300
-5.28274	75-70.
-5.28274	75-acre
-4.805619	750
-5.28274	76
-5.28274	76.
-5.28274	768,250
-4.68068	77
-5.28274	777's
-5.28274	777-200lr,
-5.28274	777-300er
-5.28274	77th
-4.98171	78
-5.28274	78-year-old
-4.98171	78.
-5.28274	784
-5.28274	79
-4.98171	7:30
-4.98171	7e7
-5.28274	7e7,
-4.052291	8
-4.805619	8,
-4.805619	8,000
-5.28274	8,685
-5.28274	8-year-old
-4.98171	8.09
-5.28274	8.4
-4.98171	8.5
-4.98171	8.9
-5.28274	8.99
-4.328497	80
-5.28274	80,000
-5.28274	80-degree
-5.28274	80-gigabyte
-5.28274	80-hour
-5.28274	80.
-5.28274	80.2
-5.28274	800
-5.28274	800-pound
-5.28274	81
-5.28274	81,
-5.28274	82
-4.98171	83
-5.28274	83,
-5.28274	83,000
-5.28274	83-year
-4.98171	83.
-5.28274	84
-5.28274	84.
-5.28274	84.3
-4.68068	85
-5.28274	85.
-5.28274	850,000
-5.28274	87
-5.28274	873
-5.28274	88
-5.28274	88.
-5.28274	8o
-4.203558	9
-4.98171	9,
-5.28274	9,223,400,000,000,000,000
-5.28274	9-7x
-5.28274	9-7x,
-4.98171	9-millimeter
-5.28274	9-to-5
-5.28274	9-year-old
-5.28274	9.
-5.28274	9.3
-5.28274	9.4
-4.805619	9.5
-5.28274	9.8
-5.28274	9/11''
-5.28274	9/11,
-5.28274	9/11.
-4.328497	90
-4.98171	90,
-5.28274	90-day
-5.28274	90-foot
-5.28274	90.
-4.98171	900
-5.28274	900-store
-4.98171	911
-5.28274	911.
-4.98171	92
-5.28274	92-year-old
-4.805619	93
-4.437642	95
-5.28274	950
-5.28274	959
-5.28274	95th
-5.28274	96
-5.28274	98
-4.68068	99
-5.28274	99-
-5.28274	99-cent
-1.623585	</s>
-99	<s>
-5.279202	<unk>
-5.28274	?
-4.98171	[page
-1.550266	a
-5.28274	a-line
-4.98171	a-list
-5.28274	a-wastin'
-3.57517	a.
-5.28274	a.f.l.-c.i.o.
-3.867767	a.i.g.
-4.805619	a.i.g.'s
-5.28274	a.i.g.'s.
-4.805619	a.i.g.,
-5.28274	a.i.g.;
-5.28274	a.j.
-4.68068	a.m.
-4.98171	a.m.,
-5.28274	a.m.d.
-5.28274	a.m.d.'s
-5.28274	a.p.j.
-4.98171	a.p.s.-size
-4.98171	a320
-5.28274	a320's,
-4.28274	a380
-4.98171	a380's
-4.98171	a380,
-5.28274	a9,
-5.28274	aaron
-4.805619	aarp
-5.28274	aarp,
-5.28274	ab
-5.28274	aback
-4.437642	abandon
-4.37965	abandoned
-5.28274	abandoned.
-4.98171	abandoning
-5.28274	abating,
-5.28274	abba
-4.805619	abbott
-5.28274	abbott's
-5.28274	abby
-4.58377	abc
-5.28274	abc's
-5.28274	abc,
-4.98171	abc.
-5.28274	abdallah
-5.28274	abdomen.
-4.98171	abdul
-5.28274	abdullah
-5.28274	aberration.
-5.28274	abilities,
-4.052291	ability
-3.921012	able
-5.28274	ablutions,
-4.98171	abn
-5.28274	abn's
-5.28274	abnormal
-5.28274	aboard
-5.28274	aboard.
-5.28274	abolished
-5.28274	abolished.
-5.28274	abounded,''
-2.600595	about
-4.504589	about,
-5.28274	about-face,
-4.68068	about.
-4.98171	about?
-3.960521	above
-5.28274	above-market
-5.28274	above.''
-5.28274	abramovich,
-5.28274	abrams
-5.28274	abraxane,
-4.805619	abroad
-4.98171	abroad,
-5.28274	abroad.
-4.58377	abrupt
-4.437642	abruptly
-5.28274	abruptly,
-5.28274	abs
-4.68068	absence
-5.28274	absent.
-5.28274	absentee
-4.98171	absolute
-4.98171	absolutely
-4.98171	absorb
-4.805619	absorbing
-5.28274	abstract
-5.28274	absurdist
-4.98171	abu
-5.28274	abundantly
-5.28274	abundio
-4.98171	abuse
-5.28274	abuse,
-5.28274	abuse.
-5.28274	abuses
-5.28274	abuses,
-5.28274	abusive
-5.28274	abuzz.
-5.28274	abysmally
-5.28274	academia
-4.68068	academic
-5.28274	academics
-5.28274	academics,
-4.58377	academy
-5.28274	academy,
-5.28274	acampora,
-4.68068	accelerated
-5.28274	accent,
-5.28274	accentuated
-5.28274	accenture),
-4.28274	accept
-5.28274	accept,
-5.28274	acceptable
-4.68068	acceptance
-4.241347	accepted
-5.28274	accepted.
-4.68068	accepting
-3.902529	access
-5.28274	access,
-4.98171	access.
-5.28274	access?
-4.98171	accessible
-4.98171	accessories
-5.28274	accessories,
-5.28274	accessories.
-5.28274	accessory
-4.98171	accident
-5.28274	accident.
-4.98171	accidentally
-5.28274	accidentally,
-5.28274	accidents
-5.28274	accolades
-4.98171	accommodate
-5.28274	accommodates
-4.98171	accommodations
-4.98171	accompanied
-5.28274	accompany
-4.98171	accompanying
-5.28274	accomplishing
-5.28274	accord
-5.28274	accord,
-3.152406	according
-5.28274	accordion
-3.960521	account
-4.504589	account,
-4.37965	account.
-4.58377	accountability
-4.98171	accountable
-5.28274	accountancy,
-4.805619	accountant
-4.98171	accountants
-4.58377	accounted
-3.469826	accounting
-5.28274	accounting,''
-4.805619	accounting.
-3.98171	accounts
-4.504589	accounts,
-4.58377	accounts.
-4.98171	accreditation
-5.28274	accredo
-5.28274	accumulate
-4.805619	accumulated
-4.805619	accuracy
-5.28274	accuracy,
-5.28274	accuracy.
-5.28274	accurately
-5.28274	accusation,
-4.136612	accusations
-5.28274	accusations,
-5.28274	accusations.
-4.805619	accuse
-3.659491	accused
-5.28274	accused,
-5.28274	accuser,
-4.805619	accuses
-4.241347	accusing
-5.28274	accustomed
-4.805619	achieve
-4.68068	achieved
-5.28274	achievements
-4.98171	achieving
-5.28274	achilles'
-5.28274	acid
-5.28274	acid,
-4.98171	ackermann
-4.98171	acknowledge
-4.328497	acknowledged
-5.28274	acknowledges,
-4.805619	acknowledging
-4.98171	acknowledgment
-5.28274	acknowledgment,
-5.28274	acnielsen,
-5.28274	acquiescence
-3.691675	acquire
-5.28274	acquire,
-5.28274	acquire.
-3.867767	acquired
-5.28274	acquired,
-5.28274	acquiring
-4.106648	acquisition
-4.68068	acquisition,
-5.28274	acquisition.
-4.437642	acquisitions
-5.28274	acquisitions,
-5.28274	acquisitions.
-4.98171	acquittal
-4.68068	acquitted
-5.28274	acre-size
-4.98171	acres
-5.28274	acrimonious
-5.28274	acronym,
-3.558464	across
-5.28274	acrylic
-4.106648	act
-4.68068	act,
-4.68068	act.
-5.28274	act?
-5.28274	acted
-4.504589	acting
-3.940317	action
-5.28274	action''
-4.805619	action,
-5.28274	action,''
-5.28274	action-adventure
-4.805619	action.
-4.68068	actions
-4.241347	active
-5.28274	actively
-5.28274	activism
-4.98171	activist
-5.28274	activist,
-5.28274	activist.''
-5.28274	activists
-5.28274	activists,
-4.504589	activities
-5.28274	activities.
-5.28274	activities.''
-4.68068	activity
-5.28274	activity,
-5.28274	activity.
-4.805619	actor
-4.98171	actor,
-4.805619	actors
-5.28274	actors,
-4.68068	actress
-5.28274	actress.
-4.805619	acts
-5.28274	acts,''
-5.28274	acts;
-4.805619	actual
-4.203558	actually
-4.805619	actually,
-5.28274	actually.
-5.28274	acute
-4.027467	ad
-5.28274	ad,
-5.28274	ad-making,
-4.98171	adam
-4.805619	adams
-5.28274	adapt
-5.28274	adaptation
-5.28274	adapted
-5.28274	adapters
-4.136612	add
-5.28274	add,
-4.027467	added
-4.68068	added,
-4.98171	added.
-5.28274	added:
-4.168797	adding
-4.98171	adding,
-4.98171	addison
-4.504589	addition
-4.37965	addition,
-5.28274	addition;
-4.136612	additional
-5.28274	additionally
-5.28274	additions,
-4.805619	additive
-4.98171	additive,
-4.203558	address
-5.28274	address,
-4.98171	address.
-5.28274	addressed
-4.68068	addresses
-4.98171	addresses,
-4.805619	addressing
-4.805619	adds
-4.98171	adelphia
-5.28274	adelphia.
-4.805619	adept
-5.28274	adequate
-5.28274	adequate.''
-5.28274	adequately
-5.28274	adherence
-5.28274	adherents
-5.28274	adhering
-5.28274	adhesive
-5.28274	adidas
-5.28274	adidas.com
-5.28274	adirondacks.
-5.28274	adjacent
-5.28274	adjust
-5.28274	adjustable
-5.28274	adjusting.
-5.28274	adjustments
-5.28274	administer
-5.28274	administered,
-4.98171	administering
-3.659491	administration
-4.68068	administration's
-4.504589	administration,
-4.805619	administration.
-4.504589	administrative
-4.98171	administrator
-5.28274	admirably
-5.28274	admirers
-5.28274	admission
-5.28274	admissions
-4.98171	admit
-5.28274	admitted
-5.28274	admittedly
-4.98171	admitting
-5.28274	adolescent
-4.805619	adolph
-4.68068	adopt
-5.28274	adopt,
-4.68068	adopted
-5.28274	adopting
-5.28274	adorned
-5.28274	adorns
-5.28274	adrenaline
-5.28274	adrian
-5.28274	adrienne
-5.28274	adrift
-3.940317	ads
-4.68068	ads,
-4.98171	ads.
-4.437642	adult
-4.437642	adults
-5.28274	adults.
-4.37965	advance
-3.960521	advanced
-5.28274	advanced-imaging
-5.28274	advanced.''
-5.28274	advances
-5.28274	advances,
-4.805619	advancing
-4.37965	advantage
-5.28274	advantage.
-4.805619	advantages
-5.28274	advent
-5.28274	adventure
-4.805619	advertise
-5.28274	advertised
-4.98171	advertisement
-5.28274	advertisement,
-4.58377	advertisements
-5.28274	advertisements.
-4.98171	advertiser
-5.28274	advertiser-supported
-4.328497	advertisers
-4.805619	advertisers,
-3.385113	advertising
-4.58377	advertising,
-5.28274	advertising-supported
-4.68068	advertising.
-5.28274	advertising:
-5.28274	advertorial
-4.203558	advice
-5.28274	advice,
-4.805619	advice.
-4.68068	advise
-4.504589	advised
-4.58377	adviser
-4.805619	adviser,
-5.28274	adviser:
-4.68068	advisers
-5.28274	advises
-4.328497	advising
-5.28274	advisors
-4.328497	advisory
-4.37965	advocacy
-4.98171	advocate
-5.28274	advocate.
-5.28274	advocated
-4.504589	advocates
-5.28274	advocates,
-4.98171	advocating
-4.98171	adware
-5.28274	adweek.
-4.98171	adweek.com
-5.28274	adwords
-5.28274	aeg
-4.805619	aer
-4.805619	aerial
-5.28274	aerodynamic
-4.98171	aeronautic
-5.28274	aeronautic,
-4.805619	aerospace
-5.28274	aesthetics
-5.28274	aetna
-5.28274	aetna's
-5.28274	affair
-4.98171	affair.
-4.98171	affairs
-4.805619	affairs,
-5.28274	affairs.
-4.437642	affect
-4.98171	affected
-5.28274	affecting
-5.28274	affects
-4.68068	affiliate
-5.28274	affiliate,
-4.98171	affiliates
-4.98171	affiliates,
-5.28274	affiliating
-5.28274	affiliation
-5.28274	affixed
-5.28274	affixing
-5.28274	afflicted
-5.28274	affliction
-4.437642	afford
-5.28274	afford.
-5.28274	affordable
-4.98171	affordable.
-5.28274	afghanistan
-4.98171	aficionados
-4.98171	aficionados,
-5.28274	afoul
-5.28274	afraid
-5.28274	afraid.
-4.58377	africa
-4.68068	africa,
-5.28274	africa,''
-4.98171	africa.
-4.805619	african
-4.805619	african-american
-2.64525	after
-4.805619	after-hours
-4.58377	aftermath
-4.58377	afternoon
-4.68068	afternoon,
-4.98171	afternoon.
-4.98171	afternoons
-4.98171	afterward,
-5.28274	afterward.
-3.867767	again
-5.28274	again''
-4.504589	again,
-4.203558	again.
-4.805619	again.''
-5.28274	again.'''
-5.28274	again:
-5.28274	again?
-3.214554	against
-5.28274	agape
-3.98171	age
-4.68068	age,
-4.98171	age,''
-4.328497	age.
-3.8848	agencies
-4.98171	agencies,
-5.28274	agencies.
-3.49741	agency
-4.37965	agency's
-4.106648	agency,
-4.504589	agency.
-4.98171	agenda
-5.28274	agenda,''
-5.28274	agenda:
-4.328497	agent
-4.68068	agent,
-4.68068	agents
-5.28274	agents.
-4.805619	ages
-4.106648	aggressive
-5.28274	aggressive,
-4.328497	aggressively
-5.28274	agilent
-5.28274	agilent,
-4.98171	aging
-5.28274	agitate.
-3.751261	ago
-3.358461	ago,
-5.28274	ago,''
-3.940317	ago.
-5.28274	ago:
-5.28274	agony,
-5.28274	agoraphobia,
-4.37965	agree
-5.28274	agree,
-5.28274	agree.
-3.363662	agreed
-5.28274	agreed,
-4.58377	agreeing
-3.57517	agreement
-5.28274	agreement''
-4.203558	agreement,
-4.504589	agreement.
-5.28274	agreement.''
-4.437642	agreements
-4.805619	agreements,
-5.28274	agreements.
-5.28274	agrees
-4.805619	agricultural
-4.98171	agriculture
-5.28274	agrochemicals
-5.28274	aground.
-5.28274	aguas
-5.28274	aguilera
-5.28274	ah,
-4.106648	ahead
-4.68068	ahead,
-5.28274	ahead.
-4.98171	ahead:
-5.28274	ahem.
-4.98171	ahmad
-4.68068	aid
-5.28274	aide
-4.805619	aids
-5.28274	aig
-5.28274	aiken,
-5.28274	aikman,
-5.28274	ailey
-5.28274	ailing
-4.805619	aim
-3.902529	aimed
-4.504589	aims
-3.601499	air
-5.28274	air''
-4.98171	air's
-4.98171	air,
-5.28274	air,''
-5.28274	air-conditioners
-4.98171	air-conditioning
-5.28274	air-fare
-5.28274	air-rights
-5.28274	air-travel
-4.98171	air.
-3.98171	airbus
-4.98171	airbus's
-4.805619	airbus,
-3.98171	aircraft
-5.28274	aircraft's
-4.68068	aircraft,
-5.28274	aircraft,''
-5.28274	aircrafts
-5.28274	aires,
-5.28274	airfare
-4.98171	airfares
-5.28274	airfield,
-5.28274	airfone's
-4.805619	airfone,
-3.702956	airline
-4.328497	airline's
-4.504589	airline,
-5.28274	airline.
-5.28274	airline:
-5.28274	airliner
-5.28274	airliners
-5.28274	airliners,
-5.28274	airliners.
-3.550346	airlines
-4.68068	airlines'
-4.003986	airlines,
-4.68068	airlines.
-5.28274	airlines.''
-4.805619	airplane
-5.28274	airplane-shaped
-5.28274	airplane.
-5.28274	airplanes.
-5.28274	airplay
-4.003986	airport
-4.504589	airport,
-4.58377	airport.
-4.328497	airports
-4.98171	airports,
-5.28274	airs
-5.28274	airspace
-4.98171	airtran
-5.28274	airtran);
-5.28274	airtran,
-5.28274	airwaves.
-5.28274	airwaves?
-3.921012	airways
-4.805619	airways,
-5.28274	airways.
-5.28274	aisha
-4.504589	aisle
-5.28274	aisle:
-4.98171	ake
-5.28274	akin
-5.28274	akron,
-4.68068	al
-5.28274	al-ahmad
-5.28274	al-sabah,
-5.28274	al.
-5.28274	ala.
-4.805619	ala.,
-4.805619	alabama
-4.98171	alabama,
-5.28274	alabama.
-5.28274	alamo,
-4.07862	alan
-5.28274	alana
-5.28274	alarm
-5.28274	alarmed
-5.28274	alarming
-4.805619	alas,
-4.98171	alaska
-4.98171	alaska,
-5.28274	albany,
-4.68068	albeit
-4.504589	albert
-5.28274	alberta.
-4.805619	album
-4.805619	albums
-5.28274	albums,
-5.28274	albuterol
-5.28274	alcatel
-4.98171	alcohol
-5.28274	alcoholic
-4.68068	aleksei
-5.28274	alert
-5.28274	alert,
-5.28274	alerted
-5.28274	alerts,
-4.98171	alex
-5.28274	alexandra
-4.98171	alexandria,
-5.28274	alexei
-4.98171	alfred
-4.98171	alice
-5.28274	alicea.
-4.98171	align
-5.28274	aligned
-5.28274	alignment
-5.28274	alike.
-5.28274	alisha
-5.28274	alison
-4.98171	alitalia,
-4.98171	alito
-5.28274	alive,
-2.936387	all
-4.106648	all,
-4.98171	all,''
-5.28274	all-american,
-4.805619	all-cash
-5.28274	all-coach
-5.28274	all-electronic
-5.28274	all-european
-5.28274	all-female
-5.28274	all-in-one
-5.28274	all-pros
-5.28274	all-stock
-4.168797	all.
-5.28274	allan
-5.28274	allay
-5.28274	allbritton
-4.68068	allbritton,
-4.98171	allegations
-5.28274	allegations,
-5.28274	allegations.
-4.98171	allen
-5.28274	allen,
-4.68068	alliance
-4.98171	alliance,
-4.504589	allied
-5.28274	allison
-5.28274	allocated
-5.28274	allocating
-5.28274	allocation
-3.960521	allow
-4.052291	allowed
-5.28274	allowed,
-4.168797	allowing
-4.68068	allows
-5.28274	alloy
-5.28274	alltel
-4.805619	alltel,
-5.28274	allure
-5.28274	alluring:
-5.28274	allusions
-4.805619	ally
-5.28274	alma
-5.28274	almonds.
-3.619982	almost
-4.805619	alofs
-5.28274	alofs,
-4.28274	alone
-4.68068	alone.
-5.28274	alone.''
-3.610642	along
-4.98171	along,
-5.28274	along,''
-4.98171	along.
-4.98171	alongside
-5.28274	aloud
-5.28274	alpine
-3.47656	already
-5.28274	already,
-5.28274	already.
-2.97311	also
-5.28274	also,
-4.98171	also-ran
-5.28274	alter
-5.28274	altera
-4.68068	altered
-4.98171	altering
-4.58377	alternative
-5.28274	alternative.
-5.28274	alternatives
-5.28274	alternatives''
-5.28274	alternatives,
-5.28274	alternatives.
-4.241347	although
-4.98171	altimeter
-5.28274	altitude
-5.28274	altman
-5.28274	alto
-4.68068	alto,
-4.805619	altogether,
-4.98171	altogether.
-5.28274	altruistic
-4.98171	aluminum
-5.28274	aluminum.
-4.98171	alumni
-4.98171	alvin
-5.28274	alwaleed
-3.592544	always
-5.28274	alzheimer's
-4.28274	am
-5.28274	am,
-5.28274	amadeus
-5.28274	amadeus,
-5.28274	amalfi
-5.28274	amana
-4.98171	amanda
-5.28274	amass
-5.28274	amassed
-4.98171	amateur
-5.28274	amazed
-5.28274	amazement
-4.68068	amazing
-5.28274	amazing,''
-4.504589	amazon
-5.28274	amazon,
-5.28274	amazon.com
-5.28274	amazon.com's
-4.98171	amazon.com,
-4.98171	amazon.com.
-5.28274	ambassador
-5.28274	ambitions
-5.28274	ambitions,
-4.168797	ambitious
-5.28274	ambivalence
-5.28274	ambushed
-5.28274	amd's
-5.28274	amena
-5.28274	amena.
-5.28274	amended
-5.28274	amendment
-5.28274	amends
-4.98171	amenities
-5.28274	amenity,
-3.534552	america
-4.98171	america''
-4.106648	america's
-4.203558	america,
-5.28274	america-bound.
-4.203558	america.
-5.28274	america?
-2.988274	american
-5.28274	american's
-4.98171	american,
-5.28274	american-based
-5.28274	american-style
-5.28274	american:
-5.28274	americanconnection.
-3.714538	americans
-5.28274	americans'
-5.28274	americans,
-4.805619	americans.
-4.98171	americans?
-5.28274	americas.
-5.28274	ameriquest
-4.68068	ameritrade
-5.28274	ameritrade.
-4.805619	amgen
-5.28274	amgen's
-5.28274	amgen,
-5.28274	amherst,
-5.28274	amicably.
-3.98171	amid
-5.28274	amiss
-5.28274	amiss,
-5.28274	ammunition.
-5.28274	amoco
-5.28274	amok.
-3.358461	among
-5.28274	amorphous
-5.28274	amos''
-5.28274	amos,
-4.106648	amount
-5.28274	amount.
-4.98171	amounted
-5.28274	amounting
-4.58377	amounts
-4.98171	ample
-5.28274	amr,
-5.28274	amro
-5.28274	amro,
-4.98171	amstel
-4.98171	amsterdam,
-5.28274	amused.
-5.28274	amused:
-5.28274	amusing
-2.330432	an
-5.28274	anacostia,
-4.98171	anadarko
-4.68068	analysis
-5.28274	analysis,
-4.28274	analyst
-5.28274	analyst.
-3.419417	analysts
-4.98171	analysts'
-5.28274	analysts,
-5.28274	analysts.
-5.28274	analytic
-5.28274	analytical
-5.28274	analytics
-5.28274	analytics.
-5.28274	analyzed
-5.28274	anatomy
-5.28274	ancestry,
-4.68068	anchor
-4.98171	anchor.
-5.28274	anchored
-5.28274	anchors
-4.98171	ancient
-1.671867	and
-3.820342	and,
-5.28274	andalusian
-5.28274	andean
-5.28274	anders,
-4.805619	andersen
-5.28274	andersen's
-4.805619	andersen,
-5.28274	anderson
-5.28274	anderson,
-5.28274	andrande
-5.28274	andrande,
-4.98171	andrea
-4.241347	andrew
-4.805619	andy
-5.28274	anecdotal
-5.28274	anesthetic
-5.28274	anew
-5.28274	anew.
-5.28274	angel
-5.28274	angela
-5.28274	angelenos,
-3.902529	angeles
-4.58377	angeles,
-4.98171	angeles.
-5.28274	angeles;
-5.28274	angeli
-4.98171	angelica
-4.68068	angelina
-5.28274	angelina,
-5.28274	angels
-5.28274	angels.
-5.28274	anger
-5.28274	angina
-4.98171	angiotech
-5.28274	angiotech,
-5.28274	angled
-5.28274	anglo
-4.58377	angry
-4.98171	angry.
-5.28274	angst.
-5.28274	angus
-5.28274	anheuser-busch
-4.805619	anheuser-busch,
-4.805619	animal
-4.98171	animals
-5.28274	animals''
-5.28274	animals,
-5.28274	animals.
-5.28274	animate
-4.58377	animated
-4.98171	animation
-5.28274	ankle
-4.504589	ann
-4.98171	anna
-4.805619	annals
-5.28274	annastine
-5.28274	anne
-5.28274	annie
-4.58377	anniversary
-4.98171	anniversary.
-3.659491	announce
-4.98171	announce,
-3.142861	announced
-4.98171	announced,
-4.98171	announced.
-4.027467	announcement
-4.437642	announcement,
-4.58377	announcement.
-4.68068	announcements
-5.28274	announcements.
-5.28274	announcer's
-4.98171	announces
-4.58377	announcing
-5.28274	annoyed
-5.28274	annoying
-5.28274	annoying,
-5.28274	annoying,''
-3.592544	annual
-4.98171	annualized
-5.28274	annualized,
-5.28274	annually
-4.98171	annually,
-5.28274	annually.
-5.28274	annuity
-4.805619	anonymity
-5.28274	anonymity,
-5.28274	anonymity.
-4.805619	anonymous
-3.253356	another
-4.805619	another,
-4.58377	another.
-4.28274	answer
-4.98171	answer,
-4.805619	answer.
-4.68068	answer:
-4.68068	answered
-4.98171	answering
-5.28274	answers
-5.28274	answers.
-5.28274	antagonist
-4.98171	ante
-4.437642	anthony
-5.28274	anthony's
-4.98171	anthony,
-5.28274	anthropologie
-4.98171	anthropologist
-5.28274	anthropologists:
-5.28274	anti-china
-5.28274	anti-establishment,
-5.28274	anti-immigrant
-4.98171	anti-mcdonald's
-5.28274	anti-terrorist
-5.28274	antianxiety
-5.28274	antibiotic,
-4.98171	antibiotics
-5.28274	antibiotics,''
-5.28274	antibiotics.
-4.68068	anticipated
-5.28274	anticipated,
-4.805619	anticipating
-4.98171	anticipation
-5.28274	anticipation,
-5.28274	antidepressant
-5.28274	antidepressant,
-5.28274	antidote:
-4.98171	antidrug
-5.28274	antiestablishment
-5.28274	antipathy
-4.98171	antique
-5.28274	antiques,
-5.28274	antiseptic
-5.28274	antismoking
-5.28274	antispam
-5.28274	antispill
-5.28274	antistroke
-5.28274	antitax
-3.921012	antitrust
-5.28274	antivirus
-5.28274	antoine
-4.805619	antonio
-5.28274	antonveneta
-5.28274	antwerp,
-4.68068	anxiety
-4.98171	anxious
-5.28274	anxious.
-4.98171	anxiously
-3.343221	any
-4.805619	anybody
-4.98171	anymore,''
-5.28274	anymore.
-4.106648	anyone
-4.106648	anything
-5.28274	anything?
-4.98171	anytime
-5.28274	anytime,
-4.98171	anyway.
-4.68068	anywhere
-4.328497	aol
-4.805619	aol's
-4.437642	aol,
-5.28274	aol-time
-5.28274	aol.
-5.28274	aol.com.
-4.98171	aon
-4.68068	aon,
-4.58377	apart
-5.28274	apart,
-4.98171	apart.
-4.203558	apartment
-5.28274	apartment,
-5.28274	apartment-building
-4.98171	apartment.
-4.98171	apartments
-5.28274	apartments,
-4.805619	apax
-5.28274	ape
-4.68068	apex
-4.98171	apex's
-4.68068	apiece.
-4.805619	apollo
-5.28274	apologize
-5.28274	apologizing
-5.28274	apology,
-5.28274	apostolate,
-4.68068	apparel
-5.28274	apparel,
-5.28274	apparel.
-4.37965	apparent
-5.28274	apparent,
-4.003986	apparently
-4.437642	appeal
-5.28274	appeal,
-5.28274	appeal.
-5.28274	appealed
-5.28274	appealing
-5.28274	appealing.
-4.07862	appeals
-4.003986	appear
-4.805619	appearance
-4.98171	appearance.
-5.28274	appearances
-3.902529	appeared
-5.28274	appeared,
-5.28274	appeared.
-5.28274	appearing
-3.8848	appears
-5.28274	appease
-4.68068	appetite
-3.98171	apple
-4.58377	apple's
-5.28274	apple,
-5.28274	apples
-4.37965	appliance
-4.805619	appliances
-5.28274	applicants.
-4.68068	application
-5.28274	application,
-5.28274	application.
-4.98171	applications
-4.68068	applied
-4.98171	applies
-4.58377	apply
-5.28274	applying
-5.28274	appoint
-4.68068	appointed
-5.28274	appointing
-4.437642	appointment
-5.28274	appointment,
-4.98171	appraisals
-5.28274	appreciate
-5.28274	appreciated
-5.28274	appreciation
-4.98171	apprentice''
-4.98171	apprentice,''
-4.98171	apprised
-4.168797	approach
-5.28274	approach,
-5.28274	approach,''
-4.58377	approached
-5.28274	approached.
-5.28274	approaches.
-5.28274	approaching
-4.98171	appropriate
-5.28274	appropriate,
-5.28274	appropriately
-5.28274	appropriation
-3.921012	approval
-4.98171	approval,
-4.98171	approval.
-4.98171	approvals
-5.28274	approvals.
-4.37965	approve
-3.867767	approved
-5.28274	approved.
-4.98171	approving
-5.28274	approving.
-5.28274	approvingly
-5.28274	approximate
-4.98171	approximately
-4.106648	april
-4.504589	april,
-4.58377	april.
-5.28274	aptos,
-4.98171	arab
-5.28274	arabia
-5.28274	arabia,
-5.28274	arabic
-5.28274	aramco
-4.98171	aramco,
-5.28274	aranesp
-5.28274	arbiter.
-5.28274	arbitration
-4.98171	arbor,
-5.28274	arc
-5.28274	arcade
-5.28274	arcaex,
-3.98171	arcelor
-4.504589	arcelor's
-4.805619	arcelor,
-5.28274	arcelor-mittal.
-4.98171	arcelor.
-5.28274	arch
-5.28274	archaeological
-5.28274	archetype
-4.98171	archeus
-4.98171	archipelago
-5.28274	archipelago's
-4.805619	archipelago,
-4.805619	architect
-5.28274	architects,
-5.28274	architectural
-4.98171	architecture
-5.28274	archives,
-4.98171	archrival,
-5.28274	arctic
-5.28274	ardor,
-2.445783	are
-4.37965	are,
-4.98171	are.
-4.07862	area
-4.504589	area,
-4.68068	area.
-4.37965	areas
-5.28274	areas,''
-4.68068	areas.
-4.58377	aren't
-4.98171	argentina
-4.98171	argentina,
-4.98171	argentine
-4.805619	arguably
-4.504589	argue
-4.136612	argued
-5.28274	argued,
-5.28274	argued.
-4.68068	argues
-4.805619	arguing
-4.437642	argument
-4.68068	arguments
-5.28274	arguments,
-5.28274	ari
-4.98171	arianna
-5.28274	ariel
-5.28274	arisen
-5.28274	arising
-5.28274	arithmetic,
-4.805619	ariz.,
-4.98171	arizona
-5.28274	ark.
-5.28274	arkansas
-4.98171	arkansas,
-5.28274	arkema
-5.28274	arlene,
-4.68068	arm
-5.28274	arm,
-5.28274	arm.
-5.28274	armada
-5.28274	armchair
-4.68068	armed
-5.28274	armor.
-5.28274	armored
-4.58377	arms
-4.805619	armstrong
-4.136612	army
-5.28274	army's
-4.58377	arnold
-5.28274	arnott,
-5.28274	arose
-3.443891	around
-4.504589	around,
-5.28274	around-the-clock
-4.504589	around.
-5.28274	around.''
-5.28274	aroused.
-5.28274	arpanet
-5.28274	arpeggios,
-5.28274	arps,
-5.28274	arragon
-5.28274	arraignment
-4.37965	arranged
-4.437642	arrangement
-5.28274	arrangement.
-5.28274	arrangements
-5.28274	arrangements.
-5.28274	arranging.
-4.58377	array
-4.805619	arrest
-5.28274	arrest,
-5.28274	arrest.
-4.58377	arrested
-5.28274	arrested.
-5.28274	arresting
-5.28274	arrests,''
-4.68068	arrival
-5.28274	arrival.
-5.28274	arrivals
-4.58377	arrive
-4.504589	arrived
-5.28274	arrived.
-4.68068	arrives
-4.98171	arriving
-4.241347	art
-4.805619	art,
-5.28274	art-house
-5.28274	arterial
-4.58377	arteries
-5.28274	arteries,
-5.28274	arteries.
-4.805619	artery
-5.28274	artery-clogging
-5.28274	artery-opening
-5.28274	arthritis
-5.28274	arthritis.
-4.504589	arthur
-4.203558	article
-5.28274	article's
-4.805619	article,
-4.328497	articles
-4.68068	articles,
-5.28274	articles.
-5.28274	articulate
-4.437642	artificial
-5.28274	artificially
-4.98171	artillery
-4.68068	artist
-5.28274	artist;
-4.68068	artists
-5.28274	artists,
-4.328497	arts
-5.28274	arts'
-4.805619	arts,
-5.28274	arts.
-5.28274	artwork
-5.28274	arvind
-2.210858	as
-5.28274	as,
-5.28274	asbestos
-5.28274	ascender
-5.28274	ascender.
-5.28274	ascent
-5.28274	ascent.
-5.28274	ascorbate
-4.98171	ascot
-5.28274	asda
-5.28274	asda's
-5.28274	asda,
-5.28274	ashes.
-4.98171	ashley
-4.28274	asia
-4.98171	asia's
-4.805619	asia,
-5.28274	asia-pacific
-4.68068	asia.
-5.28274	asia.''
-4.504589	asian
-5.28274	asian,
-4.136612	aside
-5.28274	aside.
-4.168797	ask
-5.28274	ask.com,
-3.691675	asked
-5.28274	asked,
-4.68068	asked.
-4.805619	asked:
-4.003986	asking
-5.28274	asking,
-5.28274	asking.
-4.504589	asks
-4.98171	asks,
-5.28274	asks.
-5.28274	asness,
-5.28274	aspect
-4.805619	aspects
-5.28274	aspire
-5.28274	aspirin
-5.28274	aspirin,
-5.28274	aspirin.
-4.58377	aspiring
-5.28274	assassination
-5.28274	assassination,
-5.28274	assassins.
-5.28274	assault
-4.805619	assemble
-4.58377	assembled
-5.28274	assembled,
-4.98171	assembling
-5.28274	assembling.
-4.168797	assembly
-5.28274	asserted
-4.98171	asserting
-4.805619	assertion
-4.98171	asserts
-5.28274	assess
-4.805619	assessed
-4.98171	assessing
-4.98171	assessment
-5.28274	assessments
-3.98171	asset
-3.960521	assets
-4.504589	assets,
-4.37965	assets.
-5.28274	assiduously
-5.28274	assigned
-4.805619	assignment
-5.28274	assignment,
-5.28274	assignment.
-5.28274	assignment:
-4.68068	assignments
-5.28274	assignments,
-4.98171	assist
-4.58377	assistance
-4.37965	assistant
-5.28274	assistants
-4.98171	assisted
-4.98171	assisted-living
-4.68068	associate
-4.437642	associated
-4.68068	associates
-5.28274	associates,
-5.28274	associates.
-4.106648	association
-5.28274	association's
-4.328497	association,
-4.98171	association.
-5.28274	associations
-4.98171	assortment
-5.28274	assuage
-4.37965	assume
-4.98171	assumed
-5.28274	assumes
-5.28274	assuming
-4.68068	assumption
-5.28274	assumption.
-5.28274	assumptions.
-5.28274	assurance
-4.805619	assure
-4.58377	assured
-5.28274	assured,
-5.28274	assured.
-5.28274	assures
-4.98171	asthma
-5.28274	aston
-5.28274	astonishing
-5.28274	astonishingly
-5.28274	astoria,
-5.28274	astronomical
-2.262379	at
-4.328497	at&t
-4.805619	at&t's
-5.28274	at&t)
-5.28274	at&t,
-4.98171	ata
-5.28274	ata,
-5.28274	atari
-4.98171	ate
-5.28274	atherosclerosis,
-5.28274	athlete
-4.98171	athlete.
-5.28274	athletes
-5.28274	athletes,
-4.98171	athletic
-5.28274	ati
-5.28274	atkins
-4.805619	atlanta
-4.98171	atlanta,
-4.805619	atlanta.
-4.58377	atlantic
-5.28274	atlantic's
-5.28274	atlantic:
-5.28274	atlantic?
-5.28274	atlas
-5.28274	atmosphere
-5.28274	atofina;
-5.28274	atom,
-5.28274	atomic
-5.28274	atomprom,
-4.68068	atop
-5.28274	attach
-4.68068	attached
-5.28274	attachment
-5.28274	attaché
-4.203558	attack
-4.805619	attack,
-5.28274	attack,''
-4.805619	attack.
-4.328497	attacks
-4.98171	attacks,
-5.28274	attacks.
-5.28274	attained
-4.28274	attempt
-5.28274	attempt.
-5.28274	attempting
-4.58377	attempts
-4.68068	attend
-5.28274	attend?
-5.28274	attendance
-4.98171	attendant
-5.28274	attendant.
-5.28274	attendants
-5.28274	attendants.
-4.68068	attended
-5.28274	attendee,
-4.98171	attendees
-4.98171	attending
-5.28274	attends
-3.960521	attention
-5.28274	attention,
-5.28274	attention-focusing
-5.28274	attention.
-5.28274	attest,
-5.28274	attic,
-5.28274	attired
-4.98171	attitude
-5.28274	attitudes
-5.28274	attitudes,
-3.902529	attorney
-4.98171	attorney's
-4.58377	attorney,
-4.98171	attorneys
-4.106648	attract
-4.68068	attracted
-5.28274	attracting
-5.28274	attractive
-5.28274	attractiveness
-5.28274	attributed
-5.28274	attributes,
-5.28274	atwell
-5.28274	atwell,
-5.28274	auburn
-3.851376	auction
-5.28274	auction,
-5.28274	auctioneering
-5.28274	auctions
-5.28274	auctions.
-5.28274	audacious
-5.28274	audible
-4.28274	audience
-5.28274	audience,
-4.805619	audience.
-5.28274	audience.''
-4.68068	audiences
-5.28274	audiences,
-4.805619	audio
-5.28274	audio-entertainment
-4.68068	audit
-4.98171	audited
-4.504589	auditing
-4.98171	auditor
-5.28274	auditor,
-5.28274	auditorium
-4.68068	auditors
-5.28274	auditors,
-4.98171	audits
-5.28274	audits,
-5.28274	audits,''
-5.28274	audits.''
-5.28274	audrey
-4.805619	aug.
-4.98171	augmented
-5.28274	augmenting
-4.28274	august
-4.37965	august,
-4.58377	august.
-4.98171	augusto
-5.28274	aumann
-5.28274	aunt's
-5.28274	auntie
-5.28274	aura.
-5.28274	aurora,
-5.28274	austin
-4.98171	austin,
-4.805619	australia,
-4.805619	australian
-5.28274	australian,
-5.28274	austria
-5.28274	austria,
-5.28274	austria.
-4.805619	austrian
-5.28274	authentic
-5.28274	authenticity
-4.437642	author
-5.28274	author,
-5.28274	author.
-5.28274	author?
-4.504589	authorities
-5.28274	authorities.
-4.504589	authority
-4.98171	authority,
-5.28274	authority.
-4.68068	authorized
-5.28274	authors
-5.28274	authors,
-5.28274	authorship
-3.921012	auto
-5.28274	auto-repair
-5.28274	autobiography,
-5.28274	autocratic
-5.28274	autographs.
-4.28274	automaker
-4.805619	automaker's
-4.805619	automaker,
-4.98171	automaker.
-4.37965	automakers
-4.98171	automakers,
-5.28274	automakers.
-4.98171	automark
-5.28274	automate
-4.98171	automated
-4.805619	automatic
-4.437642	automatically
-5.28274	automation
-4.28274	automobile
-5.28274	automobiles
-4.504589	automotive
-5.28274	autopsies
-4.98171	autopsy
-5.28274	autoworkers
-5.28274	autumn,
-4.98171	availability
-5.28274	availability,''
-3.751261	available
-4.68068	available,
-4.58377	available.
-5.28274	avalanche
-4.98171	avante
-4.98171	avastin
-4.98171	avastin,
-4.052291	avenue
-4.805619	avenue,
-4.98171	avenue.
-3.8848	average
-4.68068	average,
-5.28274	average.
-5.28274	aversion
-4.68068	avert
-5.28274	averting
-4.437642	aviation
-4.98171	aviation.
-5.28274	avid
-5.28274	aviv
-4.07862	avoid
-5.28274	avoid.
-4.805619	avoided
-5.28274	avoiding
-5.28274	avoids
-4.805619	avon
-5.28274	avonex
-5.28274	avril
-5.28274	awaited
-4.98171	awaiting
-5.28274	awaits
-5.28274	awakening
-4.241347	award
-5.28274	award-winning
-4.58377	awarded
-4.98171	awarding
-4.68068	awards
-4.68068	awards,
-4.98171	awards.
-4.68068	aware
-4.805619	awareness
-5.28274	awareness,
-3.751261	away
-4.58377	away,
-4.28274	away.
-5.28274	away.''
-5.28274	awe,
-5.28274	awful
-5.28274	awfully
-4.98171	awkward
-5.28274	axalto,
-5.28274	ayala,
-5.28274	azlin,
-5.28274	azoff
-5.28274	azteca
-4.58377	b
-5.28274	b,
-5.28274	b-24
-5.28274	b-sides
-4.07862	b.
-5.28274	babbo
-4.68068	babies
-5.28274	babies,''
-5.28274	babies.
-4.168797	baby
-5.28274	bacanovic,
-4.98171	bacardi
-5.28274	bachelor's
-3.300469	back
-4.68068	back,
-5.28274	back,''
-5.28274	back-and-forth
-4.98171	back-office
-5.28274	back-ordered
-4.98171	back-to-school
-4.437642	back.
-5.28274	back.''
-5.28274	back:
-5.28274	back;
-4.37965	backed
-5.28274	backers
-5.28274	backfire.
-4.58377	background
-5.28274	background,
-5.28274	background.
-5.28274	background?
-5.28274	backgrounds.
-4.98171	backing
-4.805619	backlog
-5.28274	backpacked
-5.28274	backpacks
-5.28274	backrooms,
-5.28274	backs
-5.28274	backside
-5.28274	backslaps.
-5.28274	backstop
-4.805619	backup
-5.28274	backward,
-5.28274	backyard
-5.28274	bacteria,
-4.98171	bacteria.
-5.28274	bacterial
-3.8848	bad
-4.98171	bad.
-5.28274	bad?
-5.28274	badawi
-5.28274	badlands,
-4.98171	badly
-4.98171	bae
-5.28274	baffling
-4.504589	bag
-5.28274	bag,
-5.28274	bag.
-4.805619	baggage
-5.28274	baggage,
-5.28274	baggins,
-5.28274	baggy
-4.805619	baghdad
-4.37965	bags
-4.58377	bags,
-5.28274	bahama
-4.68068	bail
-5.28274	bail,
-5.28274	bailey,
-4.98171	bailout
-5.28274	bailouts
-4.68068	bain
-5.28274	bake
-5.28274	bakeries
-5.28274	bakersfield;
-5.28274	bakery,
-5.28274	baking
-5.28274	bala
-4.68068	balance
-5.28274	balance-of-payments
-5.28274	balance.
-5.28274	balanced
-5.28274	balances.
-5.28274	balancing
-5.28274	balcony
-5.28274	balcony.
-5.28274	bald-faced
-5.28274	baldness
-5.28274	bali's
-5.28274	bali,
-5.28274	balked
-4.504589	ball
-4.98171	ball,
-5.28274	ballad
-5.28274	ballew,
-5.28274	ballgame,''
-4.68068	balloon
-5.28274	ballooning
-5.28274	balloons
-5.28274	ballots
-5.28274	ballpark
-5.28274	ballpark,
-5.28274	ballroom
-5.28274	balls.
-5.28274	baloney
-4.98171	baltic
-4.98171	baltimore
-4.437642	ban
-5.28274	ban,
-5.28274	banal,
-5.28274	banana
-4.98171	banc
-4.98171	banca
-5.28274	banco
-4.98171	bancorp
-5.28274	bancorp,
-4.504589	band
-5.28274	band's
-5.28274	band,
-4.98171	bandai
-5.28274	banded
-4.805619	bands
-5.28274	bands''
-5.28274	bandwagon
-5.28274	bandwidth
-4.98171	bang
-5.28274	bangalore
-5.28274	bangkok
-5.28274	bangkok,
-5.28274	banister,
-3.390645	bank
-4.328497	bank's
-3.960521	bank,
-4.437642	bank.
-5.28274	bank.''
-4.58377	banker
-4.98171	banker,
-4.37965	bankers
-4.98171	bankers,
-4.98171	bankers.
-5.28274	bankers?
-3.8848	banking
-4.805619	banking,
-5.28274	banking,''
-4.98171	banking.
-4.98171	bankrupt
-5.28274	bankrupt.
-5.28274	bankruptcies
-5.28274	bankruptcies,
-5.28274	bankruptcies.
-3.550346	bankruptcy
-4.504589	bankruptcy,
-4.58377	bankruptcy.
-5.28274	bankruptcy.''
-5.28274	bankruptcy?
-3.751261	banks
-5.28274	banks'
-4.68068	banks,
-4.68068	banks.
-5.28274	bankshares
-4.98171	banned
-4.98171	banner
-4.68068	banning
-5.28274	banque
-5.28274	bantam
-5.28274	bantering
-4.58377	bar
-5.28274	bar,
-5.28274	bar.
-5.28274	barbados,
-5.28274	barbados.
-5.28274	barbagallo
-4.504589	barbara
-5.28274	barbarian
-5.28274	barbarous
-5.28274	barberton
-5.28274	barberton,
-5.28274	barbie:
-5.28274	barbour
-5.28274	barbs
-4.805619	bare
-5.28274	bare-wristed,
-4.58377	barely
-5.28274	barenaked
-4.98171	bargain
-5.28274	bargain.
-5.28274	bargaining,
-4.98171	bargains
-5.28274	bargains.
-4.805619	barge
-5.28274	barge,
-5.28274	barger,
-4.98171	barges
-5.28274	bariatric
-5.28274	bark
-5.28274	bark,
-5.28274	barked
-5.28274	barks.
-5.28274	barlo
-5.28274	barnes
-5.28274	barnesandnoble.com
-5.28274	barnesandnoble.com,
-5.28274	barney
-5.28274	barnyard
-5.28274	barolo
-5.28274	barolo,
-4.98171	barometer
-5.28274	baron
-4.805619	barq's
-5.28274	barq's.
-5.28274	barrage
-4.504589	barrel
-4.58377	barrel,
-4.98171	barrel.
-4.68068	barrels
-5.28274	barrels.
-4.805619	barriers
-5.28274	barriers,
-4.805619	barring
-4.68068	barron's
-4.98171	barron's,
-4.98171	barry
-4.504589	bars
-5.28274	bars.
-5.28274	bart,
-4.68068	bartenders
-5.28274	bartle
-5.28274	bartolo
-4.07862	base
-5.28274	base's
-4.98171	base,
-4.98171	base.
-5.28274	base.google.com,
-4.241347	baseball
-3.318952	based
-5.28274	based,
-4.98171	based.
-5.28274	basel
-5.28274	basel,
-4.98171	baseman
-4.68068	basement
-5.28274	bases,
-5.28274	basf
-4.805619	basf,
-4.504589	basic
-5.28274	basically
-5.28274	basin,
-5.28274	basing
-4.98171	basis
-5.28274	basis,
-5.28274	bask
-5.28274	basked
-5.28274	basket,
-4.58377	basketball
-5.28274	basketball,
-5.28274	basketball.
-5.28274	baskets
-5.28274	bassett,
-5.28274	bassin
-4.98171	bassin,
-5.28274	batavia,
-4.805619	batch
-4.98171	bath
-5.28274	bathe
-5.28274	bathed
-5.28274	bathes
-5.28274	bathing
-4.805619	bathroom
-4.98171	bathroom.
-5.28274	bathrooms.
-5.28274	baths
-5.28274	batman
-5.28274	batman,
-5.28274	batphone
-5.28274	battenberg
-4.805619	battered
-5.28274	batteries
-5.28274	batteries,
-5.28274	batteries.
-4.805619	battery
-5.28274	battery-powered,
-3.805619	battle
-5.28274	battle,
-5.28274	battleground
-4.805619	battles
-5.28274	battles,
-5.28274	battleship
-4.98171	battsek,
-5.28274	bauer
-5.28274	bausch
-4.58377	bay
-4.98171	bay,
-4.98171	bay.
-4.58377	bayou
-4.98171	bayou,
-5.28274	bazaar
-5.28274	bazaar.
-4.98171	bbdo
-2.438263	be
-4.504589	be,
-4.504589	be.
-5.28274	be:
-5.28274	be?
-4.68068	beach
-4.437642	beach,
-5.28274	beach.
-5.28274	beached
-5.28274	beaches
-5.28274	beachfront
-5.28274	beam
-5.28274	beamed
-5.28274	beaming
-5.28274	beams
-4.98171	beane
-5.28274	beans,
-4.805619	bear
-5.28274	bear,
-4.98171	beard
-5.28274	bearer
-5.28274	bearing
-5.28274	bearings
-5.28274	bears
-5.28274	beastlike.
-5.28274	beastly,
-4.437642	beat
-5.28274	beat.
-4.68068	beaten
-4.68068	beating
-5.28274	beatles,
-5.28274	beats
-5.28274	beatty;
-4.98171	beau
-5.28274	beaucoup
-4.58377	beautiful
-4.98171	beautiful,
-5.28274	beauty
-5.28274	beauty,
-5.28274	beauty,''
-3.726437	became
-3.158888	because
-4.68068	because,
-5.28274	bechtel
-5.28274	beck,
-5.28274	beckoned
-3.218282	become
-4.58377	becomes
-4.37965	becoming
-5.28274	bed
-4.805619	bed,
-5.28274	bedding
-5.28274	bedford-stuyvesant
-4.98171	bedroom
-4.98171	bedrooms
-5.28274	bedrooms,
-5.28274	beds
-5.28274	beds.
-5.28274	bedspreads
-5.28274	beef
-5.28274	beef-processing
-5.28274	beef.
-4.98171	beefing
-5.28274	beekeeping
-2.726437	been
-5.28274	been,
-5.28274	been.
-5.28274	beeney,
-4.241347	beer
-5.28274	beer.
-5.28274	beers
-4.98171	beers.
-4.98171	bees
-5.28274	beetle.
-3.229661	before
-4.68068	before,
-4.805619	before.
-5.28274	beg
-3.443891	began
-4.98171	began,
-4.98171	began.
-5.28274	begging
-3.714538	begin
-5.28274	begin.
-5.28274	beginners.
-3.921012	beginning
-5.28274	beginning,
-5.28274	beginning.
-5.28274	beginnings
-4.203558	begins
-5.28274	begins,
-5.28274	begins.
-3.867767	begun
-5.28274	begun.
-4.37965	behalf
-5.28274	behaving
-4.68068	behavior
-5.28274	behavior.
-5.28274	behavior?
-5.28274	behaviors
-4.98171	behemoth
-3.751261	behind
-5.28274	behind,
-4.805619	behind-the-scenes
-4.805619	behind.
-5.28274	behm
-5.28274	behold
-5.28274	beholds
-4.68068	beijing
-4.98171	beijing,
-5.28274	beijing.
-3.192835	being
-5.28274	being,
-5.28274	being.
-4.98171	beleaguered
-5.28274	beleaguered.
-5.28274	belgium
-4.98171	belgium,
-5.28274	belief
-5.28274	belief:
-5.28274	beliefs
-4.28274	believe
-5.28274	believe.
-4.37965	believed
-5.28274	believed,
-5.28274	believers
-4.58377	believes
-5.28274	believing
-5.28274	belkin
-4.437642	bell
-4.805619	bell,
-5.28274	bellhop
-5.28274	belligerent
-5.28274	bells
-4.98171	bellsouth
-4.98171	bellsouth,
-5.28274	bellsouth.
-5.28274	bellwether
-4.98171	belong
-5.28274	belong.
-5.28274	belonged
-4.805619	belonging
-5.28274	belongs
-4.241347	below
-5.28274	belt
-5.28274	belt,
-5.28274	belt.
-4.805619	belts
-5.28274	bemoan
-4.504589	ben
-4.98171	bench
-4.328497	benchmark
-5.28274	benchmarks
-5.28274	benckiser.
-5.28274	bended
-5.28274	bendel
-5.28274	beneath
-5.28274	benedict
-5.28274	beneficiaries,
-4.07862	benefit
-5.28274	benefit.''
-5.28274	benefited
-5.28274	benefiting
-4.003986	benefits
-4.68068	benefits,
-5.28274	benefits,'''
-4.805619	benefits.
-5.28274	benign
-4.68068	benjamin
-4.98171	bennet,
-5.28274	bennett
-4.68068	bennett,
-5.28274	bennetts
-5.28274	bennetts,
-5.28274	benning
-5.28274	benning,
-5.28274	benny.
-5.28274	bentley
-5.28274	bentleys
-5.28274	benton
-5.28274	bentonville,
-5.28274	bergdorf
-5.28274	bergen.
-5.28274	berkeley,
-4.805619	berkshire
-5.28274	berlin
-5.28274	berman
-5.28274	berman,
-5.28274	bermuda-based
-5.28274	bermudian
-4.98171	bernanke
-4.805619	bernanke,
-4.027467	bernard
-5.28274	bernard,
-5.28274	bernie
-5.28274	bernstein,
-5.28274	berra,
-5.28274	berri
-5.28274	berrie
-5.28274	berry
-4.58377	bershad
-5.28274	bert
-4.98171	bertelsmann
-4.805619	bertelsmann,
-5.28274	bertrand
-5.28274	beset
-4.98171	beside
-4.68068	besides
-4.98171	besides,
-3.610642	best
-5.28274	best!''
-5.28274	best,
-4.58377	best-known
-5.28274	best-liked,
-5.28274	best-paying
-5.28274	best-seller,
-4.437642	best-selling
-5.28274	bestowed
-5.28274	bests
-4.37965	bet
-5.28274	bet,
-5.28274	beta
-4.98171	beth
-5.28274	bethpage,
-5.28274	bethune
-5.28274	betrays
-4.68068	bets
-5.28274	betsy
-3.649271	better
-4.805619	better,
-5.28274	better-known
-5.28274	better-paying
-5.28274	better-performing
-4.68068	better-than-expected
-4.68068	better.
-5.28274	better?
-5.28274	bettina
-4.504589	betting
-3.37965	between
-5.28274	between.
-4.98171	beverage
-5.28274	beverage.
-5.28274	beverages,
-5.28274	beverages.
-4.805619	beverly
-5.28274	beware.
-4.98171	bewkes
-4.58377	bextra
-4.98171	bextra,
-5.28274	beyer
-5.28274	beyer,
-3.960521	beyond
-5.28274	beyond,
-4.98171	bias
-5.28274	biases
-5.28274	bible
-5.28274	bibs,
-5.28274	biceps,
-5.28274	bicycling
-3.490348	bid
-4.58377	bid,
-4.68068	bid.
-4.805619	bidder
-4.98171	bidder,
-5.28274	bidder.
-4.98171	bidders
-5.28274	bidders,
-5.28274	bidders.
-4.37965	bidding
-5.28274	bidding,
-5.28274	biding
-4.37965	bids
-4.98171	bids,
-5.28274	bids.
-3.222042	big
-4.58377	big,
-5.28274	big-budget
-5.28274	big-screen
-4.98171	big.
-4.106648	bigger
-5.28274	bigger,
-4.98171	bigger.
-3.385113	biggest
-4.98171	biggest-selling
-5.28274	biggest.
-5.28274	bigness
-5.28274	bigwig,
-5.28274	bike
-5.28274	bike,''
-4.805619	bike.
-5.28274	bikes
-5.28274	bikini-wax
-5.28274	bilingual
-3.8848	bill
-4.805619	bill's
-4.68068	bill,
-5.28274	bill,''
-4.98171	bill.
-5.28274	bill:
-5.28274	billboard?
-5.28274	billed
-5.28274	billers
-5.28274	billing
-5.28274	billings
-2.930557	billion
-3.960521	billion)
-4.437642	billion),
-4.58377	billion).
-3.49741	billion,
-5.28274	billion-a-year
-5.28274	billion-dollar
-5.28274	billion-euro
-3.68068	billion.
-5.28274	billion?
-4.37965	billionaire
-5.28274	billionaire's
-4.98171	billionaires
-4.136612	billions
-5.28274	billions.
-5.28274	billon)
-4.328497	bills
-4.805619	bills,
-4.504589	bills.
-5.28274	biloxi,
-4.98171	bin
-5.28274	binders
-5.28274	bingo
-4.98171	biocryst
-5.28274	biofeedback
-5.28274	biofuels,
-5.28274	biogen
-5.28274	biogen,
-5.28274	biographies,
-5.28274	biography
-5.28274	biology
-5.28274	biomedical,
-5.28274	biomet
-5.28274	biomet,
-5.28274	biometric
-5.28274	biondi
-5.28274	biotech
-4.328497	biotechnology
-5.28274	biotechnology,
-4.98171	biovail
-5.28274	biovail's
-4.98171	bipartisan
-5.28274	bipolar
-4.68068	bird
-5.28274	bird,
-5.28274	birdlike
-5.28274	birdman
-5.28274	birdman''
-5.28274	birdman:
-5.28274	birmingham
-4.805619	birmingham,
-4.68068	birth
-5.28274	birth,
-4.805619	birthday
-5.28274	birthday,
-5.28274	bistro
-4.052291	bit
-5.28274	bite
-5.28274	bite?
-5.28274	biting
-4.805619	bits
-4.58377	bitter
-5.28274	bitterly
-5.28274	bitumen,
-5.28274	bizarre
-4.98171	bkf
-4.136612	black
-4.58377	black,
-5.28274	black-and-white
-5.28274	black-owned
-5.28274	black-tie
-5.28274	black.
-5.28274	blackballing
-5.28274	blackberries
-5.28274	blackberries.
-4.168797	blackberry
-5.28274	blackberry,
-5.28274	blackberry-related
-4.98171	blackberrys
-5.28274	blackjack
-5.28274	blackout
-5.28274	blackrock,
-4.37965	blackstone
-5.28274	blade,
-4.805619	blades
-5.28274	blades.
-5.28274	blair
-4.98171	blame
-4.68068	blamed
-5.28274	blaming
-5.28274	blanc
-4.805619	bland
-4.98171	bland,
-5.28274	blanket
-4.98171	blankfein,
-5.28274	blared
-4.805619	blatt,
-4.98171	blazer
-5.28274	bleached
-5.28274	bleached-out
-4.805619	bleak
-4.805619	blend
-5.28274	blend,
-5.28274	blend.
-5.28274	blended
-5.28274	blender
-5.28274	blender?
-5.28274	blenders
-5.28274	blends
-4.98171	blessed
-5.28274	blessings
-5.28274	blew
-5.28274	blink.
-5.28274	blinker.
-4.98171	blinking
-4.805619	blistering
-5.28274	blitz
-5.28274	blitz.
-5.28274	blitzes
-4.98171	blizzard
-5.28274	bloated
-5.28274	bloated,
-4.203558	block
-5.28274	block,
-5.28274	block,''
-5.28274	block.
-4.68068	blockages
-4.68068	blockbuster
-5.28274	blockbuster,
-4.68068	blocked
-5.28274	blocked.
-4.504589	blocks
-4.437642	blog
-5.28274	blog,
-4.805619	bloggers
-4.68068	blogging
-4.98171	blogosphere.
-4.37965	blogs
-4.805619	blogs,
-4.98171	blogs.
-5.28274	blokes,
-4.241347	blood
-5.28274	blood,''
-5.28274	blood-clotting
-5.28274	blood-sugar
-5.28274	bloodstream
-5.28274	bloody
-4.68068	bloomberg
-5.28274	blooming
-5.28274	bloomingdale's
-5.28274	bloomingdale's.
-5.28274	blossoming
-5.28274	blotted
-4.28274	blow
-4.98171	blow,
-5.28274	blow.
-4.98171	blowing
-4.98171	blown
-4.58377	blu-ray
-4.504589	blue
-5.28274	blue's
-5.28274	blue,
-4.805619	blue-chip
-5.28274	blue-collar
-5.28274	blue.
-5.28274	blueprint
-4.98171	blunt
-5.28274	blunt-spoken
-5.28274	bluntest
-5.28274	bluntly
-5.28274	blur
-5.28274	blurb,
-5.28274	blurry
-5.28274	blurry.
-5.28274	blush,
-5.28274	blustery
-4.37965	bmg
-4.68068	bmw
-4.98171	bmw's
-4.98171	bmw,
-5.28274	bnp
-4.68068	boar
-3.401926	board
-4.98171	board's
-4.168797	board,
-4.504589	board.
-5.28274	board.''
-5.28274	board?
-5.28274	boarded-up
-4.504589	boarding
-4.68068	boardroom
-4.98171	boardrooms
-5.28274	boardrooms,
-4.328497	boards
-5.28274	boards,
-5.28274	boards.
-5.28274	boardwalk
-4.805619	boast
-4.98171	boasted
-4.98171	boasts
-4.68068	boat
-5.28274	boat.
-5.28274	boating
-4.98171	boats
-5.28274	boats,
-4.203558	bob
-5.28274	bobble-head-doll
-5.28274	boca
-4.805619	bodies
-5.28274	bodies,
-5.28274	bodman
-4.28274	body
-5.28274	body's
-5.28274	body,
-5.28274	body.
-3.791378	boeing
-4.68068	boeing's
-4.58377	boeing,
-5.28274	boeing.
-5.28274	bog
-5.28274	bogeyman
-5.28274	bogle
-4.805619	bogus
-5.28274	bogusky
-4.98171	bogusky,
-4.98171	boies
-5.28274	boies,
-5.28274	boiled
-5.28274	boiling
-4.98171	bold
-5.28274	bolder
-5.28274	boldly
-5.28274	bolivia.
-4.58377	bolster
-4.98171	bolstered
-4.98171	bolstering
-5.28274	bolts
-5.28274	bomb,
-5.28274	bombarded
-5.28274	bomber
-5.28274	bombers
-5.28274	bombing,
-5.28274	bombings,
-5.28274	bombshell
-3.98171	bond
-4.98171	bond,
-5.28274	bond.
-5.28274	bondholders
-5.28274	bondholders,
-5.28274	bondholders.
-4.106648	bonds
-4.328497	bonds,
-5.28274	bonds.
-4.98171	bone
-5.28274	bongiovi
-5.28274	bonnie-and-clyde
-5.28274	bono
-5.28274	bono!
-5.28274	bono,
-5.28274	bonsai?
-4.241347	bonus
-5.28274	bonus,
-5.28274	bonus.
-4.504589	bonuses
-5.28274	bonuses.
-5.28274	boodia
-5.28274	boogied
-3.738672	book
-4.98171	book's
-4.241347	book,
-5.28274	book-sized
-5.28274	book-smart
-5.28274	book.
-4.805619	booked
-5.28274	booked,
-5.28274	bookends
-4.437642	booking
-5.28274	booking.
-5.28274	bookmakers'
-3.902529	books
-4.504589	books,
-4.58377	books.
-5.28274	bookseller
-5.28274	booksmart
-4.68068	bookstore
-4.98171	bookstores
-5.28274	bookstores.
-4.136612	boom
-4.58377	boom,
-4.98171	boom.
-5.28274	boomer
-4.805619	boomers
-5.28274	boomers,
-4.504589	booming
-5.28274	booming.
-5.28274	boomlet
-5.28274	booms
-5.28274	boomtowns,
-5.28274	boon
-5.28274	boondoggle,
-5.28274	boost
-5.28274	boot
-4.98171	boot.
-4.98171	booted
-5.28274	booth
-5.28274	booth,
-4.98171	boots,
-5.28274	bopp
-5.28274	bopp.
-4.98171	border,
-5.28274	border-patrol
-4.98171	border.
-5.28274	border:
-4.98171	borders
-5.28274	borders,
-5.28274	boring,
-4.58377	born
-5.28274	born,
-5.28274	born,''
-5.28274	born.
-5.28274	borough's
-5.28274	boroughs,
-4.98171	borrow
-5.28274	borrow,
-4.98171	borrowed
-4.805619	borrowers
-4.805619	borrowing
-5.28274	borrowing,
-5.28274	bosch-siemens,
-5.28274	bosch.
-4.68068	boss
-5.28274	boss''
-4.504589	boss,
-5.28274	boss.
-5.28274	boss:
-4.805619	bosses
-4.003986	boston
-4.37965	boston,
-4.98171	boston.
-5.28274	boston;
-5.28274	boteros
-5.28274	boteros,
-3.287105	both
-5.28274	both,
-5.28274	bother
-5.28274	bothered
-5.28274	bothers
-5.28274	botswana
-4.68068	bottle
-5.28274	bottlers.
-4.68068	bottles
-4.805619	bottom
-5.28274	bottom-up
-5.28274	bottoms
-3.550346	bought
-5.28274	boulder,
-5.28274	bounce
-5.28274	bounced
-5.28274	bound
-5.28274	bounded
-5.28274	bounding
-5.28274	bountiful
-5.28274	bourbon
-5.28274	bourdain
-5.28274	bourdain,
-4.98171	bourgeois
-5.28274	bout
-4.98171	boutique
-5.28274	bow
-5.28274	bow,
-5.28274	bowes,
-4.98171	bowing
-4.28274	bowl
-5.28274	bowl,
-5.28274	bowman
-4.328497	box
-5.28274	box''
-5.28274	box,
-5.28274	box.
-5.28274	boxboard
-4.98171	boxer
-4.58377	boxes
-4.98171	boxes,
-5.28274	boxes.
-5.28274	boxing
-4.805619	boy
-5.28274	boy's
-5.28274	boy,
-5.28274	boycott
-5.28274	boyd
-4.98171	boyfriend
-5.28274	boyfriends.
-5.28274	boyhood,
-4.98171	boynton,
-4.98171	boys
-5.28274	boys'
-5.28274	boys.
-4.68068	bp
-5.28274	bp's
-5.28274	bp.
-5.28274	brace
-5.28274	brace,
-5.28274	bracelet
-4.98171	brachman,
-4.98171	bracing
-4.437642	brad
-5.28274	bradenton,
-5.28274	bradford,
-5.28274	bradlee,
-5.28274	bradley
-5.28274	brady,
-5.28274	bragged
-4.504589	brain
-5.28274	brain.
-5.28274	brake
-5.28274	braked
-5.28274	brakes,
-4.98171	brakes.
-5.28274	brampton,
-4.58377	branch
-4.504589	branches
-4.98171	branches.
-3.902529	brand
-4.58377	brand,
-5.28274	brand-extension
-5.28274	brand-name
-5.28274	brand-new
-4.68068	brand.
-4.58377	branded
-5.28274	branded-entertainment
-5.28274	brandishing
-4.136612	brands
-4.106648	brands,
-5.28274	brands.
-4.98171	brandywine
-5.28274	bras,
-5.28274	bras.''
-5.28274	brash
-5.28274	bratt,
-4.98171	bratz
-4.98171	bratz,
-5.28274	bratz.
-4.98171	brave
-4.504589	brazil
-5.28274	brazil's
-5.28274	brazil,
-4.98171	brazilian
-5.28274	brazilian-style
-4.37965	breach
-5.28274	breach''
-5.28274	breach.
-5.28274	breached
-5.28274	breaches
-4.805619	bread
-5.28274	bread,
-5.28274	bread.
-5.28274	breadth
-4.027467	break
-5.28274	break,
-5.28274	break-in
-5.28274	breakdown
-4.98171	breakfast
-5.28274	breakfast,
-4.98171	breaking
-4.437642	breaks
-5.28274	breakthrough
-4.68068	breakup
-4.805619	breast
-5.28274	breath,
-5.28274	breathe
-5.28274	breather.
-5.28274	breed
-4.98171	breeze
-5.28274	breezily
-5.28274	breezy
-5.28274	brendan
-5.28274	brennan
-5.28274	brennan,
-5.28274	brent
-5.28274	brewer
-4.98171	brewery
-5.28274	brews
-4.437642	brian
-5.28274	bribe
-5.28274	bribed
-4.98171	bribery
-4.98171	bribery,
-4.98171	bribes
-5.28274	bribes,
-5.28274	bribes.
-5.28274	bribing
-4.805619	brick
-5.28274	bridal
-5.28274	bride's,
-4.98171	bridge
-5.28274	bridgeport,
-5.28274	bridges
-5.28274	bridgewater
-4.68068	brief
-5.28274	brief,
-5.28274	briefcase
-3.820342	briefed
-4.98171	briefing
-5.28274	briefings
-5.28274	briefings,
-4.437642	briefly
-5.28274	briefly,
-5.28274	brig.
-4.37965	bright
-5.28274	brighter
-5.28274	brill
-5.28274	brill,
-4.68068	brilliant
-5.28274	brilliant!
-5.28274	brimming
-5.28274	brinda
-3.851376	bring
-4.37965	bringing
-4.37965	brings
-5.28274	brink.
-4.58377	brisk
-5.28274	brislin,
-5.28274	bristol,
-4.37965	bristol-myers
-4.28274	britain
-4.805619	britain's
-4.805619	britain,
-5.28274	britain.
-5.28274	britain;
-5.28274	britannica.
-3.669956	british
-5.28274	british-born
-5.28274	british-russian
-5.28274	british.''
-5.28274	british;
-5.28274	brittle
-5.28274	broached
-4.027467	broad
-5.28274	broad-based,
-4.58377	broadband
-5.28274	broadband,
-3.921012	broadcast
-5.28274	broadcast.
-4.805619	broadcaster
-4.98171	broadcaster.
-4.68068	broadcasters
-4.136612	broadcasting
-5.28274	broadcasting's
-5.28274	broadcasting,
-4.98171	broadcasts
-4.805619	broaden
-5.28274	broadened
-5.28274	broadening
-4.28274	broader
-4.98171	broadly
-4.98171	broadway
-5.28274	broadway's
-4.98171	broadway,
-4.98171	broadway.
-5.28274	broback
-5.28274	broback,
-5.28274	brocato
-4.98171	brocato's
-4.98171	brochure
-5.28274	brochure.
-4.98171	brog
-4.58377	broke
-5.28274	broke.
-5.28274	broke.''
-4.68068	broken
-5.28274	broken.
-4.168797	broker
-4.37965	broker,
-4.168797	brokerage
-5.28274	brokerage,
-4.98171	brokered
-4.437642	brokers
-4.805619	brokers,
-4.98171	brokers.
-5.28274	bronckers
-5.28274	bronckers,
-5.28274	bronze
-5.28274	brook
-5.28274	brooke,
-4.98171	brookfield
-5.28274	brookings
-4.437642	brooklyn
-4.805619	brooklyn,
-4.98171	brooklyn.
-4.68068	brooks
-4.98171	brooks,
-5.28274	brookstone
-5.28274	bros.
-4.58377	brother
-5.28274	brother's
-4.805619	brother,
-5.28274	brother.
-3.921012	brothers
-5.28274	brothers'
-4.68068	brothers,
-3.960521	brought
-5.28274	broughton,
-5.28274	browder
-5.28274	browder,
-4.437642	brown
-5.28274	brown,
-5.28274	brows,
-4.805619	browser
-5.28274	browser.
-5.28274	browsers,
-4.37965	bruce
-5.28274	bruce,
-5.28274	bruising
-5.28274	brunette
-5.28274	bruno
-5.28274	brunt
-5.28274	brusque
-4.805619	brussels
-4.805619	brutal
-5.28274	brutal,''
-5.28274	bruton,
-5.28274	bruxelles
-5.28274	bryan
-4.805619	bryson,
-4.241347	bubble
-5.28274	bubble,
-5.28274	bubble.
-5.28274	bubble.''
-5.28274	bubbled
-4.98171	bubbles
-5.28274	bubbles.
-4.98171	buca
-5.28274	buckets
-5.28274	buckett,
-5.28274	bucolic
-4.58377	bud
-5.28274	buddies
-5.28274	budding
-5.28274	buddy
-5.28274	budged
-4.136612	budget
-5.28274	budget.
-5.28274	budgeted
-5.28274	budgets.
-5.28274	budweiser.
-5.28274	buena
-5.28274	buenos
-5.28274	buff,
-5.28274	buffalo
-5.28274	bufferin;
-5.28274	buffeted
-5.28274	buffeting
-4.805619	buffett
-5.28274	buffett's
-4.98171	buffett.
-5.28274	buffing
-5.28274	buffone,
-5.28274	buffs
-5.28274	buffy
-5.28274	bug
-5.28274	bug's
-5.28274	bug,
-5.28274	bug.
-5.28274	buggy
-5.28274	buick
-4.98171	buick,
-3.77759	build
-4.504589	builders
-5.28274	builders.
-3.601499	building
-4.805619	building,
-5.28274	building-materials
-5.28274	building.
-4.504589	buildings
-4.98171	buildings,
-5.28274	buildings,''
-4.58377	buildings.
-4.805619	builds
-3.820342	built
-4.58377	built-in
-5.28274	built:
-5.28274	bukowski,
-5.28274	bulb,
-4.805619	bulk
-4.805619	bull
-5.28274	bull,
-5.28274	bulldozed
-5.28274	bulldozers
-4.98171	bullet
-4.98171	bullet,
-4.98171	bullet.
-4.68068	bulletin
-4.98171	bulletproof
-5.28274	bullets
-5.28274	bullhorn,
-5.28274	bullies.
-4.98171	bullish
-5.28274	bully
-5.28274	bulwark
-5.28274	bumbling
-5.28274	bumming
-5.28274	bump
-5.28274	bumped
-4.805619	bumper
-4.805619	bumping
-5.28274	bunch
-5.28274	bundle
-5.28274	bundle,
-5.28274	bundling
-5.28274	bunking
-5.28274	bunny.
-5.28274	buoyant
-4.805619	buoyed
-4.58377	burden
-4.37965	bureau
-5.28274	bureau's
-5.28274	bureau,
-4.98171	bureau.
-4.504589	burger
-5.28274	burials
-5.28274	buried
-5.28274	burkholder
-4.98171	burkholder,
-5.28274	burkle,
-4.98171	burlap
-4.805619	burn
-5.28274	burner''
-4.98171	burnett
-5.28274	burnham
-4.68068	burning
-5.28274	burnish
-4.98171	burnished
-5.28274	burns
-5.28274	burns,
-5.28274	burns.
-5.28274	burritos.
-5.28274	burrough
-5.28274	burrowed
-5.28274	burson-marsteller
-4.98171	burst
-5.28274	burst,
-5.28274	burst.
-5.28274	bursting
-5.28274	bursts
-5.28274	burton
-4.98171	bus
-5.28274	bus,
-4.805619	buses
-5.28274	buses,
-3.550346	bush
-4.28274	bush's
-5.28274	bush.
-5.28274	bushes.
-4.98171	busiest
-2.994938	business
-3.77759	business,
-5.28274	business-
-4.68068	business-class
-3.714538	business.
-5.28274	business.''
-5.28274	business:
-3.702956	businesses
-4.28274	businesses,
-4.136612	businesses.
-4.805619	businessman
-5.28274	businessman,
-4.98171	businessmen.
-4.98171	businesspeople
-5.28274	businesspeople.
-4.98171	businessweek
-5.28274	businesswoman
-5.28274	businesswomen
-5.28274	bust.
-5.28274	busted
-5.28274	busted,
-4.98171	bustle
-5.28274	bustling
-4.58377	busy
-5.28274	busy,
-5.28274	busy.
-5.28274	busybody,
-2.466499	but
-4.68068	but,
-5.28274	butchering
-4.68068	butler
-5.28274	butler,
-5.28274	butter
-5.28274	butter!,
-5.28274	butter,
-4.805619	button
-5.28274	buttoned-up
-5.28274	buttons
-5.28274	butyl
-5.28274	butyric
-3.225835	buy
-4.68068	buy,
-4.98171	buy.
-5.28274	buy.''
-4.98171	buyback
-4.504589	buyer
-5.28274	buyer,
-5.28274	buyer.
-4.58377	buyers
-4.68068	buyers,
-4.98171	buyers.
-5.28274	buyers:
-3.738672	buying
-4.328497	buyout
-5.28274	buyout,
-5.28274	buyouts
-4.58377	buys
-4.805619	buzz
-5.28274	buzz,
-4.98171	buzzing
-2.290628	by
-5.28274	bygone
-5.28274	byline.
-4.805619	bylines
-4.98171	bypassing
-4.98171	börse
-5.28274	börse's
-4.98171	börse,
-4.68068	c
-5.28274	c+
-3.669956	c.
-4.98171	c.e.o.
-4.98171	c.e.o.'s
-4.805619	c.e.o.,
-5.28274	c.i.a.
-4.68068	c.v.
-4.98171	c1.]
-5.28274	c100
-5.28274	c100,
-5.28274	caan
-5.28274	cab.''
-5.28274	cabana
-4.58377	cabin
-4.98171	cabinet
-4.805619	cabins
-5.28274	cabins.
-3.58377	cable
-5.28274	cable,
-4.805619	cable.
-4.68068	cables
-4.027467	cablevision
-5.28274	cablevision's
-4.68068	cablevision,
-5.28274	cablevision.
-5.28274	cabot,
-5.28274	cabrera
-4.98171	cabrera,
-5.28274	cachet:
-5.28274	cactuses,
-5.28274	cadbury
-5.28274	cadences
-4.68068	cadillac
-5.28274	cadillac,
-5.28274	cadre
-5.28274	cadwalader,
-5.28274	caesars
-5.28274	cafes
-5.28274	caffeinated,
-5.28274	caffeine
-5.28274	cafta,
-5.28274	cafta.
-4.805619	calandra
-5.28274	calandra,
-5.28274	calcium
-5.28274	calculate
-4.98171	calculated
-5.28274	calculated,
-5.28274	calculating
-5.28274	calculations
-5.28274	calculus
-5.28274	calendar
-5.28274	calendar.
-5.28274	calendars,
-5.28274	calf-deep
-5.28274	calhoun,
-5.28274	caliber.
-4.37965	calif.
-3.960521	calif.,
-4.052291	california
-4.504589	california's
-4.28274	california,
-5.28274	california-based
-4.504589	california.
-3.659491	call
-5.28274	call-in
-5.28274	call.
-5.28274	call.''
-5.28274	callahan
-3.358461	called
-4.98171	called,
-5.28274	called.
-4.68068	caller
-5.28274	caller's
-5.28274	callers
-4.07862	calling
-4.98171	calling,
-3.764226	calls
-4.58377	calls,
-5.28274	calls.
-5.28274	calm
-5.28274	calmed
-5.28274	calories
-5.28274	calories)
-4.98171	calvin
-4.98171	cambodian
-5.28274	cambridge.
-5.28274	camcorders,
-5.28274	camcorders:
-3.47656	came
-4.68068	camelback
-4.98171	camelback,
-4.328497	camera
-5.28274	camera's
-5.28274	camera,
-5.28274	camera,''
-4.58377	camera.
-5.28274	camera.''
-5.28274	camera.)
-5.28274	cameraman,
-4.241347	cameras
-4.58377	cameras,
-4.98171	cameras.
-5.28274	cameras?
-4.98171	cameron
-5.28274	camouflage
-4.504589	camp
-5.28274	camp.
-3.791378	campaign
-4.504589	campaign,
-4.98171	campaign.
-5.28274	campaign:
-5.28274	campaigning
-4.28274	campaigns
-5.28274	campaigns,
-4.98171	campaigns.
-5.28274	campbell
-5.28274	campbell's
-5.28274	campbell-ewald,
-5.28274	camped
-4.98171	camps
-5.28274	camps,
-5.28274	camps.
-4.504589	campus
-4.98171	campus,
-5.28274	campuses
-4.98171	campy
-4.98171	camry
-5.28274	camry,
-5.28274	camus
-5.28274	camus,
-3.037227	can
-4.052291	can't
-4.98171	can,
-5.28274	can.
-4.136612	canada
-4.98171	canada's
-4.58377	canada,
-4.805619	canada.
-3.659491	canadian
-5.28274	canadian-run
-5.28274	canadianpharmacy
-4.58377	cancel
-4.58377	canceled
-5.28274	canceled.
-5.28274	cancellation
-4.003986	cancer
-4.328497	cancer,
-5.28274	cancer-fighting
-5.28274	cancer.
-5.28274	candice
-4.805619	candidate
-5.28274	candidate.
-5.28274	candidates.''
-5.28274	candlelight
-5.28274	candor
-4.58377	candy
-5.28274	canine
-4.98171	canizaro
-5.28274	canizaro,
-5.28274	canned
-5.28274	cannes
-5.28274	cannes,
-5.28274	cannily
-5.28274	cannon
-4.136612	cannot
-4.98171	canon
-5.28274	canopy
-5.28274	cans
-5.28274	cans,
-5.28274	cans,''
-5.28274	cantankerous
-5.28274	cantile
-5.28274	cantor
-4.98171	canvas
-5.28274	canvases
-5.28274	canvassing
-5.28274	canyon
-4.98171	canyons
-5.28274	cap
-5.28274	capability
-4.68068	capable
-5.28274	capacities.
-4.28274	capacity
-4.98171	capacity,
-5.28274	capacity.
-5.28274	cape
-5.28274	caper
-3.669956	capital
-4.168797	capital,
-4.98171	capital.
-5.28274	capitalism.
-4.58377	capitalist
-5.28274	capitalist,
-4.68068	capitalists
-5.28274	capitalists.
-4.68068	capitalization
-5.28274	capitalizations
-5.28274	capitalize
-5.28274	capitalizing
-5.28274	capitals.
-5.28274	capitol
-5.28274	capitulated.
-5.28274	capping
-5.28274	caps
-5.28274	caps.
-5.28274	capsized
-5.28274	caption:
-5.28274	captioning
-4.98171	capture
-5.28274	captures
-3.649271	car
-4.58377	car,
-4.805619	car.
-5.28274	carat
-5.28274	carat.
-5.28274	carb
-5.28274	carbine-action
-5.28274	carbohydrates
-5.28274	carbohydrates.
-4.805619	carbon
-5.28274	carbonite,
-5.28274	carcass
-5.28274	carcasses
-3.805619	card
-4.805619	card,
-4.98171	card.
-5.28274	cardboard
-5.28274	cardholder
-4.805619	cardholders
-4.58377	cardiac
-4.98171	cardinal
-4.98171	cardiologists
-4.98171	cardiology
-4.98171	cardiovascular
-4.136612	cards
-4.37965	cards,
-5.28274	cards,''
-4.68068	cards.
-5.28274	cards:
-5.28274	cardsystems
-5.28274	cardsystems'
-3.791378	care
-4.68068	care,
-4.68068	care.
-4.98171	cared
-4.027467	career
-4.68068	career.
-5.28274	career.''
-5.28274	careers.
-4.805619	careful
-4.37965	carefully
-5.28274	carefully.
-5.28274	caregivers
-5.28274	carey,
-5.28274	cargill
-4.98171	cargill,
-4.98171	cargo
-5.28274	cargo,
-4.98171	caribbean
-5.28274	caring
-4.28274	carl
-4.805619	carleton
-4.98171	carlos
-5.28274	carlsbad,
-4.98171	carlson
-4.805619	carmaker
-4.805619	carmaker,
-5.28274	carmaker.
-4.68068	carmakers
-5.28274	carmona,
-5.28274	carnage
-4.805619	carnegie
-5.28274	carney,
-5.28274	carnivore,''
-5.28274	carol
-5.28274	carole,
-4.805619	carolina
-4.98171	carolina's
-5.28274	carolina.
-5.28274	carolinas.
-4.805619	carotid
-5.28274	carotid-clearing
-5.28274	carp,
-4.98171	carpenter,
-5.28274	carpeting.
-5.28274	carpets.
-5.28274	carrefour
-5.28274	carrefour's
-5.28274	carrefour,
-4.98171	carriage
-5.28274	carrie
-4.504589	carried
-4.203558	carrier
-4.98171	carrier,
-4.58377	carrier.
-4.203558	carriers
-4.68068	carriers,
-4.58377	carriers.
-4.98171	carries
-5.28274	carrot
-4.98171	carrots
-4.052291	carry
-5.28274	carry-on
-5.28274	carry-on.
-4.203558	carrying
-3.669956	cars
-4.98171	cars,
-4.437642	cars.
-4.98171	cars;
-5.28274	cars?''
-4.805619	carson
-5.28274	carson's
-5.28274	carson.
-5.28274	cart
-4.98171	cartel
-5.28274	cartel,
-4.98171	cartels
-4.98171	carter,
-5.28274	carteret,
-5.28274	cartilage
-4.68068	cartoon
-5.28274	cartoon,
-5.28274	cartoonish
-5.28274	cartoons
-5.28274	cartridge
-5.28274	cartridges
-5.28274	carts
-4.98171	carve
-4.805619	carving
-5.28274	cary
-3.592544	case
-4.136612	case,
-5.28274	case-by-case
-4.37965	case.
-4.203558	cases
-4.37965	cases,
-4.504589	cases.
-5.28274	casey
-3.610642	cash
-4.37965	cash,
-4.437642	cash.
-5.28274	cashed
-5.28274	cashiers
-5.28274	cashing
-4.58377	casino
-5.28274	casino,
-5.28274	casinos
-5.28274	casinos,
-5.28274	casio's
-5.28274	casket
-5.28274	casper,
-4.68068	cast
-5.28274	castelli
-5.28274	castelli,
-5.28274	castillo
-5.28274	castillo,
-4.805619	casting
-5.28274	castro
-5.28274	castro,
-5.28274	casts
-4.68068	casual
-5.28274	casualty
-5.28274	casualty.
-5.28274	cat
-5.28274	cat-and-mouse
-5.28274	cataclysm,''
-4.504589	catalog
-5.28274	catalogs
-5.28274	catalogue
-5.28274	catapulted
-5.28274	catastrophe
-4.504589	catch
-4.98171	catch-all
-4.98171	catch:
-4.98171	catching
-4.37965	categories
-4.437642	category
-5.28274	category,
-5.28274	category;
-5.28274	catered
-5.28274	caterers,
-5.28274	catering
-5.28274	caterpillar
-5.28274	caterpillar,
-5.28274	catherine
-4.98171	catholic
-5.28274	catilinarian
-5.28274	catlike
-4.68068	cattle
-5.28274	cattlemen,
-4.328497	caught
-3.8848	cause
-4.98171	cause,''
-5.28274	cause-related
-4.168797	caused
-4.98171	causes
-5.28274	causes,
-5.28274	causes.
-4.328497	causing
-5.28274	caustic.
-5.28274	caution
-4.805619	cautioned
-5.28274	cautioned,
-4.68068	cautious
-5.28274	cautious,
-4.98171	cavanaugh
-5.28274	cavanaugh,
-5.28274	cave,''
-4.805619	cavernous
-5.28274	caverns
-5.28274	cazenove
-3.791378	cbs
-5.28274	cbs's
-4.58377	cbs,
-5.28274	cbs-owned
-4.805619	cbs.
-5.28274	cbsnews.com
-5.28274	cctv
-5.28274	cd
-4.98171	cd's
-5.28274	cd's.
-5.28274	cd-r
-5.28274	cd-r.
-5.28274	cds
-5.28274	cease
-4.805619	ceased
-5.28274	ceases
-5.28274	ceasing
-4.805619	cedar
-5.28274	cedarbaum,
-4.98171	cede
-5.28274	ceiba
-4.98171	ceiling
-5.28274	ceiling,
-5.28274	ceilings
-4.58377	celebrate
-5.28274	celebrate.
-5.28274	celebrate:
-4.504589	celebrated
-5.28274	celebrates
-4.805619	celebrating
-5.28274	celebration
-5.28274	celebration,
-4.98171	celebrations
-4.98171	celebrex
-4.98171	celebrex,
-5.28274	celebrex.
-4.805619	celebrities
-5.28274	celebrities,
-4.328497	celebrity
-5.28274	celebrity-packed
-5.28274	celebrity.
-4.98171	celera
-5.28274	celeron
-5.28274	celine
-5.28274	cell
-5.28274	cellar
-5.28274	cellars.
-3.940317	cellphone
-4.98171	cellphone,
-5.28274	cellphone-based
-5.28274	cellphone.
-5.28274	cellphone..
-5.28274	cellphone?
-4.437642	cellphones
-4.805619	cellphones,
-5.28274	cellphones.
-5.28274	cellphones?
-4.805619	cells
-4.805619	cells.
-4.805619	cellular
-4.805619	cement
-5.28274	cement.
-4.98171	cemented
-5.28274	cemented.
-4.98171	cendant
-5.28274	cendant,
-5.28274	censored
-4.98171	censorship
-5.28274	censorship.
-5.28274	censured
-5.28274	census
-5.28274	census,
-4.98171	cent
-5.28274	cent?
-5.28274	centenario,
-3.791378	center
-4.203558	center,
-4.98171	center.
-5.28274	centereach,
-4.68068	centered
-5.28274	centered.
-4.98171	centerpiece
-5.28274	centerpiece,
-4.98171	centerpoint
-4.805619	centers
-4.68068	centers,
-5.28274	centers.
-3.669956	central
-4.98171	central,
-5.28274	central;
-5.28274	centrally
-5.28274	centre.
-3.751261	cents
-5.28274	cents),
-4.805619	cents,
-4.98171	cents.
-4.98171	centuries
-4.98171	centuries,
-4.203558	century
-4.68068	century,
-5.28274	century,''
-4.98171	century-old
-5.28274	century.
-5.28274	ceo
-5.28274	cepu
-5.28274	ceramic
-5.28274	cerebral
-5.28274	ceremonies,
-5.28274	ceremony.
-5.28274	cerrito,
-3.867767	certain
-5.28274	certain,
-4.437642	certainly
-5.28274	certainties.
-5.28274	certification
-5.28274	certified
-5.28274	certify
-5.28274	certify,
-4.98171	cessna
-5.28274	cesspools
-5.28274	chad
-5.28274	chae
-5.28274	chaff.
-5.28274	chafing
-5.28274	chagrin.
-5.28274	chaiken
-4.168797	chain
-5.28274	chain''
-4.168797	chain,
-5.28274	chain-link
-5.28274	chain-store
-4.805619	chain.
-4.437642	chains
-4.68068	chains,
-5.28274	chains.
-5.28274	chainsaw-shaped
-5.28274	chainsaw-wielding
-4.98171	chair
-5.28274	chair.
-3.225835	chairman
-5.28274	chairman's
-3.805619	chairman,
-4.504589	chairman.
-4.805619	chairmen
-5.28274	chairs.
-4.58377	chairwoman
-4.98171	chairwoman,
-5.28274	chalked
-4.203558	challenge
-5.28274	challenge,
-5.28274	challenge.
-4.805619	challenged
-5.28274	challenged.
-4.437642	challenges
-5.28274	challenges.''
-4.37965	challenging
-4.805619	chamber
-5.28274	champagne
-5.28274	champagne,
-5.28274	champagne.
-5.28274	champion
-5.28274	champion.
-5.28274	champion:
-5.28274	championed
-4.98171	championship
-5.28274	championship,''
-4.98171	chan,
-4.106648	chance
-5.28274	chance.
-5.28274	chancellor
-4.68068	chances
-4.98171	chanel
-5.28274	chang
-5.28274	chang,
-3.659491	change
-5.28274	change.
-3.98171	changed
-5.28274	changed:
-5.28274	changer,
-3.867767	changes
-4.98171	changes.
-4.98171	changhong
-5.28274	changhong,
-4.328497	changing
-5.28274	changing,
-4.003986	channel
-4.68068	channel,
-4.805619	channel.
-4.98171	channeled
-4.504589	channels
-4.98171	channels.
-5.28274	chaos
-5.28274	chapel
-4.58377	chapter
-5.28274	chapter,
-4.68068	character
-5.28274	character,
-5.28274	character,''
-5.28274	character:
-4.58377	characterized
-4.37965	characters
-5.28274	characters!
-4.98171	characters,
-5.28274	characters,''
-5.28274	charcoal
-4.203558	charge
-4.052291	charged
-3.669956	charges
-4.68068	charges,
-4.504589	charges.
-5.28274	charges;
-4.37965	charging
-4.98171	charismatic
-4.98171	charities
-5.28274	charities,
-5.28274	charities.''
-4.504589	charity
-5.28274	charity''
-5.28274	charité.
-3.960521	charles
-5.28274	charles,
-5.28274	charlie
-5.28274	charlottesville,
-5.28274	charm,
-5.28274	charms.
-5.28274	charney,
-5.28274	charred
-4.68068	chart
-4.68068	charter
-5.28274	charter's
-5.28274	chartists
-5.28274	charts.
-4.58377	chase
-5.28274	chase's
-4.805619	chase,
-5.28274	chase.
-5.28274	chase;
-4.98171	chasing
-5.28274	chasm
-5.28274	chasms
-5.28274	chastise
-4.58377	chat
-5.28274	chat.
-5.28274	chats
-4.805619	chatter
-5.28274	chatterjee,
-5.28274	chatting
-4.98171	chautauqua
-5.28274	chavis,
-4.437642	cheap
-4.805619	cheaper
-4.98171	cheapest
-5.28274	cheaply
-5.28274	cheapseats.com.
-5.28274	cheaptickets
-4.98171	cheating
-4.203558	check
-5.28274	check,
-5.28274	checkbook.
-4.504589	checked
-4.98171	checking
-4.98171	checklist
-4.98171	checkpoint
-5.28274	checkpoint,
-4.68068	checks
-5.28274	cheek
-5.28274	cheeks
-5.28274	cheer
-5.28274	cheer.
-5.28274	cheered
-5.28274	cheerful,
-5.28274	cheering,''
-5.28274	cheerleaders
-5.28274	cheerleaders.
-4.68068	cheese
-5.28274	cheese.
-5.28274	cheesecake
-4.68068	chef
-5.28274	chef's
-4.98171	chef,
-4.98171	chefs
-5.28274	chelmsford,
-4.168797	chemical
-5.28274	chemical,
-4.98171	chemicals
-5.28274	chemists
-5.28274	chemotherapy
-5.28274	chemotherapy,
-4.98171	chemotherapy.
-5.28274	cheney's
-5.28274	cher
-4.805619	cherry
-5.28274	cherubic-faced
-5.28274	chess
-5.28274	chesslike
-4.98171	chest
-5.28274	chesterton
-4.805619	chevrolet
-4.98171	chevrolet,
-4.58377	chevron
-5.28274	chevron's
-5.28274	chevron,
-4.98171	chevy
-5.28274	chewco
-5.28274	chewing
-5.28274	chez
-5.28274	chi
-5.28274	chiames,
-5.28274	chic
-3.98171	chicago
-4.28274	chicago,
-4.805619	chicago.
-4.68068	chicken
-5.28274	chicken,
-4.98171	chickens
-5.28274	chiding
-2.773537	chief
-4.437642	chief,
-5.28274	chief.
-4.805619	chiefs
-5.28274	chihuahua
-4.027467	child
-4.98171	child's
-5.28274	child,
-5.28274	child-care
-5.28274	childbearers
-5.28274	childhood,
-3.902529	children
-4.58377	children's
-4.504589	children,
-4.437642	children.
-5.28274	chile
-5.28274	chile's
-5.28274	chile.
-5.28274	chili.
-5.28274	chill
-5.28274	chilton,
-5.28274	chimes
-4.98171	chimneys
-5.28274	chin,
-3.469826	china
-3.867767	china's
-4.027467	china,
-5.28274	china,''
-4.168797	china.
-5.28274	china.''
-4.98171	china:
-5.28274	china;
-5.28274	chinatown
-5.28274	chine
