
\data\
ngram 1=26754
ngram 2=116136
ngram 3=9062
ngram 4=2951
ngram 5=1149

\1-grams:
-3.902529	$1	-0.2929657
-5.28274	$1,	-0.09168977
-4.437642	$1,000	-0.1030565
-5.28274	$1,000.	-0.08130499
-5.28274	$1,100	-0.08711257
-5.28274	$1,200,	-0.0824172
-4.98171	$1,200.	-0.09151982
-5.28274	$1,235.50	-0.08972816
-5.28274	$1,600	-0.08711257
-5.28274	$1,700	-0.07935407
-5.28274	$1,800	-0.08261617
-5.28274	$1.01	-0.07935407
-5.28274	$1.04	-0.07935407
-4.58377	$1.1	-0.4182938
-5.28274	$1.11	-0.09162407
-5.28274	$1.13	-0.09162407
-5.28274	$1.15	-0.09119339
-5.28274	$1.17,	-0.09163766
-4.805619	$1.2	-0.4561473
-5.28274	$1.21	-0.09162407
-5.28274	$1.23	-0.09162407
-4.805619	$1.25	-0.1962439
-4.98171	$1.3	-0.09118203
-5.28274	$1.32	-0.09162407
-5.28274	$1.33	-0.09162407
-4.98171	$1.4	-0.09111399
-5.28274	$1.41	-0.09162407
-5.28274	$1.45	-0.09125235
-5.28274	$1.46	-0.09125235
-4.68068	$1.5	-0.1836183
-4.98171	$1.50	-0.2896593
-5.28274	$1.59,	-0.08061538
-4.98171	$1.6	-0.09164217
-5.28274	$1.62	-0.09125235
-5.28274	$1.65	-0.09167164
-5.28274	$1.67	-0.09125235
-4.504589	$1.7	-0.3212662
-5.28274	$1.75	-0.08061538
-5.28274	$1.78	-0.09119339
-4.98171	$1.8	-0.09155381
-5.28274	$1.86	-0.09162407
-5.28274	$1.90	-0.07935407
-4.98171	$1.99	-0.08711026
-4.027467	$10	-0.2387655
-4.68068	$10,000	-0.08567943
-5.28274	$10,000.	-0.08130499
-5.28274	$10.2	-0.09125235
-5.28274	$10.3	-0.09125235
-5.28274	$10.4	-0.09169203
-5.28274	$10.5	-0.09125235
-5.28274	$10.50.	-0.08130499
-5.28274	$10.7	-0.09125235
-5.28274	$10.8	-0.09125235
-5.28274	$10.9	-0.09169203
-4.003986	$100	-0.440479
-5.28274	$100,	-0.08061538
-4.58377	$100,000	-0.06844655
-5.28274	$100?	-0.08130499
-5.28274	$102.6	-0.09125235
-4.98171	$105	-0.09109358
-5.28274	$106.01	-0.09038983
-5.28274	$108	-0.09167164
-5.28274	$108,000	-0.09165125
-5.28274	$109,900	-0.08711257
-4.28274	$11	-0.4425233
-4.98171	$11,000	-0.07925383
-5.28274	$11-an-hour	-0.0916082
-4.805619	$11.1	-0.2194781
-5.28274	$11.25	-0.07935407
-5.28274	$11.3	-0.09167164
-4.98171	$11.5	-0.09105501
-4.98171	$115	-0.3014986
-5.28274	$119,995	-0.08711257
-4.504589	$12	-0.4561659
-5.28274	$12,000-a-year	-0.09174412
-5.28274	$120	-0.07935407
-5.28274	$122	-0.09173506
-5.28274	$125	-0.09119339
-5.28274	$125,000	-0.0916875
-5.28274	$128	-0.09119339
-4.98171	$13	-0.09157194
-5.28274	$13.09	-0.09162407
-5.28274	$13.25	-0.08972816
-5.28274	$13.5	-0.09125235
-5.28274	$13.50	-0.08261617
-5.28274	$130	-0.09119339
-5.28274	$130,	-0.09125915
-5.28274	$134	-0.09125235
-5.28274	$135,000	-0.07946825
-4.98171	$139.5	-0.3014986
-4.504589	$14	-0.3089652
-5.28274	$14.3	-0.09125235
-5.28274	$14.4	-0.09167164
-5.28274	$140	-0.09119339
-5.28274	$148	-0.09119339
-4.68068	$15	-0.3324544
-5.28274	$15,000	-0.09175998
-5.28274	$15,696	-0.08972816
-5.28274	$15.	-0.09139971
-5.28274	$15.09,	-0.09102327
-4.58377	$150	-0.1635754
-5.28274	$150,000)	-0.08061538
-5.28274	$150-billion-a-year	-0.09175998
-5.28274	$153	-0.09119339
-5.28274	$158.	-0.07935407
-4.805619	$16	-0.07824332
-4.98171	$16.4	-0.3015576
-4.68068	$160	-0.08634499
-5.28274	$17.50	-0.08972816
-5.28274	$17.53	-0.09161501
-5.28274	$17.6	-0.09125235
-5.28274	$170	-0.09119339
-5.28274	$170,000	-0.07935407
-5.28274	$175,000	-0.07935407
-5.28274	$177.3	-0.09119339
-4.98171	$18	-0.09116162
-5.28274	$18-a-share	-0.09171921
-5.28274	$18.04	-0.09162633
-4.98171	$18.5	-0.09153342
-5.28274	$180	-0.09119339
-5.28274	$180,''	-0.09016711
-4.98171	$185	-0.3014986
-5.28274	$19	-0.09125235
-5.28274	$19.32	-0.07935407
-5.28274	$19.95	-0.07935407
-4.98171	$190	-0.3014986
-4.805619	$195	-0.4560884
-4.052291	$2	-0.5159849
-4.805619	$2,000	-0.08241951
-5.28274	$2,500	-0.08261617
-5.28274	$2,700	-0.08711257
-5.28274	$2.1	-0.09162407
-5.28274	$2.18	-0.09162407
-5.28274	$2.18,	-0.08061538
-4.98171	$2.2	-0.09111399
-5.28274	$2.26	-0.09162407
-4.98171	$2.3	-0.3019678
-4.805619	$2.4	-0.4561473
-5.28274	$2.49	-0.09167164
-4.437642	$2.5	-0.5127346
-5.28274	$2.50	-0.09174639
-5.28274	$2.51,	-0.08938214
-5.28274	$2.53	-0.09162407
-5.28274	$2.6	-0.09125235
-4.98171	$2.66	-0.3019293
-4.437642	$2.7	-0.361726
-4.98171	$2.8	-0.09153342
-5.28274	$2.85	-0.09162407
-4.98171	$2.9	-0.09152436
-4.241347	$20	-0.2293922
-5.28274	$20's	-0.09077817
-5.28274	$20,000	-0.08261617
-4.98171	$20.1	-0.09068281
-4.504589	$200	-0.1365137
-5.28274	$200,	-0.09027621
-5.28274	$200.	-0.0911503
-5.28274	$205.96	-0.0824172
-5.28274	$21	-0.09119339
-4.98171	$21.1	-0.3015576
-4.98171	$21.5	-0.09116162
-4.98171	$215	-0.09109358
-5.28274	$219,000.	-0.08892188
-5.28274	$222,061.25	-0.08617295
-5.28274	$225	-0.09119339
-5.28274	$228,	-0.08810725
-4.805619	$23	-0.2104595
-5.28274	$23,000	-0.08711257
-5.28274	$23.01,	-0.09098923
-5.28274	$23.51	-0.08972816
-5.28274	$24.25	-0.07935407
-5.28274	$24.95	-0.08938214
-5.28274	$240,000	-0.08810725
-5.28274	$245	-0.09169203
-5.28274	$246	-0.09125235
-4.58377	$25	-0.2499029
-5.28274	$25,	-0.09071234
-4.98171	$25,000	-0.08078729
-4.805619	$25.4	-0.2194781
-5.28274	$25.72	-0.07935407
-4.805619	$250	-0.2194577
-4.98171	$250,000	-0.07102465
-5.28274	$250,000,	-0.09174639
-5.28274	$259	-0.09119339
-5.28274	$26	-0.09051477
-5.28274	$26,	-0.09027621
-5.28274	$260	-0.09119339
-5.28274	$265	-0.09119339
-4.98171	$27	-0.0787687
-5.28274	$27.50	-0.07935407
-5.28274	$27.8	-0.09125235
-5.28274	$275	-0.09166258
-5.28274	$275.12.	-0.06549233
-5.28274	$279	-0.09166258
-5.28274	$279,000,	-0.09174186
-4.98171	$28	-0.09068281
-5.28274	$28.5	-0.09119339
-5.28274	$28.50),	-0.08892188
-5.28274	$285.10.	-0.08261617
-4.805619	$29	-0.09068055
-5.28274	$290	-0.09071234
-4.168797	$3	-0.5336949
-5.28274	$3,000	-0.08261617
-5.28274	$3,300	-0.08810725
-5.28274	$3,632	-0.09038983
-5.28274	$3.12,	-0.09071234
-5.28274	$3.14	-0.09162407
-5.28274	$3.2	-0.09125235
-5.28274	$3.21	-0.07935407
-4.98171	$3.3	-0.3019769
-4.805619	$3.4	-0.0905443
-4.98171	$3.5	-0.09068281
-5.28274	$3.56	-0.09162407
-4.98171	$3.6	-0.09105501
-5.28274	$3.7	-0.09119339
-5.28274	$3.9	-0.09125235
-4.437642	$30	-0.2564423
-5.28274	$30,000	-0.08061538
-5.28274	$30,000.	-0.08130499
-4.37965	$300	-0.2469899
-4.98171	$300,000	-0.08810496
-4.805619	$31.5	-0.2190469
-5.28274	$31.88,	-0.08261617
-5.28274	$315	-0.09119339
-4.98171	$32	-0.08915661
-5.28274	$325	-0.09119339
-5.28274	$325,000,	-0.06549233
-5.28274	$339	-0.09162407
-5.28274	$339,900	-0.08711257
-5.28274	$340	-0.09169203
-5.28274	$35	-0.09125235
-4.98171	$350	-0.09119111
-5.28274	$353	-0.09125235
-5.28274	$358	-0.09119339
-5.28274	$36.13	-0.09167164
-4.98171	$360	-0.0787687
-5.28274	$366,	-0.09027621
-4.98171	$37	-0.09068281
-5.28274	$370	-0.09119339
-5.28274	$375	-0.09162407
-5.28274	$375,000	-0.08953242
-5.28274	$38,270,	-0.09067147
-5.28274	$382	-0.09119339
-5.28274	$382.5	-0.09166258
-5.28274	$386	-0.09166258
-5.28274	$39	-0.09119339
-5.28274	$39.99=500g	-0.09175998
-5.28274	$390,000.	-0.08130499
-4.241347	$4	-0.3642342
-5.28274	$4,000	-0.08938214
-5.28274	$4.04	-0.09125235
-5.28274	$4.18	-0.09125235
-5.28274	$4.2	-0.09125235
-5.28274	$4.3	-0.09125235
-4.68068	$4.5	-0.1831372
-5.28274	$4.58	-0.09125235
-5.28274	$4.6	-0.09125235
-4.98171	$4.7	-0.3019769
-4.805619	$4.8	-0.2195257
-4.805619	$4.95	-0.2077112
-4.437642	$40	-0.185604
-5.28274	$40,000-a-month	-0.09175998
-5.28274	$40.1	-0.09166258
-4.37965	$400	-0.2608234
-5.28274	$400,000	-0.09161273
-5.28274	$403.45,	-0.09102327
-5.28274	$405,000.	-0.0903262
-5.28274	$41	-0.09119339
-5.28274	$42.01,	-0.09150624
-5.28274	$428	-0.09119339
-4.98171	$43	-0.0896576
-5.28274	$43.01	-0.08810725
-5.28274	$430	-0.09119339
-5.28274	$44.7	-0.09162407
-5.28274	$440	-0.09119339
-5.28274	$445	-0.09169203
-5.28274	$45	-0.07935407
-4.58377	$450	-0.1463658
-5.28274	$453	-0.09119339
-5.28274	$47.8	-0.09162407
-5.28274	$48.53	-0.07935407
-5.28274	$482	-0.09119339
-5.28274	$49.95	-0.07935407
-5.28274	$496	-0.09166258
-5.28274	$499	-0.09119339
-4.58377	$5	-0.07760263
-4.98171	$5,000	-0.09173732
-4.98171	$5.1	-0.3019293
-5.28274	$5.27	-0.09162407
-5.28274	$5.3	-0.09125235
-5.28274	$5.30.	-0.06549233
-5.28274	$5.35	-0.09167164
-5.28274	$5.36.	-0.09156289
-4.68068	$5.4	-0.5617219
-5.28274	$5.44	-0.09162407
-5.28274	$5.7	-0.09167164
-5.28274	$5.8	-0.09167164
-5.28274	$5.85	-0.09125235
-4.168797	$50	-0.09280887
-4.805619	$50,000	-0.08256065
-5.28274	$50,000,	-0.09103915
-5.28274	$50,000.	-0.06549233
-4.203558	$500	-0.3181746
-5.28274	$500''	-0.06549233
-4.68068	$500,000	-0.06821471
-5.28274	$500,000,	-0.06549233
-4.98171	$51	-0.09119111
-5.28274	$525	-0.09166258
-4.98171	$53	-0.09068281
-5.28274	$53.32	-0.07935407
-5.28274	$54	-0.09119339
-5.28274	$54.1	-0.09166258
-5.28274	$540,000	-0.08061538
-5.28274	$55	-0.09125235
-5.28274	$55,000	-0.09175771
-5.28274	$55.39	-0.07935407
-5.28274	$55.65	-0.07935407
-5.28274	$56.2	-0.09162407
-5.28274	$56.4	-0.09125235
-5.28274	$56.46	-0.07935407
-5.28274	$56.72	-0.07935407
-5.28274	$57.16	-0.07935407
-5.28274	$58	-0.09169203
-5.28274	$59.80.	-0.08130499
-4.98171	$599	-0.08711026
-4.437642	$6	-0.1855432
-5.28274	$6,000	-0.09175318
-5.28274	$6,600,	-0.07935407
-5.28274	$6,800	-0.08061538
-5.28274	$6.2	-0.09125235
-5.28274	$6.4	-0.09119339
-5.28274	$6.40	-0.08972816
-5.28274	$6.5	-0.09125235
-5.28274	$6.56	-0.09167164
-5.28274	$6.75	-0.09162407
-4.37965	$60	-0.2244866
-5.28274	$60,	-0.07935407
-4.98171	$60,000	-0.07927248
-4.58377	$600	-0.1527392
-5.28274	$611.4	-0.09119339
-4.98171	$612.5	-0.09112307
-5.28274	$615	-0.09119339
-5.28274	$617	-0.09119339
-5.28274	$618.	-0.09175092
-5.28274	$631	-0.09119339
-5.28274	$639	-0.09166258
-5.28274	$65	-0.09119339
-5.28274	$65,000	-0.08261617
-5.28274	$650	-0.09169203
-5.28274	$650,	-0.09160367
-4.98171	$652	-0.09109358
-5.28274	$658	-0.09166258
-5.28274	$66.66,	-0.08261617
-4.98171	$67	-0.07882937
-5.28274	$670	-0.08810725
-5.28274	$680	-0.09119339
-5.28274	$682	-0.09166258
-5.28274	$69.95	-0.0824172
-5.28274	$690	-0.09119339
-5.28274	$695,	-0.08908144
-4.98171	$7	-0.3015576
-5.28274	$7.26	-0.08711257
-4.98171	$7.4	-0.3015576
-4.98171	$7.5	-0.09105501
-4.805619	$7.6	-0.2194781
-4.98171	$7.7	-0.3015576
-5.28274	$7.75	-0.09169203
-5.28274	$7.8	-0.09167164
-4.98171	$7.9	-0.09068281
-5.28274	$70	-0.07935407
-4.98171	$70,000	-0.06994
-5.28274	$70,000),	-0.08908144
-4.805619	$700	-0.2193284
-5.28274	$701.50	-0.07935407
-5.28274	$71.5	-0.09125235
-5.28274	$71.97	-0.09167164
-5.28274	$72.13	-0.09162407
-4.805619	$75	-0.08648486
-5.28274	$75,995	-0.08711257
-5.28274	$75.	-0.07935407
-4.98171	$750	-0.08183594
-5.28274	$750,000	-0.09175318
-5.28274	$754	-0.09169203
-5.28274	$76	-0.07935407
-5.28274	$76.99=1000g.''	-0.08130499
-5.28274	$760	-0.0824172
-5.28274	$768	-0.09169203
-5.28274	$770	-0.09167164
-5.28274	$779	-0.09119339
-5.28274	$78	-0.09166258
-5.28274	$78,	-0.08810725
-5.28274	$780,000	-0.09165578
-5.28274	$785	-0.09119339
-5.28274	$79.95	-0.07935407
-5.28274	$79.99-a-year	-0.09161727
-4.504589	$8	-0.4561659
-5.28274	$8,000	-0.09175545
-5.28274	$8.4	-0.09125235
-4.58377	$8.5	-0.271676
-4.805619	$8.9	-0.4561473
-4.68068	$80	-0.1785667
-4.805619	$800	-0.07500224
-5.28274	$800,	-0.09172601
-5.28274	$815	-0.09125235
-5.28274	$828	-0.09169203
-5.28274	$83	-0.09167164
-5.28274	$84	-0.09167164
-5.28274	$85	-0.07935407
-4.805619	$850	-0.4560884
-5.28274	$857.9	-0.09166258
-5.28274	$892	-0.09125235
-4.58377	$9	-0.2375543
-5.28274	$9.1	-0.09119339
-5.28274	$9.19	-0.09125235
-5.28274	$9.5	-0.09166258
-5.28274	$9.6	-0.09162407
-5.28274	$9.73	-0.09125235
-5.28274	$9.74	-0.09162407
-5.28274	$9.8	-0.09162407
-5.28274	$9.9	-0.09125235
-4.98171	$9.95	-0.06787981
-5.28274	$9.98,	-0.09097562
-5.28274	$9.99	-0.08061538
-5.28274	$90	-0.09119339
-5.28274	$90,	-0.09016711
-5.28274	$900	-0.09119339
-4.98171	$900,	-0.3000675
-5.28274	$900,000	-0.09175771
-5.28274	$92.96,	-0.09153116
-5.28274	$93	-0.09119339
-5.28274	$943	-0.09166258
-5.28274	$95	-0.09125235
-5.28274	$952	-0.09166258
-5.28274	$96	-0.09119339
-5.28274	$98,000	-0.08261617
-3.142861	&	-0.3879745
-4.37965	''	-0.1804099
-5.28274	'''i	-0.09165578
-5.28274	''1,623.''	-0.08130499
-5.28274	''20	-0.09171242
-5.28274	''24''	-0.08841092
-4.98171	''24,''	-0.08837895
-5.28274	''24:	-0.09175998
-5.28274	''40	-0.0824172
-5.28274	''52	-0.09173506
-4.805619	''60	-0.2201195
-4.052291	''a	-0.1098555
-5.28274	''a.d.i.d.a.s.''	-0.08953242
-5.28274	''about	-0.09170109
-5.28274	''abrasive.''	-0.08130499
-5.28274	''absent	-0.09175318
-5.28274	''adult	-0.09175998
-5.28274	''advanced	-0.0916082
-5.28274	''adverse	-0.09175998
-5.28274	''advertisement''	-0.08908144
-5.28274	''aesthetics	-0.09175998
-5.28274	''after	-0.09174412
-5.28274	''age	-0.09175545
-5.28274	''alien,''	-0.09175998
-4.98171	''all	-0.07899967
-5.28274	''almost	-0.09175998
-5.28274	''am	-0.09103915
-4.68068	''american	-0.333055
-5.28274	''an	-0.09175998
-4.437642	''and	-0.07757223
-5.28274	''annual	-0.09168297
-5.28274	''anthems	-0.08924548
-5.28274	''anti-civil	-0.09170336
-5.28274	''apple	-0.09175771
-5.28274	''aquaman''	-0.09175998
-5.28274	''are	-0.09130677
-5.28274	''areas	-0.07946825
-5.28274	''art	-0.09175318
-4.98171	''as	-0.09138156
-4.68068	''at	-0.1580086
-4.98171	''automotive	-0.0917577
-5.28274	''b.o.b''	-0.08953242
-5.28274	''ball.''	-0.06549233
-5.28274	''bangkok	-0.08841092
-5.28274	''banking	-0.08841092
-5.28274	''basically,	-0.09103915
-5.28274	''battle	-0.07946825
-5.28274	''baywatch,''	-0.08841092
-5.28274	''bear	-0.09175998
-5.28274	''bed	-0.09175998
-4.98171	''being	-0.08605592
-4.805619	''best	-0.08232231
-4.98171	''big	-0.0917577
-5.28274	''billie	-0.09175998
-5.28274	''black	-0.09175998
-5.28274	''blood	-0.09175998
-4.98171	''both	-0.07939833
-5.28274	''brother	-0.09136344
-5.28274	''bubble''	-0.08061538
-5.28274	''buffy	-0.06549233
-5.28274	''bust''	-0.09085989
-4.168797	''but	-0.1158552
-5.28274	''buying	-0.09163313
-5.28274	''buzz''	-0.08927738
-5.28274	''by	-0.09137251
-5.28274	''california	-0.09175998
-5.28274	''campaign	-0.08711257
-5.28274	''camping	-0.09174865
-4.98171	''can	-0.0909756
-5.28274	''can't	-0.09159235
-5.28274	''cars,''	-0.06549233
-5.28274	''catdog''	-0.0824172
-4.98171	''cbs	-0.302038
-5.28274	''certify	-0.06549233
-5.28274	''challenging''	-0.09071234
-5.28274	''cheerfully	-0.09175998
-4.98171	''chess	-0.2987161
-5.28274	''chicken	-0.09175998
-5.28274	''chief	-0.09166258
-5.28274	''clean	-0.09175998
-5.28274	''clear	-0.09175771
-5.28274	''clearly	-0.09159235
-5.28274	''closer,''	-0.09014893
-5.28274	''closing	-0.09175998
-5.28274	''coley's	-0.09175998
-5.28274	''commoditization''	-0.09165352
-5.28274	''computer''	-0.08927738
-5.28274	''confessions	-0.07946825
-5.28274	''confusion	-0.08061538
-4.98171	''conspiracy	-0.2897735
-5.28274	''constantine,''	-0.06549233
-5.28274	''constantly''	-0.09175998
-5.28274	''contest	-0.09175998
-5.28274	''continues	-0.08061538
-5.28274	''convenience	-0.0824172
-5.28274	''conventional	-0.09175771
-5.28274	''corporate	-0.09175998
-5.28274	''corporate-owned	-0.09175092
-5.28274	''cracking	-0.06549233
-5.28274	''crossfire''	-0.09073504
-5.28274	''crossfire,''	-0.06549233
-5.28274	''currencies	-0.09020348
-5.28274	''dad,	-0.09130677
-4.98171	''david	-0.09174185
-4.98171	''deeply	-0.0917577
-4.68068	''desperate	-0.1842984
-5.28274	''despite	-0.09166937
-5.28274	''detention''	-0.08953242
-5.28274	''deteriorating	-0.09168524
-5.28274	''determined	-0.08617295
-5.28274	''devastated''	-0.0824172
-4.98171	''did	-0.301612
-5.28274	''died	-0.07935407
-5.28274	''dillard's	-0.08841092
-5.28274	''diminishing	-0.09175998
-5.28274	''ding''	-0.09168977
-4.805619	''dirty	-0.2201195
-5.28274	''disgusting''	-0.09073504
-5.28274	''dismal	-0.09164672
-5.28274	''dissociative	-0.09175998
-5.28274	''distort''	-0.09071234
-5.28274	''distract	-0.06549233
-4.98171	''do	-0.08998975
-4.98171	''don't	-0.09143597
-4.98171	''dr.	-0.0917577
-5.28274	''drivers	-0.08810725
-5.28274	''dump,''	-0.08261617
-5.28274	''e-jets,''	-0.08061538
-5.28274	''each	-0.07946825
-5.28274	''egregiously	-0.09173506
-5.28274	''employee	-0.09175998
-5.28274	''enough	-0.07946825
-5.28274	''enough!''	-0.08130499
-5.28274	''entourage''	-0.08841092
-4.98171	''entourage,''	-0.09056246
-5.28274	''entrepreneurial	-0.09175998
-5.28274	''environmentally	-0.09175998
-5.28274	''er''	-0.0824172
-5.28274	''erasable	-0.09175998
-5.28274	''erdemir	-0.08841092
-5.28274	''err	-0.08810725
-5.28274	''erupting	-0.08261617
-5.28274	''escapologists''	-0.08711257
-5.28274	''eternal	-0.09175998
-5.28274	''evening	-0.09175545
-5.28274	''ever.	-0.0824172
-5.28274	''everyone	-0.09174186
-5.28274	''everything	-0.09165125
-5.28274	''exciting''	-0.09051477
-5.28274	''experience	-0.06549233
-5.28274	''experiences''	-0.07946825
-5.28274	''explore	-0.09173959
-5.28274	''expose	-0.09175998
-5.28274	''extra''	-0.06549233
-5.28274	''face	-0.06549233
-5.28274	''fahrenheit	-0.09175998
-5.28274	''fair,	-0.09175998
-5.28274	''famous	-0.09175998
-5.28274	''feels	-0.09109813
-5.28274	''financial	-0.09175998
-5.28274	''fingerball''	-0.09175092
-4.805619	''for	-0.06548511
-5.28274	''forrest	-0.09175998
-4.98171	''frankly,	-0.09155608
-5.28274	''fraud''	-0.08261617
-5.28274	''freakonomics.''	-0.08130499
-5.28274	''fresh	-0.09175998
-5.28274	''fully	-0.09174639
-5.28274	''g.m.	-0.09175998
-5.28274	''garbage	-0.09175998
-5.28274	''garbologist''	-0.08061538
-5.28274	''gate''	-0.09175998
-4.98171	''get	-0.09152436
-5.28274	''ghost	-0.09175998
-5.28274	''going	-0.09175998
-5.28274	''gold	-0.09175998
-4.98171	''golden	-0.09175543
-5.28274	''goldilocks	-0.09175998
-5.28274	''gone	-0.09175771
-4.805619	''good	-0.2200697
-5.28274	''google's	-0.09174412
-5.28274	''googled,''	-0.09175998
-5.28274	''googles''	-0.0824172
-5.28274	''googling.''	-0.08130499
-5.28274	''got	-0.09125915
-5.28274	''gotcha!''	-0.09027621
-5.28274	''gran	-0.09175998
-4.98171	''great	-0.0917577
-5.28274	''greater	-0.09175092
-5.28274	''guilty.''	-0.08130499
-5.28274	''hactivists,''	-0.09041709
-4.805619	''hard	-0.2201195
-5.28274	''hardware	-0.09175998
-4.98171	''harvey	-0.0917577
-4.98171	''has	-0.090183
-4.805619	''he	-0.2176118
-4.98171	''he's	-0.07726087
-5.28274	''hell	-0.09175998
-5.28274	''hello.	-0.09143145
-5.28274	''help	-0.08841092
-5.28274	''here	-0.08892188
-5.28274	''hi,plz	-0.09173959
-5.28274	''hideous	-0.09175998
-5.28274	''high	-0.09172601
-5.28274	''hips	-0.09165578
-5.28274	''holes	-0.08810725
-4.805619	''how	-0.05189905
-5.28274	''huff.''	-0.09142464
-5.28274	''hulk''	-0.08908144
-5.28274	''humane	-0.09172601
-5.28274	''hypothetical	-0.09175998
-3.550346	''i	-0.2251937
-5.28274	''i'll	-0.09155609
-4.805619	''i'm	-0.09111627
-4.58377	''i've	-0.08946182
-5.28274	''idol''	-0.09175318
-4.805619	''if	-0.09134077
-5.28274	''ill-conceived.''	-0.08130499
-5.28274	''ill-received.''	-0.08130499
-5.28274	''imagine''	-0.08953242
-5.28274	''imbalances''	-0.0824172
-5.28274	''imperative	-0.08617295
-5.28274	''imus	-0.08261617
-4.504589	''in	-0.1102893
-5.28274	''inappropriate''	-0.0824172
-5.28274	''incredibly,''	-0.08972816
-5.28274	''industrial	-0.09168297
-5.28274	''inflation	-0.09175998
-5.28274	''intense	-0.09156289
-5.28274	''interested	-0.08261617
-5.28274	''internet''	-0.0824172
-5.28274	''intimate	-0.09175998
-4.98171	''ipod	-0.09175543
-4.68068	''is	-0.06112017
-5.28274	''isn't	-0.09175998
-3.921012	''it	-0.4292742
-5.28274	''it''	-0.09175545
-3.940317	''it's	-0.1631182
-5.28274	''j.f.k.,''	-0.08927738
-5.28274	''jesus	-0.09175998
-5.28274	''johnny	-0.09175545
-4.58377	''just	-0.09043297
-5.28274	''kaesong	-0.08992609
-5.28274	''katrina	-0.09175998
-5.28274	''keystone	-0.09175998
-5.28274	''kiev''	-0.08130499
-5.28274	''ladies'	-0.09175998
-5.28274	''lapse	-0.08261617
-5.28274	''lara	-0.09175998
-5.28274	''lasco.a,''	-0.09175998
-4.98171	''last	-0.09136117
-5.28274	''law	-0.0824172
-5.28274	''lazy	-0.09175998
-5.28274	''leak''	-0.09071234
-5.28274	''let's	-0.09155609
-5.28274	''liar's	-0.09175998
-5.28274	''lightly	-0.09175545
-5.28274	''like	-0.07935407
-5.28274	''like''	-0.0824172
-5.28274	''long	-0.09156289
-5.28274	''looking	-0.09162407
-5.28274	''loose	-0.09175998
-4.98171	''lord	-0.2897735
-4.98171	''lost''	-0.2927224
-5.28274	''lost.''	-0.09027621
-5.28274	''love	-0.09173054
-5.28274	''lovespring	-0.09175998
-4.98171	''made	-0.2929214
-5.28274	''management	-0.08953242
-5.28274	''mark	-0.08061538
-5.28274	''mary,	-0.09174412
-5.28274	''mastering	-0.06549233
-5.28274	''may	-0.09041709
-5.28274	''medical	-0.09170562
-5.28274	''meditation	-0.09175998
-5.28274	''meeting	-0.09170336
-5.28274	''microsoft	-0.09175771
-5.28274	''mileage-run-induced	-0.09175771
-5.28274	''miracle	-0.08810725
-5.28274	''mississippi	-0.09175998
-5.28274	''mmmbop,''	-0.08992609
-5.28274	''mobbed	-0.09175771
-5.28274	''modern	-0.09175998
-5.28274	''modigliani'';	-0.0824172
-5.28274	''money,	-0.09166258
-5.28274	''monsoon	-0.09175771
-5.28274	''monty	-0.09175998
-4.805619	''more	-0.09085081
-4.98171	''mr.	-0.08241487
-5.28274	''msm''	-0.09174639
-5.28274	''murder	-0.08261617
-5.28274	''music	-0.08711257
-4.37965	''my	-0.2519034
-5.28274	''national	-0.09175998
-5.28274	''nbc	-0.09175771
-5.28274	''necessary	-0.08711257
-5.28274	''negligible''	-0.09165125
-5.28274	''net	-0.09175998
-5.28274	''net-net,	-0.08892188
-5.28274	''network	-0.08711257
-5.28274	''neutralize''	-0.06549233
-5.28274	''new	-0.09175771
-5.28274	''newsweek	-0.08810725
-5.28274	''next-generation	-0.09175318
-4.805619	''no	-0.09071007
-5.28274	''no!	-0.09175998
-5.28274	''no,	-0.09175998
-5.28274	''no.	-0.09173054
-5.28274	''norma	-0.09175998
-4.68068	''not	-0.1796509
-4.98171	''nothing	-0.09087122
-4.98171	''now	-0.3019179
-5.28274	''o.k.''	-0.09175545
-5.28274	''obscene''	-0.09172827
-5.28274	''off	-0.07935407
-4.98171	''official	-0.09172373
-4.98171	''oh,	-0.09059879
-5.28274	''old	-0.09175771
-4.98171	''on	-0.06525405
-5.28274	''on''	-0.0916943
-4.68068	''one	-0.1717897
-5.28274	''online	-0.09174639
-5.28274	''open	-0.09173733
-5.28274	''organic''	-0.08841092
-4.98171	''other	-0.0917577
-5.28274	''other''	-0.09174639
-4.805619	''our	-0.09171695
-5.28274	''outplacement	-0.09175998
-5.28274	''overconfidence	-0.09175998
-5.28274	''overwhelming	-0.09175998
-5.28274	''ownership	-0.09175998
-5.28274	''parallel	-0.09175771
-5.28274	''pedigree''	-0.09170562
-4.805619	''people	-0.217942
-5.28274	''people''	-0.09142238
-5.28274	''perfect	-0.09175318
-5.28274	''performed	-0.09175998
-5.28274	''personal	-0.09175998
-5.28274	''phishing''	-0.09159688
-5.28274	''photo''	-0.09174865
-5.28274	''pied	-0.09175998
-5.28274	''places	-0.08261617
-5.28274	''pledge	-0.09175998
-5.28274	''point	-0.07946825
-5.28274	''polish,	-0.09175998
-5.28274	''political	-0.09175998
-5.28274	''prequel,''	-0.09150624
-5.28274	''princess	-0.09175998
-5.28274	''priority	-0.09175998
-5.28274	''private	-0.0916739
-5.28274	''probably	-0.09151983
-5.28274	''promote	-0.0824172
-5.28274	''punto	-0.09173959
-5.28274	''put	-0.06549233
-5.28274	''quite	-0.09168297
-4.58377	''r''	-0.3880121
-5.28274	''ragtime,''	-0.09155609
-5.28274	''re4	-0.09175771
-4.98171	''reasonable	-0.08241487
-5.28274	''reasonably	-0.09155383
-5.28274	''reduces	-0.06549233
-5.28274	''reinventing	-0.09175998
-5.28274	''relief	-0.09175998
-5.28274	''renee,	-0.09173506
-5.28274	''ring''	-0.09175998
-5.28274	''safety	-0.0824172
-5.28274	''sahara''	-0.09175092
-5.28274	''sales	-0.09085989
-5.28274	''satisfaction''	-0.08953242
-5.28274	''saturday	-0.0916807
-5.28274	''school	-0.09175998
-5.28274	''screaming	-0.09016711
-5.28274	''scrushy	-0.09172148
-5.28274	''security	-0.09175998
-5.28274	''sense	-0.0824172
-5.28274	''serious	-0.09163086
-5.28274	''seriously	-0.09175998
-5.28274	''sesame	-0.09175998
-5.28274	''severely	-0.09175998
-5.28274	''sex	-0.0824172
-5.28274	''she	-0.08927738
-5.28274	''short	-0.09175998
-5.28274	''should	-0.09171695
-5.28274	''sideways,''	-0.08841092
-5.28274	''six-figure	-0.09175998
-5.28274	''slurper''	-0.09175318
-5.28274	''small	-0.09175998
-5.28274	''snowbird	-0.09175998
-4.58377	''so	-0.09022164
-5.28274	''so,	-0.09020348
-5.28274	''social	-0.09162633
-5.28274	''solidarity	-0.08711257
-4.98171	''some	-0.09131809
-5.28274	''sometimes,	-0.09170336
-5.28274	''sordid	-0.09175545
-5.28274	''spider-man,''	-0.09175998
-5.28274	''spirit-lowering	-0.09175998
-4.98171	''star	-0.0917577
-5.28274	''start	-0.09163086
-5.28274	''state	-0.07946825
-5.28274	''stifle''	-0.09151077
-5.28274	''sublime	-0.09175998
-4.98171	''substantial	-0.09156061
-5.28274	''sudden	-0.09174865
-5.28274	''superior,''	-0.0916875
-4.98171	''sweet	-0.0917192
-5.28274	''sweetheart,''	-0.09126822
-5.28274	''sy-fon''),	-0.09044208
-5.28274	''symbos--vlasco.a''	-0.09071234
-5.28274	''takes	-0.09168524
-5.28274	''targeting''	-0.09118432
-4.68068	''tell	-0.06384585
-4.805619	''that	-0.06115662
-5.28274	''that's	-0.09170109
-3.338257	''the	-0.1436706
-5.28274	''then	-0.0916807
-4.37965	''there	-0.2307278
-5.28274	''there's	-0.0916875
-4.98171	''these	-0.3005087
-4.168797	''they	-0.1395334
-4.805619	''they're	-0.09010801
-5.28274	''think	-0.09168524
-4.07862	''this	-0.4295166
-5.28274	''thumper,''	-0.0824172
-5.28274	''thumper.''	-0.09016711
-5.28274	''timing	-0.0824172
-4.68068	''to	-0.09131358
-4.98171	''today''	-0.09159006
-4.68068	''today,''	-0.074649
-4.98171	''total	-0.09165803
-5.28274	''tough	-0.09175998
-5.28274	''treasure''	-0.09038983
-5.28274	''treated	-0.06549233
-5.28274	''trial	-0.08953242
-5.28274	''triple	-0.09175998
-5.28274	''truly	-0.08841092
-5.28274	''trumpnation:	-0.06549233
-5.28274	''trust	-0.09175771
-5.28274	''turn	-0.08810725
-4.805619	''two	-0.2195892
-5.28274	''unacceptable	-0.09175998
-5.28274	''unacceptable''	-0.09146091
-5.28274	''uncertain	-0.09172148
-5.28274	''underworld:	-0.09175998
-5.28274	''united	-0.09175998
-5.28274	''unlawful	-0.09175771
-5.28274	''until	-0.09169203
-5.28274	''upfront''	-0.09175771
-5.28274	''value	-0.09175998
-5.28274	''valued	-0.09175998
-5.28274	''vanity	-0.09175998
-5.28274	''very	-0.09175998
-5.28274	''view	-0.09143145
-5.28274	''viewpoint,''	-0.07935407
-5.28274	''viral,''	-0.09175771
-5.28274	''virtual	-0.09167617
-5.28274	''virtually	-0.09175998
-5.28274	''vultures	-0.09174186
-5.28274	''wall	-0.09159914
-4.98171	''want	-0.09168749
-5.28274	''wanted	-0.08061538
-5.28274	''was	-0.07935407
-5.28274	''water	-0.09175998
-3.851376	''we	-0.1558918
-5.28274	''we'll	-0.0916286
-4.58377	''we're	-0.08117038
-4.805619	''we've	-0.09145185
-5.28274	''weak''	-0.09085308
-4.98171	''welcome	-0.08061304
-5.28274	''well,	-0.09123647
-5.28274	''went	-0.09175998
-5.28274	''were	-0.09044663
-5.28274	''what	-0.09020348
-5.28274	''what'd	-0.09130677
-4.98171	''what's	-0.09170561
-4.504589	''when	-0.3171428
-5.28274	''while	-0.06549233
-5.28274	''who's	-0.09160367
-5.28274	''whole	-0.09175998
-5.28274	''why	-0.09170562
-5.28274	''wild	-0.09175998
-5.28274	''will	-0.0901762
-5.28274	''williams	-0.08992609
-5.28274	''witch	-0.09175998
-4.98171	''with	-0.09161045
-5.28274	''within	-0.07935407
-5.28274	''without	-0.07935407
-5.28274	''world	-0.09160594
-5.28274	''worldcom	-0.09173054
-5.28274	''worldwide	-0.09175998
-5.28274	''would	-0.08892188
-5.28274	''x-factor.''	-0.08130499
-5.28274	''x-men''	-0.0824172
-5.28274	''yeah,	-0.09171468
-5.28274	''yes!	-0.09175998
-5.28274	''yes,	-0.09175998
-4.07862	''you	-0.1326724
-4.68068	''you're	-0.09158329
-5.28274	''z''	-0.09173733
-5.28274	''¡ay,	-0.09175998
-5.28274	'ali	-0.09175998
-5.28274	'arrested	-0.09175998
-5.28274	'but	-0.06549233
-5.28274	'dukes	-0.07946825
-5.28274	'em	-0.09067147
-5.28274	'family	-0.09175998
-5.28274	'g.m.	-0.08841092
-4.805619	'how	-0.08013409
-5.28274	'i	-0.09174412
-5.28274	'i'm	-0.09173506
-5.28274	'if	-0.09173959
-5.28274	'it's	-0.09154476
-5.28274	'n'	-0.09175998
-5.28274	'pow!'	-0.09174412
-5.28274	'scrubs,'	-0.09175771
-5.28274	'silverman	-0.09175998
-5.28274	'so	-0.09175998
-5.28274	'soul'	-0.09161501
-5.28274	'south	-0.09175998
-5.28274	'thanks,	-0.09175545
-4.98171	'the	-0.0917577
-5.28274	'well,	-0.09129316
-5.28274	'why	-0.09051477
-5.28274	'you	-0.09171468
-5.28274	($1,000	-0.07935407
-5.28274	($1.02	-0.09171468
-4.98171	($1.07	-0.09170334
-5.28274	($1.5	-0.09174639
-5.28274	($1.65	-0.09171468
-5.28274	($1.7	-0.09171468
-4.98171	($1.88	-0.3020199
-5.28274	($1.98	-0.09171468
-5.28274	($118)	-0.09085989
-5.28274	($136	-0.09174412
-5.28274	($139	-0.09174412
-5.28274	($144.5	-0.09174412
-5.28274	($150)	-0.09038983
-5.28274	($16.5	-0.09171468
-5.28274	($16.7	-0.09171468
-5.28274	($171	-0.09174412
-5.28274	($199	-0.09077817
-5.28274	($2.15	-0.09171468
-5.28274	($2.17	-0.09171468
-5.28274	($2.4	-0.09174412
-5.28274	($2.47	-0.09174412
-5.28274	($2.7	-0.09175092
-5.28274	($2.75	-0.09171468
-5.28274	($209,000)	-0.08061538
-5.28274	($21.79)	-0.08061538
-5.28274	($215	-0.09171468
-5.28274	($22	-0.09174639
-5.28274	($23	-0.09175092
-5.28274	($24.49)	-0.09175318
-5.28274	($25.80)	-0.09175771
-5.28274	($250).	-0.08130499
-5.28274	($27.3	-0.09171468
-5.28274	($3.5	-0.09175092
-5.28274	($30	-0.08938214
-5.28274	($32.8	-0.09174639
-5.28274	($32.9	-0.09174639
-4.98171	($33	-0.3020199
-5.28274	($342	-0.09175318
-5.28274	($4.5	-0.09171468
-5.28274	($4.78	-0.09175092
-5.28274	($405	-0.09175318
-5.28274	($429	-0.09174412
-5.28274	($443	-0.09175545
-5.28274	($46.2	-0.09174639
-5.28274	($486	-0.09175318
-5.28274	($5.1	-0.09174639
-5.28274	($5.2	-0.09171468
-5.28274	($58.8	-0.09175545
-5.28274	($59	-0.09171468
-5.28274	($6.7	-0.09171468
-5.28274	($6.73	-0.09171468
-4.98171	($6.8	-0.09174411
-5.28274	($660	-0.09175545
-5.28274	($68)	-0.0824172
-5.28274	($69.6	-0.09125235
-5.28274	($809	-0.09175318
-5.28274	($861.3	-0.09174412
-5.28274	($99	-0.09077817
-5.28274	(''for	-0.09174865
-5.28274	(23.4	-0.09175771
-4.98171	(24	-0.3019089
-5.28274	(27.6	-0.09160367
-5.28274	(30.7	-0.09175545
-5.28274	(32	-0.09175998
-5.28274	(32.7	-0.09160367
-5.28274	(34	-0.09119112
-5.28274	(39	-0.09175545
-5.28274	(72	-0.09175771
-5.28274	(73.5	-0.09175545
-5.28274	(75,000)	-0.08711257
-5.28274	(88	-0.09175545
-5.28274	(91	-0.09175545
-5.28274	(92.3	-0.09175998
-4.98171	(a	-0.09166709
-5.28274	(about	-0.09137025
-5.28274	(according	-0.08061538
-5.28274	(after	-0.09172827
-5.28274	(all	-0.09175092
-5.28274	(although	-0.09142238
-4.805619	(and	-0.09142692
-5.28274	(anyone	-0.09175998
-5.28274	(ap)	-0.08130499
-5.28274	(barry	-0.09175998
-5.28274	(bloomberg	-0.09175998
-5.28274	(cars),	-0.0824172
-5.28274	(chris	-0.09175998
-5.28274	(cited	-0.08953242
-5.28274	(dell	-0.09175545
-5.28274	(false,	-0.08892188
-5.28274	(formerly	-0.09175318
-5.28274	(get	-0.09173506
-5.28274	(grainpower.org)	-0.08841092
-5.28274	(india),	-0.06549233
-5.28274	(international	-0.09172601
-5.28274	(jan.	-0.09175998
-5.28274	(john	-0.09175998
-5.28274	(just	-0.08908144
-4.805619	(like	-0.06490967
-5.28274	(lycos.com/katrina),	-0.09146544
-4.98171	(mr.	-0.09175543
-4.98171	(nearly	-0.0917577
-5.28274	(newnetworks.com).	-0.06549233
-5.28274	(news.yahoo.com/katrinahelp).	-0.08130499
-4.805619	(now	-0.07934941
-5.28274	(on	-0.06549233
-5.28274	(one	-0.09175998
-4.805619	(or	-0.08932748
-5.28274	(otherwise	-0.09159235
-5.28274	(phillip	-0.09175998
-4.98171	(pronounced	-0.0917577
-5.28274	(publicaffairs,	-0.09175998
-5.28274	(thanks	-0.08061538
-5.28274	(that	-0.09170336
-4.437642	(the	-0.09117978
-4.98171	(though	-0.07930744
-5.28274	(to	-0.09175771
-4.98171	(which	-0.09164217
-5.28274	(who,	-0.09077817
-4.98171	(with	-0.09173732
-5.28274	(www.neopets.com),	-0.09056474
-5.28274	(www.radarmagazine.com)	-0.09044208
-5.28274	(www.radioopensource.org)	-0.08061538
-5.28274	(www.theonion.com/content/node/40121),	-0.09146318
-5.28274	)	-0.08976229
-4.68068	+	-0.1841987
-2.500984	--	-0.2226375
-5.28274	--probably	-0.06549233
-5.28274	0,	-0.08924548
-5.28274	0.2	-0.0916739
-4.805619	0.3	-0.2193964
-5.28274	0.4	-0.09119112
-4.68068	0.5	-0.3323342
-5.28274	0.54	-0.0916739
-4.805619	0.6	-0.4560861
-4.98171	0.8	-0.09103233
-3.960521	1	-0.1894558
-4.58377	1,	-0.1263508
-5.28274	1,''	-0.09014893
-4.28274	1,000	-0.1230725
-4.98171	1,100	-0.08061304
-5.28274	1,125	-0.09175771
-5.28274	1,164,600,000,000	-0.0916739
-5.28274	1,250	-0.09132717
-5.28274	1,260	-0.09171015
-5.28274	1,300	-0.09140652
-5.28274	1,366	-0.09170789
-5.28274	1,400	-0.09171015
-5.28274	1,400-mile-range	-0.09175545
-4.805619	1,500	-0.09165805
-5.28274	1,500-square-foot	-0.09165578
-5.28274	1,600	-0.09168297
-5.28274	1,700,	-0.07946825
-5.28274	1,759,	-0.08976229
-5.28274	1,800-square-foot	-0.09166711
-4.805619	1.	-0.05280921
-5.28274	1.02	-0.09125235
-5.28274	1.1	-0.09175545
-5.28274	1.2-pound	-0.09175092
-4.98171	1.3	-0.09068281
-5.28274	1.3-megapixel	-0.09175998
-4.98171	1.4	-0.09103233
-5.28274	1.48	-0.09125235
-4.98171	1.5	-0.0910346
-5.28274	1.6	-0.09173733
-5.28274	1.62	-0.09125235
-5.28274	1.7	-0.09160367
-4.805619	1.8	-0.09046253
-4.805619	1.9	-0.09094385
-5.28274	1.93	-0.09169203
-5.28274	1.95	-0.09173506
-5.28274	1/2	-0.0916739
-5.28274	1/8-inch	-0.09175545
-3.450231	10	-0.3626939
-4.98171	10,	-0.09020119
-4.58377	10,000	-0.08026432
-5.28274	10-car	-0.09175998
-5.28274	10-k	-0.09162407
-5.28274	10-minute	-0.09174639
-5.28274	10-page	-0.09171015
-5.28274	10-second	-0.09175092
-5.28274	10-week	-0.09175092
-4.58377	10-year	-0.1640242
-4.98171	10-year-old	-0.09163764
-4.805619	10.	-0.4462
-4.98171	10.2	-0.09140196
-5.28274	10.5	-0.09119339
-5.28274	10.6-inch	-0.09174639
-3.921012	100	-0.1143609
-4.805619	100,000	-0.09129089
-5.28274	100-foot	-0.09175998
-5.28274	100.	-0.06549233
-5.28274	100.25	-0.09119112
-5.28274	100th	-0.09175545
-4.98171	101	-0.09120245
-5.28274	103	-0.09173959
-5.28274	108	-0.09172827
-5.28274	109	-0.09173506
-5.28274	1099	-0.09175318
-5.28274	10th-most-popular	-0.09167617
-4.106648	11	-0.07884814
-4.98171	11,	-0.09097788
-5.28274	11,000	-0.09173054
-5.28274	11,700	-0.09163539
-5.28274	11-inches	-0.09175998
-5.28274	11-week	-0.09131584
-4.98171	11.	-0.07983388
-5.28274	11.3	-0.09119112
-5.28274	11.9	-0.0916739
-5.28274	110	-0.09125235
-5.28274	110,000	-0.09175092
-4.98171	111	-0.0909688
-4.98171	113	-0.0907146
-5.28274	114,254-square-foot	-0.09175771
-5.28274	114-year-old	-0.09167843
-5.28274	119	-0.09116164
-4.98171	11th	-0.0917192
-3.867767	12	-0.2206118
-4.98171	12,	-0.08554847
-5.28274	12,000	-0.08711257
-5.28274	12-	-0.08061538
-5.28274	12-inch	-0.09175545
-5.28274	12-part	-0.09166937
-5.28274	12-year	-0.09175318
-5.28274	12-year-old	-0.09175545
-5.28274	12-year-olds	-0.09171468
-4.98171	12.	-0.07967089
-5.28274	12.1-inch	-0.09175771
-5.28274	12.4	-0.0916739
-5.28274	12.5	-0.09171921
-5.28274	12.7	-0.09119112
-4.98171	12.8	-0.09103233
-5.28274	12.9	-0.09119339
-4.68068	120	-0.08972817
-5.28274	120,000	-0.09172148
-4.98171	125	-0.09119111
-5.28274	125-channel	-0.09170562
-5.28274	129	-0.09173959
-4.106648	13	-0.1532272
-4.98171	13,000	-0.09129088
-5.28274	13-passenger	-0.09171468
-5.28274	13-year	-0.09166258
-4.98171	13.	-0.09010117
-5.28274	13.0	-0.0916739
-5.28274	13.2	-0.09119112
-5.28274	13.8-acre	-0.09175771
-4.58377	130	-0.1635437
-5.28274	132	-0.09175998
-5.28274	132-mile	-0.09174186
-3.940317	14	-0.2323272
-5.28274	14,	-0.09142464
-5.28274	14,000	-0.09168297
-5.28274	14,159,265	-0.09119339
-5.28274	14,500	-0.09173054
-5.28274	14-hour	-0.09175998
-5.28274	14-passenger	-0.09175545
-5.28274	14-year	-0.09174865
-5.28274	14.	-0.08130499
-5.28274	14.2	-0.09160367
-5.28274	14.6	-0.09125235
-4.98171	14.67	-0.09106409
-5.28274	14.7	-0.09160367
-5.28274	140	-0.09172148
-5.28274	142	-0.09119112
-5.28274	1440.	-0.09129089
-3.851376	15	-0.2883493
-4.805619	15,	-0.09068964
-5.28274	15,000	-0.0916943
-4.98171	15-minute	-0.09150622
-5.28274	15-year	-0.09175771
-5.28274	15-year-old	-0.09175998
-5.28274	15.	-0.08130499
-5.28274	15.1	-0.0916739
-5.28274	15.4-inch	-0.09175092
-4.805619	150	-0.09112535
-5.28274	156.	-0.06549233
-5.28274	1580	-0.08810725
-5.28274	15th	-0.09175092
-5.28274	15th-century	-0.09175998
-4.203558	16	-0.08487017
-4.805619	16,	-0.06188023
-5.28274	16-unit	-0.09175545
-4.98171	16-year-old	-0.08260921
-5.28274	16.	-0.08130499
-5.28274	16.1	-0.09125235
-5.28274	16.8	-0.09119112
-5.28274	16.9	-0.09125235
-5.28274	160	-0.09125235
-5.28274	160,000	-0.09172374
-5.28274	16th	-0.09171468
-5.28274	16th.	-0.08130499
-4.203558	17	-0.1468873
-5.28274	17-year-old	-0.09166711
-4.98171	17.	-0.2916102
-5.28274	17.26	-0.09119339
-5.28274	17.3	-0.0916739
-5.28274	17.4	-0.09119112
-5.28274	17.5	-0.0916739
-4.98171	17.6	-0.09109131
-5.28274	1712,	-0.06549233
-5.28274	1720,	-0.09129316
-5.28274	17th	-0.09173733
-4.07862	18	-0.3235864
-4.98171	18,	-0.08239635
-5.28274	18-to-34-year-old	-0.09175545
-5.28274	18.	-0.08130499
-5.28274	18.5	-0.09119112
-4.98171	18.6	-0.0906215
-4.98171	180	-0.0915878
-4.98171	180,000	-0.09174864
-5.28274	1800's	-0.07935407
-5.28274	1836	-0.09172827
-5.28274	1839,	-0.0824172
-5.28274	184	-0.09175998
-5.28274	1840,	-0.09167617
-5.28274	1861,	-0.09071234
-5.28274	1897,	-0.09173959
-5.28274	18th	-0.09175318
-4.504589	19	-0.1384143
-5.28274	19,000	-0.07946825
-5.28274	19-year	-0.09172148
-5.28274	19-year-old	-0.09174412
-5.28274	19.4	-0.09119112
-4.98171	19.8	-0.3014963
-5.28274	190	-0.09175092
-4.98171	190's	-0.08102416
-5.28274	1908.	-0.08130499
-5.28274	1914.	-0.09156289
-5.28274	1919	-0.08261617
-5.28274	1920's,	-0.09169883
-5.28274	1920's-vintage	-0.09165352
-5.28274	1920's.	-0.08130499
-5.28274	1925.	-0.08130499
-5.28274	1929	-0.0824172
-5.28274	1929,	-0.09016711
-5.28274	1930's	-0.08061538
-5.28274	1930s	-0.09175092
-5.28274	1932	-0.08810725
-5.28274	1935	-0.08924548
-5.28274	1935,	-0.09097562
-5.28274	1936	-0.08061538
-5.28274	1940.	-0.06549233
-5.28274	1944	-0.09038983
-5.28274	1944,	-0.09175545
-5.28274	1945	-0.08261617
-5.28274	1946	-0.08061538
-5.28274	1947	-0.08810725
-5.28274	1949,	-0.08924548
-5.28274	1953.	-0.09109813
-5.28274	1955,	-0.08841092
-5.28274	1957	-0.0916082
-5.28274	1960	-0.09175318
-4.68068	1960's	-0.3180074
-4.98171	1960's,	-0.09096426
-5.28274	1960,	-0.09085308
-5.28274	1961	-0.09175998
-5.28274	1963,	-0.06549233
-5.28274	1964.	-0.08130499
-5.28274	1965,	-0.06549233
-5.28274	1966	-0.08711257
-5.28274	1966,	-0.09085308
-5.28274	1966-2005,''	-0.09175771
-5.28274	1967	-0.0916943
-4.98171	1968	-0.07102465
-5.28274	1969	-0.09168297
-5.28274	1969,	-0.09023985
-5.28274	1970's	-0.08711257
-4.805619	1970's,	-0.07792778
-5.28274	1970's.	-0.09170562
-5.28274	1970,	-0.08908144
-5.28274	1970s,	-0.09174865
-5.28274	1971	-0.09175771
-5.28274	1972	-0.0916875
-5.28274	1973,	-0.09098697
-5.28274	1973.	-0.06549233
-5.28274	1974.	-0.08130499
-5.28274	1975.	-0.08130499
-4.805619	1977,	-0.08614083
-5.28274	1977.	-0.08810725
-5.28274	1978	-0.09175771
-5.28274	1979	-0.09175998
-5.28274	1979,	-0.09016711
-5.28274	1979.	-0.08130499
-5.28274	1980	-0.09038983
-4.98171	1980's	-0.09061923
-4.504589	1980's,	-0.07621049
-4.68068	1980's.	-0.04100901
-4.98171	1980,	-0.0914065
-5.28274	1980.	-0.09060335
-5.28274	1981	-0.08810725
-5.28274	1981,	-0.09173054
-5.28274	1982	-0.08908144
-5.28274	1982,	-0.09027621
-4.98171	1983	-0.09086441
-5.28274	1983,	-0.06549233
-5.28274	1984,	-0.09168297
-5.28274	1985	-0.09038983
-4.98171	1986	-0.08233155
-4.98171	1986,	-0.09051476
-4.98171	1987,	-0.09039208
-5.28274	1987.	-0.09172827
-4.98171	1988	-0.08916345
-4.98171	1988.	-0.05437457
-5.28274	1989	-0.08711257
-5.28274	1989,	-0.09175998
-5.28274	1989.	-0.08130499
-4.68068	1990	-0.3218754
-4.328497	1990's	-0.1601373
-4.328497	1990's,	-0.1239307
-4.504589	1990's.	-0.3926967
-4.98171	1990,	-0.09081902
-5.28274	1990-2005,''	-0.09150171
-4.98171	1990.	-0.06858993
-5.28274	1990s	-0.09151757
-5.28274	1990s.	-0.09118432
-4.98171	1991	-0.07998516
-5.28274	1991,	-0.09174865
-5.28274	1991.	-0.09174865
-5.28274	1991?	-0.08130499
-4.98171	1992	-0.08032479
-5.28274	1992.	-0.08130499
-5.28274	1993	-0.09173506
-4.98171	1993,	-0.09026938
-5.28274	1994	-0.0917328
-5.28274	1994,	-0.09085308
-5.28274	1994.	-0.08130499
-4.68068	1995	-0.1609296
-4.98171	1995,	-0.06543457
-5.28274	1995.	-0.09175318
-4.805619	1996	-0.208926
-4.98171	1996,	-0.08228757
-4.68068	1997	-0.3218452
-4.68068	1997,	-0.06417421
-5.28274	1997-2001.	-0.08130499
-4.58377	1997.	-0.07940765
-4.805619	1998	-0.09024439
-4.805619	1998,	-0.0795428
-4.68068	1998.	-0.3098918
-4.37965	1999	-0.09999973
-4.37965	1999,	-0.04445987
-5.28274	1999,''	-0.09014893
-4.58377	1999.	-0.1518687
-4.003986	2	-0.1014817
-5.28274	2),	-0.09166937
-5.28274	2,	-0.08924548
-4.805619	2,000	-0.07943563
-5.28274	2,000-mile-range	-0.09175545
-5.28274	2,100-mile-range	-0.09175545
-5.28274	2,200	-0.09158328
-5.28274	2,200-square-foot	-0.09157196
-5.28274	2,220.46,	-0.08061538
-4.98171	2,500	-0.09174864
-5.28274	2,750	-0.09171015
-5.28274	2-megapixel	-0.0916218
-4.98171	2.	-0.08238478
-5.28274	2.0	-0.09174186
-5.28274	2.02	-0.09125235
-5.28274	2.07	-0.09169203
-5.28274	2.18	-0.09166711
-4.805619	2.2	-0.09053294
-4.98171	2.3	-0.09157421
-4.58377	2.5	-0.162915
-5.28274	2.50	-0.09173506
-5.28274	2.55	-0.09173506
-5.28274	2.6	-0.09119339
-4.805619	2.7	-0.2194667
-5.28274	2.77	-0.09125235
-5.28274	2.8	-0.09119339
-5.28274	2.9	-0.09119112
-5.28274	2.91	-0.09173054
-3.592544	20	-0.3722669
-5.28274	20's	-0.08938214
-4.98171	20,	-0.05555784
-4.98171	20,000	-0.09172826
-5.28274	20-city	-0.09158555
-5.28274	20-hour	-0.09175771
-5.28274	20-something	-0.09174412
-5.28274	20.1	-0.09119112
-5.28274	20.48	-0.0917328
-4.37965	200	-0.09098015
-5.28274	200,''	-0.09175998
-4.58377	200,000	-0.09110718
-5.28274	200,000-square-foot	-0.09174865
-5.28274	200-foot	-0.09175998
-5.28274	200-shot	-0.09173506
-5.28274	200-year	-0.09175318
-4.203558	2000	-0.1737957
-4.203558	2000,	-0.1143592
-4.28274	2000.	-0.4170509
-5.28274	20002.	-0.08130499
-4.136612	2001	-0.1915098
-3.851376	2001,	-0.2812855
-4.437642	2001.	-0.2871938
-5.28274	2001;	-0.09174639
-4.106648	2002	-0.1946363
-5.28274	2002).	-0.08130499
-4.241347	2002,	-0.1313138
-4.203558	2002.	-0.4104465
-5.28274	2002;	-0.09174639
-4.203558	2003	-0.1268558
-4.003986	2003,	-0.04963218
-4.241347	2003.	-0.3007937
-3.851376	2004	-0.08391462
-3.851376	2004,	-0.1314438
-4.28274	2004.	-0.3025925
-5.28274	2004;	-0.08892188
-4.241347	2005	-0.07958473
-4.328497	2005,	-0.08736967
-5.28274	2005,''	-0.06549233
-5.28274	2005-6	-0.0917328
-4.37965	2005.	-0.4848837
-5.28274	2005;	-0.09174639
-4.241347	2006	-0.1586082
-4.28274	2006,	-0.1281509
-5.28274	2006,''	-0.09171695
-4.68068	2006.	-0.5517745
-4.58377	2007	-0.08127248
-4.805619	2007.	-0.2093395
-5.28274	2008	-0.0824172
-5.28274	2008,	-0.06549233
-5.28274	2008,''	-0.09175545
-4.98171	2008.	-0.2916102
-5.28274	2009	-0.08908144
-5.28274	2009,	-0.09175998
-4.805619	2009.	-0.08124234
-4.68068	2010,	-0.07730773
-4.98171	2010.	-0.2916102
-5.28274	2011.	-0.08130499
-5.28274	2014.	-0.08061538
-4.98171	202	-0.09170108
-5.28274	2040	-0.09173054
-5.28274	209	-0.09175545
-4.504589	20th	-0.344321
-5.28274	20th-century	-0.0912841
-4.37965	21	-0.08008523
-4.98171	21,	-0.06396657
-5.28274	21-room	-0.09175771
-5.28274	21-year-old	-0.09159235
-5.28274	21.	-0.08892188
-5.28274	21.4	-0.0917328
-5.28274	2105	-0.09158555
-5.28274	211,000	-0.09168297
-5.28274	213-year-old	-0.09173959
-5.28274	215,000	-0.09173959
-4.98171	21st	-0.3020584
-5.28274	21st-century	-0.09175998
-4.58377	22	-0.1506952
-5.28274	22,	-0.07946825
-5.28274	22.	-0.08130499
-5.28274	22.20	-0.0917328
-5.28274	22.4	-0.09119112
-5.28274	220	-0.09171015
-5.28274	224-page	-0.09174865
-4.68068	23	-0.08172704
-5.28274	23,	-0.09175998
-5.28274	23-59	-0.09173506
-5.28274	23-acre	-0.09175771
-5.28274	23-year-old	-0.09158328
-4.98171	23.	-0.08127481
-5.28274	230	-0.09125235
-5.28274	23c	-0.0916943
-4.07862	24	-0.1553148
-4.98171	24,	-0.0917124
-5.28274	24,000	-0.09167164
-4.98171	24-7	-0.09163991
-5.28274	24-foot-high	-0.09175092
-5.28274	24-hour	-0.09175998
-5.28274	24-karat	-0.09175318
-5.28274	24.	-0.08130499
-4.98171	24/7	-0.09030347
-5.28274	24/7,	-0.09174639
-5.28274	240,000.	-0.08130499
-5.28274	24th	-0.09159914
-3.77759	25	-0.2676592
-4.98171	25,	-0.09137476
-4.98171	25,000	-0.09172599
-5.28274	25-foot	-0.09175771
-5.28274	25-hour	-0.09173054
-4.68068	25-year	-0.09168297
-5.28274	25-year-old	-0.09171468
-5.28274	25.7	-0.09119112
-5.28274	25.8	-0.09125235
-5.28274	250-gigabyte	-0.09167843
-4.241347	26	-0.2516669
-4.58377	26,	-0.08545195
-5.28274	26-year-old	-0.09175318
-5.28274	26.	-0.08130499
-5.28274	26.18	-0.0916739
-5.28274	26.9	-0.09119112
-5.28274	266	-0.09167617
-4.437642	27	-0.07917459
-5.28274	27-inch	-0.09147904
-4.98171	27-year-old	-0.09164217
-5.28274	27.5	-0.09168524
-5.28274	270,000	-0.0916739
-5.28274	273,305,	-0.08976229
-5.28274	27b	-0.08924548
-5.28274	27th	-0.09166031
-4.68068	28	-0.07951719
-4.98171	28,	-0.0914473
-5.28274	28,000	-0.09175318
-5.28274	28-minute	-0.09172374
-5.28274	28-year-old	-0.09159688
-5.28274	28.	-0.09175545
-5.28274	28.75	-0.09119112
-5.28274	280	-0.09172148
-5.28274	280-member	-0.09175998
-5.28274	284	-0.09149264
-5.28274	287,341	-0.09158328
-5.28274	28th,	-0.09168524
-4.437642	29	-0.1400556
-4.68068	29,	-0.06505902
-4.98171	29-year-old	-0.09152662
-5.28274	29.	-0.09153797
-5.28274	290.7	-0.09125235
-5.28274	296.5	-0.09125235
-4.28274	3	-0.1984821
-4.98171	3,	-0.09070779
-4.805619	3,000	-0.09166258
-5.28274	3,100	-0.09175092
-5.28274	3,200-square-foot	-0.09166711
-5.28274	3,300	-0.09116164
-5.28274	3,600	-0.09175545
-5.28274	3,600-pound	-0.09174865
-5.28274	3-d	-0.09175318
-5.28274	3-d?	-0.08130499
-4.68068	3.1	-0.3323342
-5.28274	3.14159265.	-0.08130499
-4.805619	3.2	-0.2189856
-5.28274	3.21	-0.09125235
-5.28274	3.25	-0.0916739
-4.98171	3.3	-0.09110265
-5.28274	3.4	-0.09160367
-4.504589	3.5	-0.3216272
-5.28274	3.59	-0.09125235
-4.98171	3.7	-0.09116389
-5.28274	3.73	-0.09163539
-5.28274	3.8	-0.09119112
-3.68068	30	-0.246338
-5.28274	30's	-0.0824172
-4.58377	30,	-0.06752311
-5.28274	30,000	-0.09031939
-5.28274	30,000-square-foot	-0.09175771
-4.98171	30-day	-0.09173732
-5.28274	30-second	-0.09175545
-4.805619	30-year	-0.09171468
-4.98171	30-year-old	-0.09174637
-5.28274	30.	-0.08130499
-4.37965	300	-0.08905864
-5.28274	300,	-0.09174412
-4.98171	300,000	-0.09163538
-5.28274	300,000.	-0.09174639
-5.28274	300-inch	-0.09175092
-5.28274	300-millimeter	-0.09175998
-5.28274	300-thread-count	-0.09175771
-5.28274	3000	-0.09175545
-5.28274	307	-0.09163766
-5.28274	309	-0.08938214
-5.28274	30th	-0.09175092
-4.58377	31	-0.08864821
-4.437642	31,	-0.1106217
-4.68068	31.	-0.08092898
-5.28274	31.1	-0.09125235
-5.28274	31.4	-0.09119112
-4.98171	31.5	-0.09068054
-5.28274	31/4	-0.0916739
-5.28274	310	-0.09119339
-4.37965	32	-0.1336745
-4.98171	32,	-0.08954151
-5.28274	32-year-old	-0.09175771
-5.28274	324	-0.09175771
-4.504589	33	-0.1500486
-5.28274	33,	-0.09044208
-5.28274	33,000	-0.09175092
-5.28274	33-year-old	-0.09171695
-5.28274	330	-0.09160141
-5.28274	331	-0.08061538
-5.28274	33rd	-0.09165125
-4.805619	34	-0.09050114
-5.28274	34,	-0.07946825
-5.28274	344.5	-0.09119339
-5.28274	345	-0.09175318
-5.28274	34th	-0.09175771
-4.37965	35	-0.1133995
-5.28274	35,	-0.09145638
-5.28274	35,000	-0.09171015
-5.28274	35-millimeter	-0.09175545
-5.28274	35-year-old	-0.09175998
-5.28274	35.57	-0.09125235
-5.28274	350	-0.09163539
-5.28274	352	-0.08061538
-4.68068	36	-0.1836524
-5.28274	360	-0.08810725
-4.98171	360,	-0.2757975
-4.68068	37	-0.09151984
-4.98171	37,	-0.08882155
-5.28274	37,000	-0.09171015
-4.98171	38	-0.08045267
-4.98171	38,	-0.07803765
-5.28274	38-	-0.08061538
-5.28274	38-month	-0.09172601
-4.58377	39,	-0.1469883
-5.28274	39-year-old	-0.09129316
-5.28274	3:30	-0.09175318
-5.28274	3m	-0.09175318
-5.28274	3m's	-0.0916807
-4.98171	3m,	-0.08234544
-4.328497	4	-0.1652775
-4.805619	4,	-0.08836527
-5.28274	4,000	-0.09175998
-5.28274	4,400	-0.09163539
-5.28274	4,700	-0.09173054
-5.28274	4-year-old	-0.09174412
-4.98171	4.0	-0.08803643
-5.28274	4.0,	-0.09175998
-5.28274	4.0.	-0.09126822
-5.28274	4.10	-0.09119112
-4.98171	4.2	-0.09118203
-5.28274	4.31	-0.09119112
-5.28274	4.4	-0.09160367
-4.98171	4.5	-0.09116389
-5.28274	4.54	-0.09119112
-4.98171	4.64	-0.09122285
-4.805619	4.7	-0.09094385
-5.28274	4.88	-0.0917328
-4.98171	4.9	-0.09110265
-3.835582	40	-0.3020548
-5.28274	40's.	-0.08130499
-4.98171	40,	-0.09018073
-5.28274	40,000	-0.08261617
-5.28274	40,000.	-0.08892188
-5.28274	40-second	-0.09147904
-5.28274	40-something	-0.0916943
-5.28274	40-year-old	-0.09174412
-5.28274	40.''	-0.08130499
-5.28274	40.5	-0.09168524
-4.805619	400	-0.09011028
-4.98171	400,000	-0.09122285
-4.68068	401(k)	-0.1794013
-5.28274	401(k),	-0.09175092
-5.28274	405,	-0.06549233
-4.98171	40th	-0.09164897
-4.98171	41	-0.09103233
-5.28274	41,	-0.07935407
-5.28274	41.44	-0.09119112
-4.98171	411	-0.08696602
-4.98171	42	-0.09111399
-4.58377	42,	-0.0519735
-5.28274	42,000	-0.09132717
-5.28274	42-year-old	-0.09171015
-5.28274	420	-0.09175092
-5.28274	425	-0.0916807
-5.28274	42nd	-0.09175998
-5.28274	43	-0.09169203
-5.28274	43-year-old	-0.09175998
-5.28274	43.5	-0.09119112
-5.28274	43rd	-0.0824172
-4.98171	44	-0.0911276
-4.68068	44,	-0.06047319
-5.28274	44-year-old	-0.09159688
-5.28274	44th	-0.09175545
-4.58377	45	-0.1618006
-5.28274	45-minute	-0.09175998
-5.28274	45.	-0.09170789
-4.68068	46	-0.08091969
-5.28274	46-inch	-0.09175771
-5.28274	460	-0.08841092
-4.805619	47	-0.09095747
-4.68068	47,	-0.08851363
-5.28274	47-year-old	-0.09174412
-5.28274	475	-0.09171921
-4.805619	48	-0.08233157
-4.805619	48,	-0.07486333
-4.98171	48-year-old	-0.09128861
-5.28274	480	-0.09175998
-4.805619	49	-0.4560861
-5.28274	49,	-0.0824172
-5.28274	49.8	-0.09119112
-5.28274	4:30	-0.08261617
-5.28274	4runner,	-0.07935407
-4.37965	5	-0.07860532
-4.805619	5,	-0.09133624
-4.437642	5,000	-0.08853187
-5.28274	5,200	-0.09020348
-5.28274	5,800	-0.09174865
-5.28274	5-foot-10	-0.09143598
-5.28274	5-foot-10,	-0.0824172
-5.28274	5-year-old	-0.09175998
-4.805619	5.2	-0.09011028
-4.98171	5.3	-0.09109358
-5.28274	5.31	-0.0916739
-5.28274	5.4	-0.09119112
-5.28274	5.44	-0.09166711
-4.68068	5.5	-0.1830668
-5.28274	5.51	-0.09160367
-5.28274	5.6	-0.09119112
-5.28274	5.7	-0.0916739
-5.28274	5.8	-0.09160367
-3.921012	50	-0.171151
-4.805619	50,	-0.05135005
-4.58377	50,000	-0.09110037
-4.98171	50-inch	-0.3020607
-5.28274	50-year-old	-0.09175771
-5.28274	50.06	-0.09174865
-4.168797	500	-0.1049136
-5.28274	500,000-barrel-a-day	-0.09164899
-4.98171	500-foot	-0.09174411
-5.28274	500-page	-0.09175545
-4.37965	500-stock	-0.522217
-4.98171	50th	-0.09173732
-4.805619	51	-0.2194667
-4.504589	51,	-0.1068789
-5.28274	51,000	-0.09168297
-5.28274	51.17	-0.09166711
-5.28274	512	-0.09175771
-5.28274	512-megabit	-0.09175998
-5.28274	517,000-square-foot	-0.09175545
-4.98171	52	-0.09170561
-4.437642	52,	-0.08281042
-4.98171	52-week	-0.09157421
-5.28274	52.50	-0.09166711
-5.28274	53	-0.08261617
-4.98171	53,	-0.08981233
-5.28274	53rd	-0.09159914
-4.68068	54,	-0.1689176
-5.28274	54-year-old	-0.09153343
-5.28274	54.	-0.09171015
-5.28274	540	-0.09125235
-4.98171	55	-0.0910051
-4.504589	55,	-0.1421538
-5.28274	55-year	-0.09175318
-5.28274	55.	-0.08130499
-5.28274	55.60	-0.09166711
-5.28274	550	-0.09175545
-5.28274	550,000	-0.09175545
-5.28274	56	-0.0916739
-4.68068	56,	-0.06650172
-4.58377	57	-0.09107316
-5.28274	57,	-0.09173506
-5.28274	57,000	-0.09173054
-5.28274	57-year-old,	-0.09175998
-5.28274	57th	-0.09159914
-4.805619	58	-0.2072448
-4.805619	58,	-0.0508974
-5.28274	585	-0.09174865
-5.28274	587	-0.06549233
-4.98171	59	-0.3020629
-4.805619	59,	-0.07436384
-5.28274	59th	-0.09159914
-4.98171	5:30	-0.08937302
-4.28274	6	-0.1950301
-4.504589	6,	-0.08438207
-4.58377	6,000	-0.09127727
-5.28274	6-foot,	-0.09175998
-5.28274	6-year-old,	-0.09175998
-4.98171	6.	-0.2916102
-5.28274	6.16	-0.09125235
-4.98171	6.5	-0.3014963
-4.98171	6.7	-0.0906215
-4.98171	6.8	-0.0906215
-5.28274	6.9	-0.09119339
-4.28274	60	-0.1628877
-5.28274	60's,	-0.09164219
-5.28274	60,	-0.07935407
-5.28274	60,000	-0.09132717
-5.28274	60-page	-0.09175771
-5.28274	60-second	-0.09167164
-5.28274	60-year-old	-0.09175545
-5.28274	60.	-0.06549233
-5.28274	60.1	-0.09119112
-5.28274	600	-0.09119339
-5.28274	600,000	-0.0917328
-5.28274	600th	-0.0913113
-5.28274	61	-0.09174186
-4.98171	61,	-0.0899056
-5.28274	61,000	-0.09116164
-5.28274	61.	-0.08130499
-4.98171	62	-0.09117523
-5.28274	62,	-0.09014893
-5.28274	62.	-0.0903262
-4.98171	63	-0.09159006
-5.28274	63,	-0.09014893
-5.28274	63,000	-0.09175545
-5.28274	630,000,	-0.08841092
-4.805619	64	-0.07799324
-5.28274	64,	-0.09175318
-4.68068	64-year-old	-0.09135211
-4.98171	640	-0.08952558
-4.805619	65	-0.09137478
-4.98171	65,	-0.08237321
-5.28274	65-foot	-0.09174865
-5.28274	65-inch	-0.09175771
-5.28274	66	-0.0824172
-5.28274	66.	-0.08130499
-5.28274	66.8	-0.09160367
-5.28274	660	-0.09119339
-4.805619	67	-0.2194781
-4.805619	67,	-0.07577836
-5.28274	672	-0.0916082
-4.98171	68	-0.09166483
-4.805619	68,	-0.08461008
-5.28274	68,089.	-0.08130499
-5.28274	68-year-old	-0.0916943
-4.98171	68th	-0.09159233
-5.28274	69,	-0.09048297
-5.28274	69.	-0.08130499
-5.28274	690,000	-0.08261617
-5.28274	691	-0.09097562
-5.28274	69th	-0.0824172
-4.203558	7	-0.2095502
-5.28274	7'').	-0.08130499
-4.98171	7,	-0.06548991
-4.98171	7,000	-0.09077135
-5.28274	7,200	-0.0916082
-5.28274	7,500	-0.09175545
-5.28274	7,800	-0.09174186
-4.98171	7-eleven	-0.08556914
-5.28274	7-to-2	-0.09164219
-5.28274	7-year-old,	-0.08061538
-5.28274	7.	-0.08130499
-5.28274	7.1	-0.09160367
-5.28274	7.15	-0.0917328
-5.28274	7.33	-0.09166258
-5.28274	7.35	-0.0917328
-4.98171	7.6	-0.09112079
-5.28274	7.62-millimeter	-0.09175771
-5.28274	7.9	-0.09119112
-4.58377	70	-0.2498439
-5.28274	70's	-0.09038983
-4.98171	70.	-0.08123536
-4.805619	700	-0.09103234
-4.98171	700,000	-0.09172599
-4.805619	71	-0.21946
-5.28274	71,	-0.09048297
-5.28274	71,600	-0.09174865
-5.28274	71-year-old	-0.09175998
-5.28274	717	-0.09044208
-5.28274	717,	-0.08930016
-5.28274	72.3	-0.09119112
-5.28274	72.6	-0.09119112
-5.28274	73	-0.09119112
-5.28274	74,	-0.09140652
-5.28274	747	-0.09175998
-4.98171	747's	-0.08241024
-4.504589	75	-0.3431416
-5.28274	75,300	-0.08261617
-5.28274	75-70.	-0.09172601
-5.28274	75-acre	-0.09175998
-4.805619	750	-0.09026939
-5.28274	76	-0.09119112
-5.28274	76.	-0.08130499
-5.28274	768,250	-0.0912841
-4.68068	77	-0.09098244
-5.28274	777's	-0.09168524
-5.28274	777-200lr,	-0.09056474
-5.28274	777-300er	-0.09175092
-5.28274	77th	-0.0917328
-4.98171	78	-0.2927224
-5.28274	78-year-old	-0.09150397
-4.98171	78.	-0.2916102
-5.28274	784	-0.09119339
-5.28274	79	-0.09119112
-4.98171	7:30	-0.08731396
-4.98171	7e7	-0.08840177
-5.28274	7e7,	-0.08992609
-4.052291	8	-0.2110736
-4.805619	8,	-0.08990334
-4.805619	8,000	-0.0916218
-5.28274	8,685	-0.09175998
-5.28274	8-year-old	-0.09172374
-4.98171	8.09	-0.3015576
-5.28274	8.4	-0.09119112
-4.98171	8.5	-0.09151529
-4.98171	8.9	-0.0910346
-5.28274	8.99	-0.09119112
-4.328497	80	-0.2296152
-5.28274	80,000	-0.09163539
-5.28274	80-degree	-0.09175998
-5.28274	80-gigabyte	-0.09167843
-5.28274	80-hour	-0.09173959
-5.28274	80.	-0.08130499
-5.28274	80.2	-0.09119112
-5.28274	800	-0.09175545
-5.28274	800-pound	-0.09175998
-5.28274	81	-0.0824172
-5.28274	81,	-0.06549233
-5.28274	82	-0.09175545
-4.98171	83	-0.09111399
-5.28274	83,	-0.0916875
-5.28274	83,000	-0.09174865
-5.28274	83-year	-0.09173959
-4.98171	83.	-0.2916102
-5.28274	84	-0.09119112
-5.28274	84.	-0.08130499
-5.28274	84.3	-0.09119112
-4.68068	85	-0.1834573
-5.28274	85.	-0.08130499
-5.28274	850,000	-0.09175545
-5.28274	87	-0.09119112
-5.28274	873	-0.09171921
-5.28274	88	-0.09175318
-5.28274	88.	-0.08130499
-5.28274	8o	-0.09119112
-4.203558	9	-0.2135286
-4.98171	9,	-0.08972587
-5.28274	9,223,400,000,000,000,000	-0.09175092
-5.28274	9-7x	-0.06549233
-5.28274	9-7x,	-0.09056474
-4.98171	9-millimeter	-0.0917509
-5.28274	9-to-5	-0.0916082
-5.28274	9-year-old	-0.09048297
-5.28274	9.	-0.08130499
-5.28274	9.3	-0.09119112
-5.28274	9.4	-0.09160367
-4.805619	9.5	-0.2195529
-5.28274	9.8	-0.09119339
-5.28274	9/11''	-0.09073504
-5.28274	9/11,	-0.09103915
-5.28274	9/11.	-0.08130499
-4.328497	90	-0.107661
-4.98171	90,	-0.09006251
-5.28274	90-day	-0.09175998
-5.28274	90-foot	-0.09172827
-5.28274	90.	-0.08130499
-4.98171	900	-0.08217181
-5.28274	900-store	-0.09175545
-4.98171	911	-0.09166936
-5.28274	911.	-0.09027621
-4.98171	92	-0.09118657
-5.28274	92-year-old	-0.09175998
-4.805619	93	-0.08174326
-4.437642	95	-0.1222323
-5.28274	950	-0.09175771
-5.28274	959	-0.09119339
-5.28274	95th	-0.09165125
-5.28274	96	-0.09174865
-5.28274	98	-0.09119112
-4.68068	99	-0.1836365
-5.28274	99-	-0.09175771
-5.28274	99-cent	-0.09175318
-1.623585	</s>
-99	<s>	-0.3528432
-5.279202	<unk>
-5.28274	?	-0.09175771
-4.98171	[page	-0.3020629
-1.550266	a	-0.3305265
-5.28274	a-line	-0.08617295
-4.98171	a-list	-0.09174864
-5.28274	a-wastin'	-0.09038983
-3.57517	a.	-0.1429537
-5.28274	a.f.l.-c.i.o.	-0.09163086
-3.867767	a.i.g.	-0.08618762
-4.805619	a.i.g.'s	-0.0913113
-5.28274	a.i.g.'s.	-0.08130499
-4.805619	a.i.g.,	-0.08914524
-5.28274	a.i.g.;	-0.06549233
-5.28274	a.j.	-0.09175998
-4.68068	a.m.	-0.08223666
-4.98171	a.m.,	-0.08148822
-5.28274	a.m.d.	-0.09172148
-5.28274	a.m.d.'s	-0.09103008
-5.28274	a.p.j.	-0.09175771
-4.98171	a.p.s.-size	-0.09175543
-4.98171	a320	-0.09173279
-5.28274	a320's,	-0.09056474
-4.28274	a380	-0.1123197
-4.98171	a380's	-0.08362348
-4.98171	a380,	-0.08840634
-5.28274	a9,	-0.09175545
-5.28274	aaron	-0.09175998
-4.805619	aarp	-0.08839266
-5.28274	aarp,	-0.06549233
-5.28274	ab	-0.09175998
-5.28274	aback	-0.08953242
-4.437642	abandon	-0.3276026
-4.37965	abandoned	-0.05336379
-5.28274	abandoned.	-0.08130499
-4.98171	abandoning	-0.07930744
-5.28274	abating,	-0.09175998
-5.28274	abba	-0.09175998
-4.805619	abbott	-0.09174865
-5.28274	abbott's	-0.09172374
-5.28274	abby	-0.09175771
-4.58377	abc	-0.1586466
-5.28274	abc's	-0.09175998
-5.28274	abc,	-0.09056474
-4.98171	abc.	-0.05437457
-5.28274	abdallah	-0.09168297
-5.28274	abdomen.	-0.08261617
-4.98171	abdul	-0.0917577
-5.28274	abdullah	-0.09175771
-5.28274	aberration.	-0.08130499
-5.28274	abilities,	-0.09142464
-4.052291	ability	-1.244126
-3.921012	able	-1.369064
-5.28274	ablutions,	-0.09175998
-4.98171	abn	-0.0917577
-5.28274	abn's	-0.09166711
-5.28274	abnormal	-0.09164446
-5.28274	aboard	-0.07935407
-5.28274	aboard.	-0.08130499
-5.28274	abolished	-0.09118432
-5.28274	abolished.	-0.08130499
-5.28274	abounded,''	-0.09016711
-2.600595	about	-0.2988024
-4.504589	about,	-0.139993
-5.28274	about-face,	-0.08992609
-4.68068	about.	-0.07668209
-4.98171	about?	-0.06529979
-3.960521	above	-0.1463015
-5.28274	above-market	-0.0916082
-5.28274	above.''	-0.09027621
-5.28274	abramovich,	-0.09174639
-5.28274	abrams	-0.09175998
-5.28274	abraxane,	-0.08927738
-4.805619	abroad	-0.09100739
-4.98171	abroad,	-0.07705943
-5.28274	abroad.	-0.08130499
-4.58377	abrupt	-0.09143142
-4.437642	abruptly	-0.1409787
-5.28274	abruptly,	-0.09175998
-5.28274	abs	-0.0824172
-4.68068	absence	-0.3113586
-5.28274	absent.	-0.08892188
-5.28274	absentee	-0.09175771
-4.98171	absolute	-0.0917124
-4.98171	absolutely	-0.0917577
-4.98171	absorb	-0.2757975
-4.805619	absorbing	-0.06535997
-5.28274	abstract	-0.09038983
-5.28274	absurdist	-0.09175998
-4.98171	abu	-0.0917577
-5.28274	abundantly	-0.09175771
-5.28274	abundio	-0.09175545
-4.98171	abuse	-0.07102465
-5.28274	abuse,	-0.09171468
-5.28274	abuse.	-0.09126822
-5.28274	abuses	-0.08261617
-5.28274	abuses,	-0.09134758
-5.28274	abusive	-0.09149718
-5.28274	abuzz.	-0.08130499
-5.28274	abysmally	-0.0917328
-5.28274	academia	-0.0824172
-4.68068	academic	-0.09149492
-5.28274	academics	-0.09038983
-5.28274	academics,	-0.09175545
-4.58377	academy	-0.2387442
-5.28274	academy,	-0.09175771
-5.28274	acampora,	-0.07935407
-4.68068	accelerated	-0.07831109
-5.28274	accent,	-0.08617295
-5.28274	accentuated	-0.06549233
-5.28274	accenture),	-0.09175771
-4.28274	accept	-0.1119897
-5.28274	accept,	-0.09071234
-5.28274	acceptable	-0.0915425
-4.68068	acceptance	-0.1718876
-4.241347	accepted	-0.09790093
-5.28274	accepted.	-0.08130499
-4.68068	accepting	-0.0521398
-3.902529	access	-0.4462542
-5.28274	access,	-0.09071234
-4.98171	access.	-0.07978266
-5.28274	access?	-0.09071234
-4.98171	accessible	-0.08937985
-4.98171	accessories	-0.0857506
-5.28274	accessories,	-0.08841092
-5.28274	accessories.	-0.08130499
-5.28274	accessory	-0.08617295
-4.98171	accident	-0.09174411
-5.28274	accident.	-0.08130499
-4.98171	accidentally	-0.09141557
-5.28274	accidentally,	-0.08261617
-5.28274	accidents	-0.09086896
-5.28274	accolades	-0.08938214
-4.98171	accommodate	-0.06547547
-5.28274	accommodates	-0.0916943
-4.98171	accommodations	-0.08620047
-4.98171	accompanied	-0.2998376
-5.28274	accompany	-0.09031939
-4.98171	accompanying	-0.09174864
-5.28274	accomplishing	-0.08261617
-5.28274	accord	-0.09169883
-5.28274	accord,	-0.09127049
-3.152406	according	-2.122392
-5.28274	accordion	-0.09175998
-3.960521	account	-0.140615
-4.504589	account,	-0.2145233
-4.37965	account.	-0.2943709
-4.58377	accountability	-0.2415036
-4.98171	accountable	-0.2974178
-5.28274	accountancy,	-0.09014893
-4.805619	accountant	-0.2096737
-4.98171	accountants	-0.07817321
-4.58377	accounted	-0.5422647
-3.469826	accounting	-0.3812867
-5.28274	accounting,''	-0.09014893
-4.805619	accounting.	-0.2085121
-3.98171	accounts	-0.1268528
-4.504589	accounts,	-0.06573527
-4.58377	accounts.	-0.05135003
-4.98171	accreditation	-0.06985188
-5.28274	accredo	-0.09175545
-5.28274	accumulate	-0.07935407
-4.805619	accumulated	-0.2052689
-4.805619	accuracy	-0.0724051
-5.28274	accuracy,	-0.09063287
-5.28274	accuracy.	-0.09169883
-5.28274	accurately	-0.09175771
-5.28274	accusation,	-0.09173054
-4.136612	accusations	-0.3334153
-5.28274	accusations,	-0.09055565
-5.28274	accusations.	-0.08130499
-4.805619	accuse	-0.09110267
-3.659491	accused	-0.6666051
-5.28274	accused,	-0.09140652
-5.28274	accuser,	-0.09175771
-4.805619	accuses	-0.0652661
-4.241347	accusing	-0.1987874
-5.28274	accustomed	-0.08061538
-4.805619	achieve	-0.07622693
-4.68068	achieved	-0.0825005
-5.28274	achievements	-0.09173506
-4.98171	achieving	-0.06548991
-5.28274	achilles'	-0.09175998
-5.28274	acid	-0.09175998
-5.28274	acid,	-0.07935407
-4.98171	ackermann	-0.08972132
-4.98171	acknowledge	-0.2964782
-4.328497	acknowledged	-0.2606425
-5.28274	acknowledges,	-0.09027621
-4.805619	acknowledging	-0.2098268
-4.98171	acknowledgment	-0.08391416
-5.28274	acknowledgment,	-0.08261617
-5.28274	acnielsen,	-0.08927738
-5.28274	acquiescence	-0.07946825
-3.691675	acquire	-0.1830119
-5.28274	acquire,	-0.0824172
-5.28274	acquire.	-0.08261617
-3.867767	acquired	-0.3485682
-5.28274	acquired,	-0.08892188
-5.28274	acquiring	-0.07935407
-4.106648	acquisition	-0.5246083
-4.68068	acquisition,	-0.1816129
-5.28274	acquisition.	-0.08130499
-4.437642	acquisitions	-0.1214917
-5.28274	acquisitions,	-0.08841092
-5.28274	acquisitions.	-0.08130499
-4.98171	acquittal	-0.07917456
-4.68068	acquitted	-0.06909135
-5.28274	acre-size	-0.09175318
-4.98171	acres	-0.2897735
-5.28274	acrimonious	-0.09173054
-5.28274	acronym,	-0.09175998
-3.558464	across	-0.5197818
-5.28274	acrylic	-0.09175092
-4.106648	act	-0.09896161
-4.68068	act,	-0.06204276
-4.68068	act.	-0.06893383
-5.28274	act?	-0.08130499
-5.28274	acted	-0.09038983
-4.504589	acting	-0.06334075
-3.940317	action	-0.2125301
-5.28274	action''	-0.08061538
-4.805619	action,	-0.08894012
-5.28274	action,''	-0.0903262
-5.28274	action-adventure	-0.09166031
-4.805619	action.	-0.1827387
-4.68068	actions	-0.1694453
-4.241347	active	-0.0795987
-5.28274	actively	-0.09164446
-5.28274	activism	-0.0824172
-4.98171	activist	-0.3017979
-5.28274	activist,	-0.09044208
-5.28274	activist.''	-0.08130499
-5.28274	activists	-0.09174639
-5.28274	activists,	-0.09071234
-4.504589	activities	-0.3033259
-5.28274	activities.	-0.08130499
-5.28274	activities.''	-0.08130499
-4.68068	activity	-0.3272821
-5.28274	activity,	-0.09056474
-5.28274	activity.	-0.09170336
-4.805619	actor	-0.09030348
-4.98171	actor,	-0.07984552
-4.805619	actors	-0.09047162
-5.28274	actors,	-0.09146091
-4.68068	actress	-0.09164219
-5.28274	actress.	-0.09085308
-4.805619	acts	-0.08170849
-5.28274	acts,''	-0.0903262
-5.28274	acts;	-0.09175998
-4.805619	actual	-0.09155383
-4.203558	actually	-0.1005219
-4.805619	actually,	-0.08596643
-5.28274	actually.	-0.08130499
-5.28274	acute	-0.09175318
-4.027467	ad	-0.1272086
-5.28274	ad,	-0.09174865
-5.28274	ad-making,	-0.09016711
-4.98171	adam	-0.0917577
-4.805619	adams	-0.08235239
-5.28274	adapt	-0.08061538
-5.28274	adaptation	-0.07946825
-5.28274	adapted	-0.08976229
-5.28274	adapters	-0.09175318
-4.136612	add	-0.08643869
-5.28274	add,	-0.08261617
-4.027467	added	-0.2374166
-4.68068	added,	-0.05522786
-4.98171	added.	-0.2916102
-5.28274	added:	-0.09163992
-4.168797	adding	-0.2321709
-4.98171	adding,	-0.09168975
-4.98171	addison	-0.0915946
-4.504589	addition	-0.4334802
-4.37965	addition,	-0.1042634
-5.28274	addition;	-0.09063287
-4.136612	additional	-0.1414826
-5.28274	additionally	-0.09172601
-5.28274	additions,	-0.08976229
-4.805619	additive	-0.2032439
-4.98171	additive,	-0.3020629
-4.203558	address	-0.1062564
-5.28274	address,	-0.0916082
-4.98171	address.	-0.08110075
-5.28274	addressed	-0.08930016
-4.68068	addresses	-0.1359734
-4.98171	addresses,	-0.09170108
-4.805619	addressing	-0.09156289
-4.805619	adds	-0.07926084
-4.98171	adelphia	-0.09165124
-5.28274	adelphia.	-0.08130499
-4.805619	adept	-0.4542771
-5.28274	adequate	-0.09170562
-5.28274	adequate.''	-0.08130499
-5.28274	adequately	-0.09175545
-5.28274	adherence	-0.08061538
-5.28274	adherents	-0.07946825
-5.28274	adhering	-0.09175998
-5.28274	adhesive	-0.08061538
-5.28274	adidas	-0.09175998
-5.28274	adidas.com	-0.09044208
-5.28274	adirondacks.	-0.09161273
-5.28274	adjacent	-0.09174865
-5.28274	adjust	-0.06549233
-5.28274	adjustable	-0.09175998
-5.28274	adjusting.	-0.08130499
-5.28274	adjustments	-0.07946825
-5.28274	administer	-0.0824172
-5.28274	administered,	-0.09171468
-4.98171	administering	-0.06548991
-3.659491	administration	-0.2439337
-4.68068	administration's	-0.09151531
-4.504589	administration,	-0.08764791
-4.805619	administration.	-0.1827387
-4.504589	administrative	-0.09144731
-4.98171	administrator	-0.2929214
-5.28274	admirably	-0.0824172
-5.28274	admirers	-0.09136344
-5.28274	admission	-0.09073504
-5.28274	admissions	-0.09164899
-4.98171	admit	-0.08571156
-5.28274	admitted	-0.09173959
-5.28274	admittedly	-0.09175998
-4.98171	admitting	-0.08617065
-5.28274	adolescent	-0.09175998
-4.805619	adolph	-0.2199383
-4.68068	adopt	-0.09057838
-5.28274	adopt,	-0.09175318
-4.68068	adopted	-0.03926685
-5.28274	adopting	-0.06549233
-5.28274	adorned	-0.08924548
-5.28274	adorns	-0.09175092
-5.28274	adrenaline	-0.09063287
-5.28274	adrian	-0.09175771
-5.28274	adrienne	-0.09175998
-5.28274	adrift	-0.08711257
-3.940317	ads	-0.09729169
-4.68068	ads,	-0.06430451
-4.98171	ads.	-0.2916102
-4.437642	adult	-0.08479884
-4.437642	adults	-0.07076802
-5.28274	adults.	-0.08130499
-4.37965	advance	-0.1192614
-3.960521	advanced	-0.1813644
-5.28274	advanced-imaging	-0.09175545
-5.28274	advanced.''	-0.08130499
-5.28274	advances	-0.08976229
-5.28274	advances,	-0.09171468
-4.805619	advancing	-0.05361857
-4.37965	advantage	-0.2989088
-5.28274	advantage.	-0.08130499
-4.805619	advantages	-0.08998521
-5.28274	advent	-0.07946825
-5.28274	adventure	-0.0824172
-4.805619	advertise	-0.08139546
-5.28274	advertised	-0.09023985
-4.98171	advertisement	-0.0748798
-5.28274	advertisement,	-0.08261617
-4.58377	advertisements	-0.06833183
-5.28274	advertisements.	-0.09044663
-4.98171	advertiser	-0.0916603
-5.28274	advertiser-supported	-0.09169203
-4.328497	advertisers	-0.1666483
-4.805619	advertisers,	-0.09049887
-3.385113	advertising	-0.2035511
-4.58377	advertising,	-0.08902216
-5.28274	advertising-supported	-0.0915425
-4.68068	advertising.	-0.3210473
-5.28274	advertising:	-0.09175545
-5.28274	advertorial	-0.09175092
-4.203558	advice	-0.09212735
-5.28274	advice,	-0.08261617
-4.805619	advice.	-0.4462
-4.68068	advise	-0.06439859
-4.504589	advised	-0.08312936
-4.58377	adviser	-0.3984087
-4.805619	adviser,	-0.08209541
-5.28274	adviser:	-0.09174639
-4.68068	advisers	-0.1728723
-5.28274	advises	-0.09153797
-4.328497	advising	-0.1554956
-5.28274	advisors	-0.09038983
-4.328497	advisory	-0.2421769
-4.37965	advocacy	-0.2655781
-4.98171	advocate	-0.07468431
-5.28274	advocate.	-0.08130499
-5.28274	advocated	-0.06549233
-4.504589	advocates	-0.1918934
-5.28274	advocates,	-0.09154703
-4.98171	advocating	-0.09167615
-4.98171	adware	-0.08992152
-5.28274	adweek.	-0.08130499
-4.98171	adweek.com	-0.08600543
-5.28274	adwords	-0.09171921
-5.28274	aeg	-0.09175545
-4.805619	aer	-0.2201195
-4.805619	aerial	-0.09170789
-5.28274	aerodynamic	-0.09172601
-4.98171	aeronautic	-0.3020018
-5.28274	aeronautic,	-0.09169656
-4.805619	aerospace	-0.09169883
-5.28274	aesthetics	-0.0824172
-5.28274	aetna	-0.09014893
-5.28274	aetna's	-0.09072142
-5.28274	affair	-0.08924548
-4.98171	affair.	-0.07925616
-4.98171	affairs	-0.07811011
-4.805619	affairs,	-0.09122287
-5.28274	affairs.	-0.06549233
-4.437642	affect	-0.1152348
-4.98171	affected	-0.08861855
-5.28274	affecting	-0.07935407
-5.28274	affects	-0.07935407
-4.68068	affiliate	-0.1719971
-5.28274	affiliate,	-0.06549233
-4.98171	affiliates	-0.07805635
-4.98171	affiliates,	-0.05229855
-5.28274	affiliating	-0.08924548
-5.28274	affiliation	-0.08924548
-5.28274	affixed	-0.08061538
-5.28274	affixing	-0.06549233
-5.28274	afflicted	-0.08841092
-5.28274	affliction	-0.08261617
-4.437642	afford	-0.242843
-5.28274	afford.	-0.08130499
-5.28274	affordable	-0.09152437
-4.98171	affordable.	-0.08095914
-5.28274	afghanistan	-0.0824172
-4.98171	aficionados	-0.0916603
-4.98171	aficionados,	-0.09103686
-5.28274	afoul	-0.07946825
-5.28274	afraid	-0.08061538
-5.28274	afraid.	-0.09063287
-4.58377	africa	-0.1381528
-4.68068	africa,	-0.08868701
-5.28274	africa,''	-0.09160367
-4.98171	africa.	-0.08096611
-4.805619	african	-0.09146998
-4.805619	african-american	-0.09170109
-2.64525	after	-0.3755213
-4.805619	after-hours	-0.09171695
-4.58377	aftermath	-0.4052361
-4.58377	afternoon	-0.05858998
-4.68068	afternoon,	-0.06441065
-4.98171	afternoon.	-0.2916102
-4.98171	afternoons	-0.08181277
-4.98171	afterward,	-0.08854783
-5.28274	afterward.	-0.09027621
-3.867767	again	-0.1474076
-5.28274	again''	-0.08953242
-4.504589	again,	-0.1230101
-4.203558	again.	-0.3184687
-4.805619	again.''	-0.4462
-5.28274	again.'''	-0.08130499
-5.28274	again:	-0.09016711
-5.28274	again?	-0.08130499
-3.214554	against	-0.2552383
-5.28274	agape	-0.08810725
-3.98171	age	-0.1438463
-4.68068	age,	-0.06360184
-4.98171	age,''	-0.08901533
-4.328497	age.	-0.2251099
-3.8848	agencies	-0.1412401
-4.98171	agencies,	-0.08907914
-5.28274	agencies.	-0.09063287
-3.49741	agency	-0.1581987
-4.37965	agency's	-0.09056019
-4.106648	agency,	-0.08936146
-4.504589	agency.	-0.3066062
-4.98171	agenda	-0.08572534
-5.28274	agenda,''	-0.0903262
-5.28274	agenda:	-0.06549233
-4.328497	agent	-0.1020826
-4.68068	agent,	-0.05385837
-4.68068	agents	-0.1612784
-5.28274	agents.	-0.08130499
-4.805619	ages	-0.07943097
-4.106648	aggressive	-0.08568859
-5.28274	aggressive,	-0.09175998
-4.328497	aggressively	-0.1126334
-5.28274	agilent	-0.09174186
-5.28274	agilent,	-0.09056474
-4.98171	aging	-0.08261384
-5.28274	agitate.	-0.08130499
-3.751261	ago	-0.2614153
-3.358461	ago,	-0.1234081
-5.28274	ago,''	-0.09014893
-3.940317	ago.	-0.2451775
-5.28274	ago:	-0.07935407
-5.28274	agony,	-0.09163313
-5.28274	agoraphobia,	-0.08992609
-4.37965	agree	-0.2948493
-5.28274	agree,	-0.09051477
-5.28274	agree.	-0.08130499
-3.363662	agreed	-0.9915758
-5.28274	agreed,	-0.09175771
-4.58377	agreeing	-0.5357676
-3.57517	agreement	-0.4535167
-5.28274	agreement''	-0.08924548
-4.203558	agreement,	-0.1326874
-4.504589	agreement.	-0.1121965
-5.28274	agreement.''	-0.08130499
-4.437642	agreements	-0.1256856
-4.805619	agreements,	-0.08900166
-5.28274	agreements.	-0.06549233
-5.28274	agrees	-0.08061538
-4.805619	agricultural	-0.09164899
-4.98171	agriculture	-0.08664529
-5.28274	agrochemicals	-0.09134531
-5.28274	aground.	-0.06549233
-5.28274	aguas	-0.09175771
-5.28274	aguilera	-0.0824172
-5.28274	ah,	-0.09174639
-4.106648	ahead	-0.3132707
-4.68068	ahead,	-0.1721765
-5.28274	ahead.	-0.08130499
-4.98171	ahead:	-0.09106182
-5.28274	ahem.	-0.09175771
-4.98171	ahmad	-0.0917577
-4.68068	aid	-0.1705852
-5.28274	aide	-0.09048297
-4.805619	aids	-0.09158781
-5.28274	aig	-0.09172374
-5.28274	aiken,	-0.0824172
-5.28274	aikman,	-0.07935407
-5.28274	ailey	-0.09131584
-5.28274	ailing	-0.09103008
-4.805619	aim	-0.2176961
-3.902529	aimed	-1.458384
-4.504589	aims	-0.8218948
-3.601499	air	-0.2118784
-5.28274	air''	-0.08810725
-4.98171	air's	-0.09172373
-4.98171	air,	-0.07775003
-5.28274	air,''	-0.07935407
-5.28274	air-conditioners	-0.09175771
-4.98171	air-conditioning	-0.09095518
-5.28274	air-fare	-0.09175998
-5.28274	air-rights	-0.09171015
-5.28274	air-travel	-0.09175771
-4.98171	air.	-0.05437457
-3.98171	airbus	-0.141589
-4.98171	airbus's	-0.09031028
-4.805619	airbus,	-0.06317147
-3.98171	aircraft	-0.1074118
-5.28274	aircraft's	-0.09173506
-4.68068	aircraft,	-0.08768909
-5.28274	aircraft,''	-0.09014893
-5.28274	aircrafts	-0.08617295
-5.28274	aires,	-0.09146318
-5.28274	airfare	-0.09173959
-4.98171	airfares	-0.08800216
-5.28274	airfield,	-0.09167164
-5.28274	airfone's	-0.09173054
-4.805619	airfone,	-0.08883068
-3.702956	airline	-0.08154356
-4.328497	airline's	-0.0912818
-4.504589	airline,	-0.08324255
-5.28274	airline.	-0.08130499
-5.28274	airline:	-0.09175771
-5.28274	airliner	-0.07946825
-5.28274	airliners	-0.09150624
-5.28274	airliners,	-0.0916739
-5.28274	airliners.	-0.09175092
-3.550346	airlines	-0.180509
-4.68068	airlines'	-0.09163087
-4.003986	airlines,	-0.1174442
-4.68068	airlines.	-0.3223771
-5.28274	airlines.''	-0.08130499
-4.805619	airplane	-0.08921815
-5.28274	airplane-shaped	-0.09175998
-5.28274	airplane.	-0.09172601
-5.28274	airplanes.	-0.08130499
-5.28274	airplay	-0.07946825
-4.003986	airport	-0.08349682
-4.504589	airport,	-0.149005
-4.58377	airport.	-0.1531993
-4.328497	airports	-0.1063031
-4.98171	airports,	-0.09167162
-5.28274	airs	-0.08810725
-5.28274	airspace	-0.09112535
-4.98171	airtran	-0.09133849
-5.28274	airtran);	-0.09171921
-5.28274	airtran,	-0.09175318
-5.28274	airwaves.	-0.08130499
-5.28274	airwaves?	-0.08130499
-3.921012	airways	-0.1936902
-4.805619	airways,	-0.08862314
-5.28274	airways.	-0.08130499
-5.28274	aisha	-0.0824172
-4.504589	aisle	-0.06352691
-5.28274	aisle:	-0.08130499
-4.98171	ake	-0.08923636
-5.28274	akin	-0.08061538
-5.28274	akron,	-0.09174865
-4.68068	al	-0.09174866
-5.28274	al-ahmad	-0.09175998
-5.28274	al-sabah,	-0.06549233
-5.28274	al.	-0.08130499
-5.28274	ala.	-0.0903262
-4.805619	ala.,	-0.09065331
-4.805619	alabama	-0.07094864
-4.98171	alabama,	-0.08934569
-5.28274	alabama.	-0.0824172
-5.28274	alamo,	-0.09146318
-4.07862	alan	-0.4106541
-5.28274	alana	-0.09170789
-5.28274	alarm	-0.09175998
-5.28274	alarmed	-0.08953242
-5.28274	alarming	-0.09175998
-4.805619	alas,	-0.05318314
-4.98171	alaska	-0.08111005
-4.98171	alaska,	-0.09056246
-5.28274	albany,	-0.09161727
-4.68068	albeit	-0.1624828
-4.504589	albert	-0.0915221
-5.28274	alberta.	-0.08130499
-4.805619	album	-0.0774084
-4.805619	albums	-0.08848623
-5.28274	albums,	-0.09126822
-5.28274	albuterol	-0.09175998
-5.28274	alcatel	-0.09020348
-4.98171	alcohol	-0.09041481
-5.28274	alcoholic	-0.09175771
-4.68068	aleksei	-0.1841783
-5.28274	alert	-0.09175092
-5.28274	alert,	-0.08261617
-5.28274	alerted	-0.09170336
-5.28274	alerts,	-0.09170109
-4.98171	alex	-0.09175543
-5.28274	alexandra	-0.09175771
-4.98171	alexandria,	-0.3020561
-5.28274	alexei	-0.09175771
-4.98171	alfred	-0.09164444
-4.98171	alice	-0.08992379
-5.28274	alicea.	-0.08130499
-4.98171	align	-0.05364081
-5.28274	aligned	-0.08924548
-5.28274	alignment	-0.07946825
-5.28274	alike.	-0.08130499
-5.28274	alisha	-0.0824172
-5.28274	alison	-0.09175998
-4.98171	alitalia,	-0.06422003
-4.98171	alito	-0.0917192
-5.28274	alive,	-0.08924548
-2.936387	all	-0.1992346
-4.106648	all,	-0.09596955
-4.98171	all,''	-0.07769389
-5.28274	all-american,	-0.09175998
-4.805619	all-cash	-0.09124101
-5.28274	all-coach	-0.09175998
-5.28274	all-electronic	-0.09173506
-5.28274	all-european	-0.09175998
-5.28274	all-female	-0.09175998
-5.28274	all-in-one	-0.09175092
-5.28274	all-pros	-0.08810725
-5.28274	all-stock	-0.09170336
-4.168797	all.	-0.5399531
-5.28274	allan	-0.09175998
-5.28274	allay	-0.09173959
-5.28274	allbritton	-0.08992609
-4.68068	allbritton,	-0.1575343
-4.98171	allegations	-0.06799705
-5.28274	allegations,	-0.09056474
-5.28274	allegations.	-0.08130499
-4.98171	allen	-0.07946357
-5.28274	allen,	-0.08841092
-4.68068	alliance	-0.1781051
-4.98171	alliance,	-0.09162858
-4.504589	allied	-0.2369204
-5.28274	allison	-0.09175545
-5.28274	allocated	-0.09151304
-5.28274	allocating	-0.09158328
-5.28274	allocation	-0.08908144
-3.960521	allow	-0.07357679
-4.052291	allowed	-0.2226652
-5.28274	allowed,	-0.09167617
-4.168797	allowing	-0.07124013
-4.68068	allows	-0.062823
-5.28274	alloy	-0.09175545
-5.28274	alltel	-0.0917328
-4.805619	alltel,	-0.1935989
-5.28274	allure	-0.07946825
-5.28274	alluring:	-0.09175545
-5.28274	allusions	-0.08061538
-4.805619	ally	-0.07853295
-5.28274	alma	-0.09175998
-5.28274	almonds.	-0.08130499
-3.619982	almost	-0.0983789
-4.805619	alofs	-0.2186971
-5.28274	alofs,	-0.07935407
-4.28274	alone	-0.09541279
-4.68068	alone.	-0.1730281
-5.28274	alone.''	-0.08130499
-3.610642	along	-0.6244845
-4.98171	along,	-0.08239404
-5.28274	along,''	-0.09014893
-4.98171	along.	-0.08095914
-4.98171	alongside	-0.06465659
-5.28274	aloud	-0.09044208
-5.28274	alpine	-0.09175998
-3.47656	already	-0.1114221
-5.28274	already,	-0.09167164
-5.28274	already.	-0.09157196
-2.97311	also	-0.1466771
-5.28274	also,	-0.08908144
-4.98171	also-ran	-0.09008753
-5.28274	alter	-0.06549233
-5.28274	altera	-0.09164219
-4.68068	altered	-0.08055729
-4.98171	altering	-0.06547066
-4.58377	alternative	-0.09149489
-5.28274	alternative.	-0.08130499
-5.28274	alternatives	-0.08061538
-5.28274	alternatives''	-0.08711257
-5.28274	alternatives,	-0.09109813
-5.28274	alternatives.	-0.08130499
-4.241347	although	-0.0922833
-4.98171	altimeter	-0.07944494
-5.28274	altitude	-0.07946825
-5.28274	altman	-0.09127049
-5.28274	alto	-0.09159914
-4.68068	alto,	-0.5621842
-4.805619	altogether,	-0.09000114
-4.98171	altogether.	-0.09171467
-5.28274	altruistic	-0.09170109
-4.98171	aluminum	-0.0917509
-5.28274	aluminum.	-0.08130499
-4.98171	alumni	-0.07805635
-4.98171	alvin	-0.0917577
-5.28274	alwaleed	-0.09175771
-3.592544	always	-0.1198639
-5.28274	alzheimer's	-0.09175318
-4.28274	am	-0.09012164
-5.28274	am,	-0.08972816
-5.28274	amadeus	-0.09158102
-5.28274	amadeus,	-0.09056474
-5.28274	amalfi	-0.09173506
-5.28274	amana	-0.0824172
-4.98171	amanda	-0.3020584
-5.28274	amass	-0.09164446
-5.28274	amassed	-0.09175998
-4.98171	amateur	-0.09173958
-5.28274	amazed	-0.09085308
-5.28274	amazement	-0.08908144
-4.68068	amazing	-0.08571158
-5.28274	amazing,''	-0.09014893
-4.504589	amazon	-0.0914949
-5.28274	amazon,	-0.09175998
-5.28274	amazon.com	-0.0824172
-5.28274	amazon.com's	-0.09172374
-4.98171	amazon.com,	-0.2757975
-4.98171	amazon.com.	-0.2916102
-5.28274	ambassador	-0.08061538
-5.28274	ambitions	-0.07946825
-5.28274	ambitions,	-0.09170789
-4.168797	ambitious	-0.07196914
-5.28274	ambivalence	-0.08261617
-5.28274	ambushed	-0.08953242
-5.28274	amd's	-0.09175998
-5.28274	amena	-0.09127049
-5.28274	amena.	-0.08130499
-5.28274	amended	-0.0916807
-5.28274	amendment	-0.09170336
-5.28274	amends	-0.08061538
-4.98171	amenities	-0.08846796
-5.28274	amenity,	-0.09056474
-3.534552	america	-0.2468185
-4.98171	america''	-0.2984125
-4.106648	america's	-0.09053747
-4.203558	america,	-0.1091093
-5.28274	america-bound.	-0.08130499
-4.203558	america.	-0.8507812
-5.28274	america?	-0.08130499
-2.988274	american	-0.2166306
-5.28274	american's	-0.09172374
-4.98171	american,	-0.09122059
-5.28274	american-based	-0.09158328
-5.28274	american-style	-0.09151983
-5.28274	american:	-0.09175545
-5.28274	americanconnection.	-0.09168977
-3.714538	americans	-0.14579
-5.28274	americans'	-0.09175318
-5.28274	americans,	-0.08992609
-4.805619	americans.	-0.2093232
-4.98171	americans?	-0.2916102
-5.28274	americas.	-0.08261617
-5.28274	ameriquest	-0.0917328
-4.68068	ameritrade	-0.09157423
-5.28274	ameritrade.	-0.08130499
-4.805619	amgen	-0.07690948
-5.28274	amgen's	-0.09175998
-5.28274	amgen,	-0.09174639
-5.28274	amherst,	-0.09056474
-5.28274	amicably.	-0.08130499
-3.98171	amid	-0.1464709
-5.28274	amiss	-0.0916082
-5.28274	amiss,	-0.09063287
-5.28274	ammunition.	-0.0824172
-5.28274	amoco	-0.0824172
-5.28274	amok.	-0.08130499
-3.358461	among	-0.3192396
-5.28274	amorphous	-0.09166258
-5.28274	amos''	-0.0916807
-5.28274	amos,	-0.09048297
-4.106648	amount	-0.6366533
-5.28274	amount.	-0.08130499
-4.98171	amounted	-0.2909206
-5.28274	amounting	-0.08061538
-4.58377	amounts	-0.138768
-4.98171	ample	-0.0917509
-5.28274	amr,	-0.08841092
-5.28274	amro	-0.08261617
-5.28274	amro,	-0.09174865
-4.98171	amstel	-0.3020493
-4.98171	amsterdam,	-0.07934706
-5.28274	amused.	-0.09073504
-5.28274	amused:	-0.09175998
-5.28274	amusing	-0.09173959
-2.330432	an	-0.3188763
-5.28274	anacostia,	-0.07935407
-4.98171	anadarko	-0.0904239
-4.68068	analysis	-0.0732497
-5.28274	analysis,	-0.07935407
-4.28274	analyst	-0.2593586
-5.28274	analyst.	-0.09163992
-3.419417	analysts	-0.3607713
-4.98171	analysts'	-0.3020584
-5.28274	analysts,	-0.09048297
-5.28274	analysts.	-0.08130499
-5.28274	analytic	-0.09175318
-5.28274	analytical	-0.09175318
-5.28274	analytics	-0.09044208
-5.28274	analytics.	-0.09175318
-5.28274	analyzed	-0.09168297
-5.28274	anatomy	-0.0824172
-5.28274	ancestry,	-0.09164899
-4.68068	anchor	-0.07941
-4.98171	anchor.	-0.2916102
-5.28274	anchored	-0.08953242
-5.28274	anchors	-0.09044208
-4.98171	ancient	-0.09174411
-1.671867	and	-0.02267078
-3.820342	and,	-0.1724788
-5.28274	andalusian	-0.09175998
-5.28274	andean	-0.0916807
-5.28274	anders,	-0.08972816
-4.805619	andersen	-0.08259072
-5.28274	andersen's	-0.09175318
-4.805619	andersen,	-0.06354383
-5.28274	anderson	-0.09173733
-5.28274	anderson,	-0.06549233
-5.28274	andrande	-0.09170336
-5.28274	andrande,	-0.09175092
-4.98171	andrea	-0.0917577
-4.241347	andrew	-0.2109682
-4.805619	andy	-0.09174865
-5.28274	anecdotal	-0.09175092
-5.28274	anesthetic	-0.08061538
-5.28274	anew	-0.08810725
-5.28274	anew.	-0.08130499
-5.28274	angel	-0.09172148
-5.28274	angela	-0.09175998
-5.28274	angelenos,	-0.08892188
-3.902529	angeles	-0.1710083
-4.58377	angeles,	-0.07965691
-4.98171	angeles.	-0.06296337
-5.28274	angeles;	-0.09023985
-5.28274	angeli	-0.09175998
-4.98171	angelica	-0.09175317
-4.68068	angelina	-0.09153117
-5.28274	angelina,	-0.09140652
-5.28274	angels	-0.09020348
-5.28274	angels.	-0.08130499
-5.28274	anger	-0.09166031
-5.28274	angina	-0.0824172
-4.98171	angiotech	-0.08840406
-5.28274	angiotech,	-0.07935407
-5.28274	angled	-0.08711257
-5.28274	anglo	-0.09175092
-4.58377	angry	-0.1639177
-4.98171	angry.	-0.08108451
-5.28274	angst.	-0.09170789
-5.28274	angus	-0.09175545
-5.28274	anheuser-busch	-0.09014893
-4.805619	anheuser-busch,	-0.06538163
-4.805619	animal	-0.2200629
-4.98171	animals	-0.09174864
-5.28274	animals''	-0.09175998
-5.28274	animals,	-0.09175998
-5.28274	animals.	-0.08130499
-5.28274	animate	-0.06549233
-4.58377	animated	-0.09149715
-4.98171	animation	-0.09174637
-5.28274	ankle	-0.09175998
-4.504589	ann	-0.1512008
-4.98171	anna	-0.0916603
-4.805619	annals	-0.4443632
-5.28274	annastine	-0.09175771
-5.28274	anne	-0.09175998
-5.28274	annie	-0.09175998
-4.58377	anniversary	-0.2386883
-4.98171	anniversary.	-0.08100094
-3.659491	announce	-0.4999268
-4.98171	announce,	-0.09168068
-3.142861	announced	-0.5101091
-4.98171	announced,	-0.3005814
-4.98171	announced.	-0.08113557
-4.027467	announcement	-0.186768
-4.437642	announcement,	-0.08748326
-4.58377	announcement.	-0.4084546
-4.68068	announcements	-0.07250219
-5.28274	announcements.	-0.06549233
-5.28274	announcer's	-0.09165125
-4.98171	announces	-0.06511439
-4.58377	announcing	-0.1287802
-5.28274	annoyed	-0.0824172
-5.28274	annoying	-0.09175998
-5.28274	annoying,	-0.09173959
-5.28274	annoying,''	-0.09016711
-3.592544	annual	-0.2022958
-4.98171	annualized	-0.09151982
-5.28274	annualized,	-0.09112535
-5.28274	annually	-0.08810725
-4.98171	annually,	-0.08558752
-5.28274	annually.	-0.09175998
-5.28274	annuity	-0.09165805
-4.805619	anonymity	-0.2198159
-5.28274	anonymity,	-0.09171921
-5.28274	anonymity.	-0.08130499
-4.805619	anonymous	-0.09170109
-3.253356	another	-0.06509012
-4.805619	another,	-0.0818962
-4.58377	another.	-0.08938212
-4.28274	answer	-0.1049433
-4.98171	answer,	-0.09175317
-4.805619	answer.	-0.05127796
-4.68068	answer:	-0.07930979
-4.68068	answered	-0.08557835
-4.98171	answering	-0.0916535
-5.28274	answers	-0.06549233
-5.28274	answers.	-0.09175998
-5.28274	antagonist	-0.09174865
-4.98171	ante	-0.09148809
-4.437642	anthony	-0.2117325
-5.28274	anthony's	-0.09163313
-4.98171	anthony,	-0.06543938
-5.28274	anthropologie	-0.09167843
-4.98171	anthropologist	-0.08871436
-5.28274	anthropologists:	-0.09140878
-5.28274	anti-china	-0.09175998
-5.28274	anti-establishment,	-0.09027621
-5.28274	anti-immigrant	-0.09175998
-4.98171	anti-mcdonald's	-0.09175317
-5.28274	anti-terrorist	-0.09175998
-5.28274	antianxiety	-0.09175998
-5.28274	antibiotic,	-0.0824172
-4.98171	antibiotics	-0.07102465
-5.28274	antibiotics,''	-0.0903262
-5.28274	antibiotics.	-0.08130499
-4.68068	anticipated	-0.09028304
-5.28274	anticipated,	-0.09051477
-4.805619	anticipating	-0.2076296
-4.98171	anticipation	-0.2897735
-5.28274	anticipation,	-0.09175545
-5.28274	antidepressant	-0.0824172
-5.28274	antidepressant,	-0.09175998
-5.28274	antidote:	-0.09173506
-4.98171	antidrug	-0.09157647
-5.28274	antiestablishment	-0.09175998
-5.28274	antipathy	-0.09158102
-4.98171	antique	-0.09169202
-5.28274	antiques,	-0.06549233
-5.28274	antiseptic	-0.09044208
-5.28274	antismoking	-0.09142011
-5.28274	antispam	-0.09164899
-5.28274	antispill	-0.09175771
-5.28274	antistroke	-0.09172374
-5.28274	antitax	-0.09175545
-3.921012	antitrust	-0.1961256
-5.28274	antivirus	-0.09132264
-5.28274	antoine	-0.09175998
-4.805619	antonio	-0.2200244
-5.28274	antonveneta	-0.08061538
-5.28274	antwerp,	-0.09175771
-4.68068	anxiety	-0.08096149
-4.98171	anxious	-0.2909206
-5.28274	anxious.	-0.08130499
-4.98171	anxiously	-0.08907686
-3.343221	any	-0.2259051
-4.805619	anybody	-0.07709927
-4.98171	anymore,''	-0.08967125
-5.28274	anymore.	-0.08130499
-4.106648	anyone	-0.09000555
-4.106648	anything	-0.130832
-5.28274	anything?	-0.08130499
-4.98171	anytime	-0.3020561
-5.28274	anytime,	-0.09175318
-4.98171	anyway.	-0.09128408
-4.68068	anywhere	-0.3238394
-4.328497	aol	-0.08881242
-4.805619	aol's	-0.09142918
-4.437642	aol,	-0.1309844
-5.28274	aol-time	-0.09166484
-5.28274	aol.	-0.08130499
-5.28274	aol.com.	-0.08130499
-4.98171	aon	-0.09141783
-4.68068	aon,	-0.3065728
-4.58377	apart	-0.2217076
-5.28274	apart,	-0.0824172
-4.98171	apart.	-0.07855862
-4.203558	apartment	-0.1639244
-5.28274	apartment,	-0.09137251
-5.28274	apartment-building	-0.09163539
-4.98171	apartment.	-0.2916102
-4.98171	apartments	-0.09041935
-5.28274	apartments,	-0.09175998
-4.805619	apax	-0.08234777
-5.28274	ape	-0.06549233
-4.68068	apex	-0.09013756
-4.98171	apex's	-0.0917192
-4.68068	apiece.	-0.07607669
-4.805619	apollo	-0.09154929
-5.28274	apologize	-0.0824172
-5.28274	apologizing	-0.08711257
-5.28274	apology,	-0.08261617
-5.28274	apostolate,	-0.0917328
-4.68068	apparel	-0.09045117
-5.28274	apparel,	-0.06549233
-5.28274	apparel.	-0.08130499
-4.37965	apparent	-0.08592281
-5.28274	apparent,	-0.09172827
-4.003986	apparently	-0.08557374
-4.437642	appeal	-0.1596757
-5.28274	appeal,	-0.09163086
-5.28274	appeal.	-0.08130499
-5.28274	appealed	-0.08261617
-5.28274	appealing	-0.08061538
-5.28274	appealing.	-0.08130499
-4.07862	appeals	-0.3919505
-4.003986	appear	-0.2473352
-4.805619	appearance	-0.06990667
-4.98171	appearance.	-0.08085465
-5.28274	appearances	-0.09143598
-3.902529	appeared	-0.3767279
-5.28274	appeared,	-0.08711257
-5.28274	appeared.	-0.06549233
-5.28274	appearing	-0.09150624
-3.8848	appears	-0.9604986
-5.28274	appease	-0.09172601
-4.68068	appetite	-0.3227646
-3.98171	apple	-0.1322163
-4.58377	apple's	-0.08955744
-5.28274	apple,	-0.06549233
-5.28274	apples	-0.09161727
-4.37965	appliance	-0.1256481
-4.805619	appliances	-0.07303929
-5.28274	applicants.	-0.09063287
-4.68068	application	-0.1716941
-5.28274	application,	-0.09167617
-5.28274	application.	-0.08130499
-4.98171	applications	-0.08044569
-4.68068	applied	-0.317146
-4.98171	applies	-0.06787981
-4.58377	apply	-0.2347626
-5.28274	applying	-0.09060335
-5.28274	appoint	-0.08972816
-4.68068	appointed	-0.172407
-5.28274	appointing	-0.09175998
-4.437642	appointment	-0.1259185
-5.28274	appointment,	-0.09056474
-4.98171	appraisals	-0.07853994
-5.28274	appreciate	-0.09132264
-5.28274	appreciated	-0.06549233
-5.28274	appreciation	-0.09175318
-4.98171	apprentice''	-0.08277804
-4.98171	apprentice,''	-0.09055564
-4.98171	apprised	-0.2897735
-4.168797	approach	-0.1808378
-5.28274	approach,	-0.09097562
-5.28274	approach,''	-0.09016711
-4.58377	approached	-0.3926432
-5.28274	approached.	-0.08130499
-5.28274	approaches.	-0.08130499
-5.28274	approaching	-0.08617295
-4.98171	appropriate	-0.08678736
-5.28274	appropriate,	-0.08908144
-5.28274	appropriately	-0.09175771
-5.28274	appropriation	-0.07946825
-3.921012	approval	-0.2382533
-4.98171	approval,	-0.08114254
-4.98171	approval.	-0.2916102
-4.98171	approvals	-0.07005668
-5.28274	approvals.	-0.08130499
-4.37965	approve	-0.3932183
-3.867767	approved	-0.2729226
-5.28274	approved.	-0.08130499
-4.98171	approving	-0.0654851
-5.28274	approving.	-0.08130499
-5.28274	approvingly	-0.09175545
-5.28274	approximate	-0.09136571
-4.98171	approximately	-0.09171014
-4.106648	april	-0.09037688
-4.504589	april,	-0.07713441
-4.58377	april.	-0.261761
-5.28274	aptos,	-0.09171468
-4.98171	arab	-0.3020629
-5.28274	arabia	-0.09014893
-5.28274	arabia,	-0.09043981
-5.28274	arabic	-0.08810725
-5.28274	aramco	-0.09174865
-4.98171	aramco,	-0.2757975
-5.28274	aranesp	-0.08938214
-5.28274	arbiter.	-0.08130499
-5.28274	arbitration	-0.08261617
-4.98171	arbor,	-0.09156514
-5.28274	arc	-0.09173959
-5.28274	arcade	-0.09175998
-5.28274	arcaex,	-0.06549233
-3.98171	arcelor	-0.1521155
-4.504589	arcelor's	-0.09132036
-4.805619	arcelor,	-0.05573753
-5.28274	arcelor-mittal.	-0.08130499
-4.98171	arcelor.	-0.0797454
-5.28274	arch	-0.0824172
-5.28274	archaeological	-0.09175998
-5.28274	archetype	-0.07946825
-4.98171	archeus	-0.06539366
-4.98171	archipelago	-0.09173279
-5.28274	archipelago's	-0.09175998
-4.805619	archipelago,	-0.1925841
-4.805619	architect	-0.09044663
-5.28274	architects,	-0.09175998
-5.28274	architectural	-0.09175771
-4.98171	architecture	-0.08917256
-5.28274	archives,	-0.08908144
-4.98171	archrival,	-0.08922724
-5.28274	arctic	-0.09175998
-5.28274	ardor,	-0.09125915
-2.445783	are	-0.1467558
-4.37965	are,	-0.08681256
-4.98171	are.	-0.08083607
-4.07862	area	-0.1684471
-4.504589	area,	-0.07450761
-4.68068	area.	-0.3130315
-4.37965	areas	-0.2328198
-5.28274	areas,''	-0.09014893
-4.68068	areas.	-0.1716381
-4.58377	aren't	-0.09097106
-4.98171	argentina	-0.09002613
-4.98171	argentina,	-0.09012845
-4.98171	argentine	-0.3018183
-4.805619	arguably	-0.4303873
-4.504589	argue	-0.1997337
-4.136612	argued	-0.5906593
-5.28274	argued,	-0.09125915
-5.28274	argued.	-0.08130499
-4.68068	argues	-0.1786562
-4.805619	arguing	-0.2134321
-4.437642	argument	-0.08060376
-4.68068	arguments	-0.1692999
-5.28274	arguments,	-0.09027621
-5.28274	ari	-0.09175318
-4.98171	arianna	-0.3020629
-5.28274	ariel	-0.09166937
-5.28274	arisen	-0.0915425
-5.28274	arising	-0.08976229
-5.28274	arithmetic,	-0.08892188
-4.805619	ariz.,	-0.0905443
-4.98171	arizona	-0.09134302
-5.28274	ark.	-0.08130499
-5.28274	arkansas	-0.09098923
-4.98171	arkansas,	-0.08226905
-5.28274	arkema	-0.07946825
-5.28274	arlene,	-0.09123647
-4.68068	arm	-0.5499378
-5.28274	arm,	-0.06549233
-5.28274	arm.	-0.09151983
-5.28274	armada	-0.07946825
-5.28274	armchair	-0.09175998
-4.68068	armed	-0.1816403
-5.28274	armor.	-0.08130499
-5.28274	armored	-0.09175092
-4.58377	arms	-0.0908576
-4.805619	armstrong	-0.09012619
-4.136612	army	-0.1239033
-5.28274	army's	-0.09175998
-4.58377	arnold	-0.1640763
-5.28274	arnott,	-0.06549233
-5.28274	arose	-0.09125915
-3.443891	around	-0.3078789
-4.504589	around,	-0.06289077
-5.28274	around-the-clock	-0.09164446
-4.504589	around.	-0.2227102
-5.28274	around.''	-0.08130499
-5.28274	aroused.	-0.09063287
-5.28274	arpanet	-0.0824172
-5.28274	arpeggios,	-0.09174186
-5.28274	arps,	-0.09175998
-5.28274	arragon	-0.09175771
-5.28274	arraignment	-0.09172827
-4.37965	arranged	-0.2077491
-4.437642	arrangement	-0.1927185
-5.28274	arrangement.	-0.09174865
-5.28274	arrangements	-0.08924548
-5.28274	arrangements.	-0.09173054
-5.28274	arranging.	-0.08130499
-4.58377	array	-0.5346204
-4.805619	arrest	-0.07690714
-5.28274	arrest,	-0.09014893
-5.28274	arrest.	-0.08130499
-4.58377	arrested	-0.2500551
-5.28274	arrested.	-0.08130499
-5.28274	arresting	-0.09175092
-5.28274	arrests,''	-0.09016711
-4.68068	arrival	-0.1680368
-5.28274	arrival.	-0.08130499
-5.28274	arrivals	-0.07946825
-4.58377	arrive	-0.156863
-4.504589	arrived	-0.1230343
-5.28274	arrived.	-0.08130499
-4.68068	arrives	-0.328673
-4.98171	arriving	-0.2929214
-4.241347	art	-0.1415744
-4.805619	art,	-0.08036434
-5.28274	art-house	-0.0917328
-5.28274	arterial	-0.09175318
-4.58377	arteries	-0.06429242
-5.28274	arteries,	-0.09175771
-5.28274	arteries.	-0.09166937
-4.805619	artery	-0.09159235
-5.28274	artery-clogging	-0.09175545
-5.28274	artery-opening	-0.09175318
-5.28274	arthritis	-0.0824172
-5.28274	arthritis.	-0.08130499
-4.504589	arthur	-0.2369431
-4.203558	article	-0.1628188
-5.28274	article's	-0.09175998
-4.805619	article,	-0.2186289
-4.328497	articles	-0.2882542
-4.68068	articles,	-0.07760734
-5.28274	articles.	-0.0824172
-5.28274	articulate	-0.0916807
-4.437642	artificial	-0.1421084
-5.28274	artificially	-0.09175771
-4.98171	artillery	-0.08061304
-4.68068	artist	-0.09174866
-5.28274	artist;	-0.09174865
-4.68068	artists	-0.0889652
-5.28274	artists,	-0.08908144
-4.328497	arts	-0.4240485
-5.28274	arts'	-0.09169203
-4.805619	arts,	-0.193854
-5.28274	arts.	-0.08130499
-5.28274	artwork	-0.09038983
-5.28274	arvind	-0.09175998
-2.210858	as	-0.3776476
-5.28274	as,	-0.09173506
-5.28274	asbestos	-0.0824172
-5.28274	ascender	-0.08938214
-5.28274	ascender.	-0.08892188
-5.28274	ascent	-0.07946825
-5.28274	ascent.	-0.08130499
-5.28274	ascorbate	-0.0824172
-4.98171	ascot	-0.0917577
-5.28274	asda	-0.09144958
-5.28274	asda's	-0.09134984
-5.28274	asda,	-0.09044208
-5.28274	ashes.	-0.08130499
-4.98171	ashley	-0.0917577
-4.28274	asia	-0.1593566
-4.98171	asia's	-0.09124099
-4.805619	asia,	-0.08989424
-5.28274	asia-pacific	-0.09175092
-4.68068	asia.	-0.3215546
-5.28274	asia.''	-0.08130499
-4.504589	asian	-0.09162632
-5.28274	asian,	-0.09078498
-4.136612	aside	-0.1364052
-5.28274	aside.	-0.08130499
-4.168797	ask	-0.1114989
-5.28274	ask.com,	-0.06549233
-3.691675	asked	-0.1849701
-5.28274	asked,	-0.09085308
-4.68068	asked.	-0.3209728
-4.805619	asked:	-0.09160594
-4.003986	asking	-0.09324075
-5.28274	asking,	-0.07935407
-5.28274	asking.	-0.08130499
-4.504589	asks	-0.06127568
-4.98171	asks,	-0.08261384
-5.28274	asks.	-0.09175318
-5.28274	asness,	-0.07935407
-5.28274	aspect	-0.07946825
-4.805619	aspects	-0.2062287
-5.28274	aspire	-0.08061538
-5.28274	aspirin	-0.09174865
-5.28274	aspirin,	-0.09014893
-5.28274	aspirin.	-0.08130499
-4.58377	aspiring	-0.1640763
-5.28274	assassination	-0.08908144
-5.28274	assassination,	-0.09175998
-5.28274	assassins.	-0.09027621
-5.28274	assault	-0.08810725
-4.805619	assemble	-0.2039568
-4.58377	assembled	-0.1598812
-5.28274	assembled,	-0.06549233
-4.98171	assembling	-0.07726087
-5.28274	assembling.	-0.08130499
-4.168797	assembly	-0.299035
-5.28274	asserted	-0.08617295
-4.98171	asserting	-0.08499901
-4.805619	assertion	-0.2122783
-4.98171	asserts	-0.2964782
-5.28274	assess	-0.09172601
-4.805619	assessed	-0.05211498
-4.98171	assessing	-0.09046706
-4.98171	assessment	-0.0793191
-5.28274	assessments	-0.08810725
-3.98171	asset	-0.4658335
-3.960521	assets	-0.1775057
-4.504589	assets,	-0.0787477
-4.37965	assets.	-0.2804415
-5.28274	assiduously	-0.09175998
-5.28274	assigned	-0.08061538
-4.805619	assignment	-0.07306293
-5.28274	assignment,	-0.09056474
-5.28274	assignment.	-0.08130499
-5.28274	assignment:	-0.09016711
-4.68068	assignments	-0.07346945
-5.28274	assignments,	-0.08924548
-4.98171	assist	-0.0557695
-4.58377	assistance	-0.07965458
-4.37965	assistant	-0.2628959
-5.28274	assistants	-0.0824172
-4.98171	assisted	-0.08946639
-4.98171	assisted-living	-0.09166483
-4.68068	associate	-0.1719901
-4.437642	associated	-0.1966584
-4.68068	associates	-0.07965461
-5.28274	associates,	-0.09171015
-5.28274	associates.	-0.06549233
-4.106648	association	-0.236451
-5.28274	association's	-0.09175998
-4.328497	association,	-0.08626521
-4.98171	association.	-0.08099165
-5.28274	associations	-0.0824172
-4.98171	assortment	-0.2897735
-5.28274	assuage	-0.09175092
-4.37965	assume	-0.162182
-4.98171	assumed	-0.08329567
-5.28274	assumes	-0.08617295
-5.28274	assuming	-0.09175998
-4.68068	assumption	-0.2840227
-5.28274	assumption.	-0.09154476
-5.28274	assumptions.	-0.06549233
-5.28274	assurance	-0.09175998
-4.805619	assure	-0.08600315
-4.58377	assured	-0.07467253
-5.28274	assured,	-0.09167617
-5.28274	assured.	-0.08130499
-5.28274	assures	-0.0916218
-4.98171	asthma	-0.09173279
-5.28274	aston	-0.09172827
-5.28274	astonishing	-0.09031939
-5.28274	astonishingly	-0.09172827
-5.28274	astoria,	-0.09175771
-5.28274	astronomical	-0.09173054
-2.262379	at	-0.4121698
-4.328497	at&t	-0.0812632
-4.805619	at&t's	-0.09141105
-5.28274	at&t)	-0.08061538
-5.28274	at&t,	-0.0916875
-4.98171	ata	-0.0917124
-5.28274	ata,	-0.07935407
-5.28274	atari	-0.0824172
-4.98171	ate	-0.09143823
-5.28274	atherosclerosis,	-0.09175998
-5.28274	athlete	-0.08924548
-4.98171	athlete.	-0.07839516
-5.28274	athletes	-0.09048297
-5.28274	athletes,	-0.09175771
-4.98171	athletic	-0.0917192
-5.28274	ati	-0.09174186
-5.28274	atkins	-0.0824172
-4.805619	atlanta	-0.08238249
-4.98171	atlanta,	-0.09161952
-4.805619	atlanta.	-0.07894837
-4.58377	atlantic	-0.08054331
-5.28274	atlantic's	-0.09123647
-5.28274	atlantic:	-0.09151304
-5.28274	atlantic?	-0.08130499
-5.28274	atlas	-0.07946825
-5.28274	atmosphere	-0.08711257
-5.28274	atofina;	-0.09175771
-5.28274	atom,	-0.0824172
-5.28274	atomic	-0.09158328
-5.28274	atomprom,	-0.09175771
-4.68068	atop	-0.2626038
-5.28274	attach	-0.08972816
-4.68068	attached	-0.1730978
-5.28274	attachment	-0.07946825
-5.28274	attaché	-0.09165125
-4.203558	attack	-0.1341545
-4.805619	attack,	-0.07847457
-5.28274	attack,''	-0.08711257
-4.805619	attack.	-0.4462
-4.328497	attacks	-0.1451515
-4.98171	attacks,	-0.09163991
-5.28274	attacks.	-0.08130499
-5.28274	attained	-0.07935407
-4.28274	attempt	-1.030246
-5.28274	attempt.	-0.08130499
-5.28274	attempting	-0.08061538
-4.58377	attempts	-0.3984087
-4.68068	attend	-0.1604106
-5.28274	attend?	-0.08130499
-5.28274	attendance	-0.08841092
-4.98171	attendant	-0.08711026
-5.28274	attendant.	-0.08130499
-5.28274	attendants	-0.09170336
-5.28274	attendants.	-0.09171015
-4.68068	attended	-0.04761537
-5.28274	attendee,	-0.0903262
-4.98171	attendees	-0.08836982
-4.98171	attending	-0.05229855
-5.28274	attends	-0.09161501
-3.960521	attention	-0.2790256
-5.28274	attention,	-0.09027621
-5.28274	attention-focusing	-0.09175771
-5.28274	attention.	-0.08130499
-5.28274	attest,	-0.09063287
-5.28274	attic,	-0.07935407
-5.28274	attired	-0.09175318
-4.98171	attitude	-0.08570926
-5.28274	attitudes	-0.0916875
-5.28274	attitudes,	-0.06549233
-3.902529	attorney	-0.6137596
-4.98171	attorney's	-0.3018772
-4.58377	attorney,	-0.08975317
-4.98171	attorneys	-0.3018454
-4.106648	attract	-0.05934655
-4.68068	attracted	-0.07820594
-5.28274	attracting	-0.0911503
-5.28274	attractive	-0.09173733
-5.28274	attractiveness	-0.07946825
-5.28274	attributed	-0.06549233
-5.28274	attributes,	-0.09164672
-5.28274	atwell	-0.09174639
-5.28274	atwell,	-0.09175092
-5.28274	auburn	-0.09175771
-3.851376	auction	-0.1094477
-5.28274	auction,	-0.09175998
-5.28274	auctioneering	-0.08976229
-5.28274	auctions	-0.09038983
-5.28274	auctions.	-0.09163992
-5.28274	audacious	-0.09175771
-5.28274	audible	-0.09171468
-4.28274	audience	-0.02964814
-5.28274	audience,	-0.09171695
-4.805619	audience.	-0.06702232
-5.28274	audience.''	-0.09016711
-4.68068	audiences	-0.07576896
-5.28274	audiences,	-0.09131584
-4.805619	audio	-0.09165352
-5.28274	audio-entertainment	-0.09174186
-4.68068	audit	-0.1699489
-4.98171	audited	-0.06486387
-4.504589	auditing	-0.09065557
